{"learner":{"attributes":{"scikit_learn":"{\"_estimator_type\": \"classifier\"}"},"feature_names":["WIEK","Interleukina 6","Prokalcytonina","MAP 1sza doba","pao2/fio2 1sza doba","Glukoza (1. gaz. 1sza doba)","Lac (1. gaz. 1sza doba)","BE (1. gaz. 1sza doba)","LA (1. gaz. 1 sza doba)","SOFA - punktacja","temperatura ciała przy przyjęciu (TISS nr 1)","sodium chloride difference tiss 1","sodium chloride difference tiss 2","sodium chloride difference tiss 3","akcja serca przyjęcie (TISS nr 1)","ecg_mean","ecg_std","ecg_min","ecg_max","ecg_skew","ecg_kurtosis","entropy_approx","entropy_sample","qrs_duration_s","qt_interval_s","hr","mean_rr_ms","rr_std","hr_sdnn","hr_rmssd","hr_pnn50"],"feature_types":["int","float","float","float","float","float","float","float","float","int","float","int","int","int","int","float","float","float","float","float","float","float","float","float","float","float","float","float","float","float","float"],"gradient_booster":{"model":{"gbtree_model_param":{"num_parallel_tree":"1","num_trees":"191"},"iteration_indptr":[0,1,2,3,4,5,6,7,8,9,10,11,12,13,14,15,16,17,18,19,20,21,22,23,24,25,26,27,28,29,30,31,32,33,34,35,36,37,38,39,40,41,42,43,44,45,46,47,48,49,50,51,52,53,54,55,56,57,58,59,60,61,62,63,64,65,66,67,68,69,70,71,72,73,74,75,76,77,78,79,80,81,82,83,84,85,86,87,88,89,90,91,92,93,94,95,96,97,98,99,100,101,102,103,104,105,106,107,108,109,110,111,112,113,114,115,116,117,118,119,120,121,122,123,124,125,126,127,128,129,130,131,132,133,134,135,136,137,138,139,140,141,142,143,144,145,146,147,148,149,150,151,152,153,154,155,156,157,158,159,160,161,162,163,164,165,166,167,168,169,170,171,172,173,174,175,176,177,178,179,180,181,182,183,184,185,186,187,188,189,190,191],"tree_info":[0,0,0,0,0,0,0,0,0,0,0,0,0,0,0,0,0,0,0,0,0,0,0,0,0,0,0,0,0,0,0,0,0,0,0,0,0,0,0,0,0,0,0,0,0,0,0,0,0,0,0,0,0,0,0,0,0,0,0,0,0,0,0,0,0,0,0,0,0,0,0,0,0,0,0,0,0,0,0,0,0,0,0,0,0,0,0,0,0,0,0,0,0,0,0,0,0,0,0,0,0,0,0,0,0,0,0,0,0,0,0,0,0,0,0,0,0,0,0,0,0,0,0,0,0,0,0,0,0,0,0,0,0,0,0,0,0,0,0,0,0,0,0,0,0,0,0,0,0,0,0,0,0,0,0,0,0,0,0,0,0,0,0,0,0,0,0,0,0,0,0,0,0,0,0,0,0,0,0,0,0,0,0,0,0,0,0,0,0,0,0],"trees":[{"base_weights":[-1.545209E-1,3.539497E-1,-6.4098513E-1,-8.1788704E-2,6.199406E-3,-0E0,-6.286003E-3,1.9827606E-3,-3.7332404E-1,2.9065106E-3,-3.5529379E-3,-4.8625884E-3,-0E0],"categories":[],"categories_nodes":[],"categories_segments":[],"categories_sizes":[],"default_left":[0,0,0,0,0,0,0,0,0,0,0,0,0],"id":0,"left_children":[1,3,5,7,-1,9,-1,-1,11,-1,-1,-1,-1],"loss_changes":[1.1454525E1,8.427219E0,8.52721E0,2.0818484E0,0E0,4.382006E0,0E0,0E0,2.729673E0,0E0,0E0,0E0,0E0],"parents":[2147483647,0,0,1,1,2,2,3,3,5,5,8,8],"right_children":[2,4,6,8,-1,10,-1,-1,12,-1,-1,-1,-1],"split_conditions":[3.3E1,3.2E0,8.655683E0,3.61E1,6.199406E-3,9.9E0,-6.286003E-3,1.9827606E-3,1.3E0,2.9065106E-3,-3.5529379E-3,-4.8625884E-3,-0E0],"split_indices":[12,6,20,10,0,5,0,0,6,0,0,0,0],"split_type":[0,0,0,0,0,0,0,0,0,0,0,0,0],"sum_hessian":[4.15581E1,1.941037E1,2.214773E1,1.2442545E1,6.967825E0,9.705185E0,1.2442545E1,3.2350616E0,9.207483E0,6.2212725E0,3.4839125E0,3.7327635E0,5.4747195E0],"tree_param":{"num_deleted":"0","num_feature":"31","num_nodes":"13","size_leaf_vector":"1"}},{"base_weights":[-1.0415033E-2,-6.4977634E-1,8.4366584E-1,1.5140833E-1,-9.7804874E-1,7.7980924E-3,-0E0,3.0938936E-3,-3.973759E-4,-2.1346865E-4,-1.1628768E0,-2.1083604E-3,8.711441E-4,-7.536633E-3,-3.9303247E-4],"categories":[],"categories_nodes":[],"categories_segments":[],"categories_sizes":[],"default_left":[0,0,1,0,0,0,0,0,0,0,1,0,0,0,0],"id":1,"left_children":[1,3,5,7,9,-1,11,-1,-1,-1,13,-1,-1,-1,-1],"loss_changes":[2.524178E1,8.418336E0,1.0636052E1,1.4018434E0,2.1424713E0,0E0,8.6573434E-1,0E0,0E0,0E0,1.7166214E0,0E0,0E0,0E0,0E0],"parents":[2147483647,0,0,1,1,2,2,3,3,4,4,6,6,10,10],"right_children":[2,4,6,8,10,-1,12,-1,-1,-1,14,-1,-1,-1,-1],"split_conditions":[3.3E0,-1.352566E0,9.371155E0,1E0,3E1,7.7980924E-3,4.4444447E0,3.0938936E-3,-3.973759E-4,-2.1346865E-4,7.5576776E-1,-2.1083604E-3,8.711441E-4,-7.536633E-3,-3.9303247E-4],"split_indices":[6,17,20,2,13,0,30,0,0,0,19,0,0,0,0],"split_type":[0,0,0,0,0,0,0,0,0,0,0,0,0,0,0],"sum_hessian":[4.30491E1,2.562789E1,1.742121E1,6.71801E0,1.890988E1,1.0453893E1,6.9673166E0,3.2344983E0,3.4835114E0,4.47884E0,1.443104E1,3.2347052E0,3.7326114E0,1.0947813E1,3.4832275E0],"tree_param":{"num_deleted":"0","num_feature":"31","num_nodes":"15","size_leaf_vector":"1"}},{"base_weights":[-3.3238634E-2,4.8728162E-1,-5.262787E-1,-6.2265795E-2,9.290375E-1,5.4882344E-2,-8.82033E-1,1.2384864E-3,-3.1890143E-3,6.20833E-3,-0E0,-1.8429001E-3,2.909139E-3,-0E0,-6.3009216E-3],"categories":[],"categories_nodes":[],"categories_segments":[],"categories_sizes":[],"default_left":[0,0,0,1,1,0,0,0,0,0,0,0,0,0,0],"id":2,"left_children":[1,3,5,7,9,11,13,-1,-1,-1,-1,-1,-1,-1,-1],"loss_changes":[1.2711507E1,6.6623564E0,6.4920297E0,2.213123E0,1.4583368E0,2.449452E0,3.053483E0,0E0,0E0,0E0,0E0,0E0,0E0,0E0,0E0],"parents":[2147483647,0,0,1,1,2,2,3,3,4,4,5,5,6,6],"right_children":[2,4,6,8,10,12,14,-1,-1,-1,-1,-1,-1,-1,-1],"split_conditions":[-5.9E0,6.3E1,1.366E2,-1.2365293E-5,1.08948006E2,6.8E1,-1.1338018E-4,1.2384864E-3,-3.1890143E-3,6.20833E-3,-0E0,-1.8429001E-3,2.909139E-3,-0E0,-6.3009216E-3],"split_indices":[7,0,4,15,28,3,15,0,0,0,0,0,0,0,0],"split_type":[0,0,0,0,0,0,0,0,0,0,0,0,0,0,0],"sum_hessian":[4.5785004E1,2.1155975E1,2.462903E1,8.960563E0,1.2195412E1,8.70757E0,1.5921461E1,4.9784565E0,3.982106E0,8.959923E0,3.2354894E0,3.7318852E0,4.9756846E0,4.7269077E0,1.1194553E1],"tree_param":{"num_deleted":"0","num_feature":"31","num_nodes":"15","size_leaf_vector":"1"}},{"base_weights":[-1.9634083E-1,-5.8989936E-1,4.4400668E-1,1.2417363E-3,-7.9978734E-1,7.3960644E-1,-1.2456144E-3,-0E0,-9.65317E-1,6.0474616E-3,-0E0,-6.6980524E-3,-0E0],"categories":[],"categories_nodes":[],"categories_segments":[],"categories_sizes":[],"default_left":[0,0,0,0,1,0,0,0,0,0,0,0,0],"id":3,"left_children":[1,3,5,-1,7,9,-1,-1,11,-1,-1,-1,-1],"loss_changes":[1.2747419E1,6.3849363E0,4.4866657E0,0E0,4.08169E0,3.5643244E0,0E0,0E0,4.440975E0,0E0,0E0,0E0,0E0],"parents":[2147483647,0,0,1,1,2,2,4,4,5,5,8,8],"right_children":[2,4,6,-1,8,10,-1,-1,12,-1,-1,-1,-1],"split_conditions":[1.3E1,2.9E1,-2.5E0,1.2417363E-3,-2.4231114E0,1.1E2,-1.2456144E-3,-0E0,7.242434E-1,6.0474616E-3,-0E0,-6.6980524E-3,-0E0],"split_indices":[9,12,7,0,17,14,0,0,19,0,0,0,0],"split_type":[0,0,0,0,0,0,0,0,0,0,0,0,0],"sum_hessian":[4.6277294E1,2.9852783E1,1.6424511E1,4.978173E0,2.487461E1,1.2444207E1,3.9803033E0,3.9794638E0,2.0895147E1,7.715883E0,4.7283244E0,1.5671007E1,5.2241397E0],"tree_param":{"num_deleted":"0","num_feature":"31","num_nodes":"13","size_leaf_vector":"1"}},{"base_weights":[1.4673778E-2,1.0198781E0,-2.978614E-1,-0E0,8.65848E-3,3.4984216E-2,-6.200649E-1,4.5529255E-3,-2.3167326E-1,-9.3860674E-1,-0E0,-3.886897E-3,1.6984639E-3,-7.2030067E-3,-0E0,-9.984411E-4,8.8107964E-4],"categories":[],"categories_nodes":[],"categories_segments":[],"categories_sizes":[],"default_left":[0,0,0,0,0,1,1,0,0,1,0,0,0,0,0,0,0],"id":4,"left_children":[1,3,5,-1,-1,7,9,-1,11,13,15,-1,-1,-1,-1,-1,-1],"loss_changes":[1.6231726E1,8.45492E0,4.6327834E0,0E0,0E0,4.787375E0,4.011759E0,0E0,4.31705E0,4.6377335E0,3.0336416E-1,0E0,0E0,0E0,0E0,0E0,0E0],"parents":[2147483647,0,0,1,1,2,2,5,5,6,6,8,8,9,9,10,10],"right_children":[2,4,6,-1,-1,8,10,-1,12,14,16,-1,-1,-1,-1,-1,-1],"split_conditions":[2.9E1,2.8E0,3.5E1,-0E0,8.65848E-3,-4.5177693E-4,-7.2683126E-1,4.5529255E-3,6.4E1,1.0205407E2,1.62E0,-3.886897E-3,1.6984639E-3,-7.2030067E-3,-0E0,-9.984411E-4,8.8107964E-4],"split_indices":[13,6,13,0,0,15,17,0,0,29,2,0,0,0,0,0,0],"split_type":[0,0,0,0,0,0,0,0,0,0,0,0,0,0,0,0,0],"sum_hessian":[4.5528988E1,1.070522E1,3.482377E1,3.7310843E0,6.9741354E0,1.617026E1,1.8653507E1,4.2292852E0,1.1940974E1,1.16874485E1,6.966059E0,7.2127423E0,4.7282314E0,7.95665E0,3.730799E0,3.2341785E0,3.7318804E0],"tree_param":{"num_deleted":"0","num_feature":"31","num_nodes":"17","size_leaf_vector":"1"}},{"base_weights":[1.3247848E-3,-5.7255596E-1,6.728274E-1,-9.601735E-1,-7.349276E-2,1.1670506E0,-1.5278931E-2,-6.42293E-3,-3.6534778E-4,-3.0739093E-3,1.5620103E-3,8.344931E-4,7.382553E-3,4.2034113E-3,-4.8296554E-3],"categories":[],"categories_nodes":[],"categories_segments":[],"categories_sizes":[],"default_left":[0,0,0,0,0,0,1,0,0,0,0,0,0,0,0],"id":5,"left_children":[1,3,5,7,9,11,13,-1,-1,-1,-1,-1,-1,-1,-1],"loss_changes":[1.8749313E1,3.5611935E0,9.235448E0,7.445564E-1,3.0304928E0,4.0548706E-1,8.287433E0,0E0,0E0,0E0,0E0,0E0,0E0,0E0,0E0],"parents":[2147483647,0,0,1,1,2,2,3,3,4,4,5,5,6,6],"right_children":[2,4,6,8,10,12,14,-1,-1,-1,-1,-1,-1,-1,-1],"split_conditions":[2.6E0,-6.6046154E-1,3.5E1,7.108516E-1,8.7E1,1.2820513E0,2.23748E-1,-6.42293E-3,-3.6534778E-4,-3.0739093E-3,1.5620103E-3,8.344931E-4,7.382553E-3,4.2034113E-3,-4.8296554E-3],"split_indices":[6,19,12,18,14,30,24,0,0,0,0,0,0,0,0],"split_type":[0,0,0,0,0,0,0,0,0,0,0,0,0,0,0],"sum_hessian":[4.478344E1,2.337251E1,2.1410927E1,1.0938661E1,1.2433849E1,1.27023945E1,8.708533E0,7.45737E0,3.4812913E0,6.216485E0,6.2173643E0,3.2376451E0,9.464749E0,3.982629E0,4.7259045E0],"tree_param":{"num_deleted":"0","num_feature":"31","num_nodes":"15","size_leaf_vector":"1"}},{"base_weights":[-4.2456876E-2,-7.9021823E-1,5.112668E-1,-1.0532572E0,-0E0,1.1778537E0,-1.4066438E-1,-0E0,-7.4083162E-3,2.9892975E-4,7.836004E-3,-6.903257E-1,2.875913E-3,-5.272389E-3,-0E0],"categories":[],"categories_nodes":[],"categories_segments":[],"categories_sizes":[],"default_left":[0,1,0,0,0,0,0,0,0,0,0,0,0,0,0],"id":6,"left_children":[1,3,5,7,-1,9,11,-1,-1,-1,-1,13,-1,-1,-1],"loss_changes":[2.0838768E1,4.8374166E0,1.3508923E1,3.8269234E0,0E0,2.1318474E0,6.1806445E0,0E0,0E0,0E0,0E0,8.141475E-1,0E0,0E0,0E0],"parents":[2147483647,0,0,1,1,2,2,3,3,5,5,6,6,11,11],"right_children":[2,4,6,8,-1,10,12,-1,-1,-1,-1,14,-1,-1,-1],"split_conditions":[2.1E0,1.084574E0,3.3E1,1.2983333E2,-0E0,6.1E1,3.6272436E-1,-0E0,-7.4083162E-3,2.9892975E-4,7.836004E-3,5.1E0,2.875913E-3,-5.272389E-3,-0E0],"split_indices":[6,18,12,4,0,0,24,0,0,0,0,6,0,0,0],"split_type":[0,0,0,0,0,0,0,0,0,0,0,0,0,0,0],"sum_hessian":[4.6029247E1,2.0135578E1,2.589367E1,1.491365E1,5.221929E0,1.295573E1,1.293794E1,4.228134E0,1.0685515E1,3.4869204E0,9.46881E0,7.959756E0,4.9781833E0,4.226642E0,3.7331138E0],"tree_param":{"num_deleted":"0","num_feature":"31","num_nodes":"15","size_leaf_vector":"1"}},{"base_weights":[-1.5561801E-2,-6.2953144E-1,3.826436E-1,-0E0,-9.230486E-1,8.676214E-1,-3.4106903E-2,-7.16518E-3,-2.2424474E-1,6.799375E-3,-0E0,3.7790307E-1,-3.088361E-3,-0E0,-3.1495884E-3,-0E0,3.4299002E-3],"categories":[],"categories_nodes":[],"categories_segments":[],"categories_sizes":[],"default_left":[0,0,0,0,0,0,1,0,1,0,0,0,0,0,0,0,0],"id":7,"left_children":[1,3,5,-1,7,9,11,-1,13,-1,-1,15,-1,-1,-1,-1,-1],"loss_changes":[1.1975688E1,4.420129E0,6.6490526E0,0E0,1.5032787E0,4.3915796E0,3.923376E0,0E0,1.2106216E0,0E0,0E0,8.11146E-1,0E0,0E0,0E0,0E0,0E0],"parents":[2147483647,0,0,1,1,2,2,4,4,5,5,6,6,8,8,11,11],"right_children":[2,4,6,-1,8,10,12,-1,14,-1,-1,16,-1,-1,-1,-1,-1],"split_conditions":[1.9E0,-1.3786435E-4,3.62E1,-0E0,1.2E0,3.5E1,8.201541E0,-7.16518E-3,1.02883056E-1,6.799375E-3,-0E0,3.9E0,-3.088361E-3,-0E0,-3.1495884E-3,-0E0,3.4299002E-3],"split_indices":[6,15,10,0,6,12,20,0,23,0,0,6,0,0,0,0,0],"split_type":[0,0,0,0,0,0,0,0,0,0,0,0,0,0,0,0,0],"sum_hessian":[4.4283024E1,1.814078E1,2.6142244E1,5.470677E0,1.2670102E1,1.2454284E1,1.3687962E1,6.2094216E0,6.4606805E0,8.222776E0,4.2315073E0,6.7223372E0,6.9656243E0,3.2301893E0,3.2304912E0,3.2346203E0,3.487717E0],"tree_param":{"num_deleted":"0","num_feature":"31","num_nodes":"17","size_leaf_vector":"1"}},{"base_weights":[-6.873554E-3,-7.4581015E-1,6.3278663E-1,-2.668571E-1,-6.0877255E-3,7.950997E-3,-1.7193013E-1,-3.936709E-3,-0E0,3.1750356E-3,-5.14539E-3,2.0307887E-3,-8.0865814E-4],"categories":[],"categories_nodes":[],"categories_segments":[],"categories_sizes":[],"default_left":[0,0,0,0,0,0,1,0,0,0,0,0,0],"id":8,"left_children":[1,3,5,7,-1,-1,9,-1,11,-1,-1,-1,-1],"loss_changes":[2.2631596E1,1.8029184E0,1.7866632E1,2.3347588E0,0E0,0E0,8.837449E0,0E0,7.937216E-1,0E0,0E0,0E0,0E0],"parents":[2147483647,0,0,1,1,2,2,3,3,6,6,8,8],"right_children":[2,4,6,8,-1,-1,10,-1,12,-1,-1,-1,-1],"split_conditions":[2.6E0,1.3912278E1,3.3E1,3.1050348E-1,-6.0877255E-3,7.950997E-3,7.0225596E0,-3.936709E-3,6.57E1,3.1750356E-3,-5.14539E-3,2.0307887E-3,-8.0865814E-4],"split_indices":[6,20,12,24,0,0,20,0,1,0,0,0,0],"split_type":[0,0,0,0,0,0,0,0,0,0,0,0,0],"sum_hessian":[4.403644E1,2.1122889E1,2.2913551E1,1.1683186E1,9.439704E0,1.1468972E1,1.1444579E1,4.7218056E0,6.9613795E0,5.2285137E0,6.216065E0,3.2319353E0,3.7294443E0],"tree_param":{"num_deleted":"0","num_feature":"31","num_nodes":"13","size_leaf_vector":"1"}},{"base_weights":[5.058075E-2,6.670905E-1,-3.9167166E-1,1.0025872E0,-0E0,-7.700683E-1,1.5171342E-1,-0E0,7.021673E-3,-5.254176E-3,-0E0,-1.7819739E-3,3.4930047E-3],"categories":[],"categories_nodes":[],"categories_segments":[],"categories_sizes":[],"default_left":[0,0,0,0,0,0,0,0,0,0,0,0,0],"id":9,"left_children":[1,3,5,7,-1,9,11,-1,-1,-1,-1,-1,-1],"loss_changes":[1.3003334E1,5.211815E0,6.291358E0,2.6010695E0,0E0,2.3143187E0,3.2124434E0,0E0,0E0,0E0,0E0,0E0,0E0],"parents":[2147483647,0,0,1,1,2,2,3,3,5,5,6,6],"right_children":[2,4,6,8,-1,10,12,-1,-1,-1,-1,-1,-1],"split_conditions":[-6E0,3.5E1,1.909726E-1,8.060597E-2,-0E0,7.55E2,9E0,-0E0,7.021673E-3,-5.254176E-3,-0E0,-1.7819739E-3,3.4930047E-3],"split_indices":[7,12,16,22,0,1,9,0,0,0,0,0,0],"split_type":[0,0,0,0,0,0,0,0,0,0,0,0,0],"sum_hessian":[4.3039658E1,1.8676424E1,2.4363234E1,1.24574585E1,6.218967E0,1.5160659E1,9.202575E0,3.7358856E0,8.721573E0,1.1928268E1,3.2323904E0,3.7271082E0,5.4754663E0],"tree_param":{"num_deleted":"0","num_feature":"31","num_nodes":"13","size_leaf_vector":"1"}},{"base_weights":[-8.843973E-2,6.547412E-1,-5.1871574E-1,-1.115251E-1,6.9353404E-3,1.8306813E-1,-9.896974E-1,-3.1496256E-3,8.748455E-4,3.198591E-3,-3.3881638E-4,-1.1197783E0,-0E0,-8.200635E-4,-7.1255085E-3],"categories":[],"categories_nodes":[],"categories_segments":[],"categories_sizes":[],"default_left":[0,0,1,1,0,0,0,0,0,0,0,0,0,0,0],"id":10,"left_children":[1,3,5,7,-1,9,11,-1,-1,-1,-1,13,-1,-1,-1],"loss_changes":[1.5420336E1,9.341166E0,1.169425E1,1.6481304E0,0E0,1.9296806E0,1.4857769E0,0E0,0E0,0E0,0E0,7.8343964E-1,0E0,0E0,0E0],"parents":[2147483647,0,0,1,1,2,2,3,3,5,5,6,6,11,11],"right_children":[2,4,6,8,-1,10,12,-1,-1,-1,-1,14,-1,-1,-1],"split_conditions":[3.1E1,1.02E1,6.15026E0,-8.3650935E-1,6.9353404E-3,1.4043197E-1,1.1304849E2,-3.1496256E-3,8.748455E-4,3.198591E-3,-3.3881638E-4,3E1,-0E0,-8.200635E-4,-7.1255085E-3],"split_indices":[13,8,20,19,0,22,27,0,0,0,0,11,0,0,0],"split_type":[0,0,0,0,0,0,0,0,0,0,0,0,0,0,0],"sum_hessian":[4.5023388E1,1.5194505E1,2.9828882E1,6.465005E0,8.7295E0,1.1444804E1,1.8384077E1,3.2300425E0,3.2349625E0,5.226269E0,6.218535E0,1.51547985E1,3.229279E0,3.7298744E0,1.1424924E1],"tree_param":{"num_deleted":"0","num_feature":"31","num_nodes":"15","size_leaf_vector":"1"}},{"base_weights":[1.8121013E-1,-2.9372045E-1,7.033922E-1,-5.608425E-1,3.205149E-3,-0E0,1.2431178E0,-6.083429E-3,-0E0,3.204013E-1,-3.1600369E-3,8.016612E-3,7.970741E-4,-2.0162924E-3,1.4935281E-3,3.6487423E-3,-0E0],"categories":[],"categories_nodes":[],"categories_segments":[],"categories_sizes":[],"default_left":[0,0,0,0,0,1,1,0,0,0,0,0,0,0,0,0,0],"id":11,"left_children":[1,3,5,7,-1,9,11,-1,13,15,-1,-1,-1,-1,-1,-1,-1],"loss_changes":[1.2693123E1,6.424542E0,9.158767E0,6.9070606E0,0E0,2.5855055E0,9.163132E-1,0E0,1.2851014E0,1.6659148E0,0E0,0E0,0E0,0E0,0E0,0E0,0E0],"parents":[2147483647,0,0,1,1,2,2,3,3,5,5,6,6,8,8,9,9],"right_children":[2,4,6,8,-1,10,12,-1,14,16,-1,-1,-1,-1,-1,-1,-1],"split_conditions":[6.5E1,1.4E1,2.6E0,1.5312474E1,3.205149E-3,9.766199E1,3.3648726E-1,-6.083429E-3,1.4525099E-1,1.27E2,-3.1600369E-3,8.016612E-3,7.970741E-4,-2.0162924E-3,1.4935281E-3,3.6487423E-3,-0E0],"split_indices":[0,9,6,27,0,25,24,0,16,1,0,0,0,0,0,0,0],"split_type":[0,0,0,0,0,0,0,0,0,0,0,0,0,0,0,0,0],"sum_hessian":[4.6021004E1,2.3365786E1,2.2655218E1,1.9381216E1,3.9845698E0,1.0690013E1,1.1965205E1,9.437788E0,9.943429E0,7.458951E0,3.2310617E0,8.726372E0,3.2388334E0,3.2276835E0,6.7157454E0,4.2280793E0,3.2308717E0],"tree_param":{"num_deleted":"0","num_feature":"31","num_nodes":"17","size_leaf_vector":"1"}},{"base_weights":[-2.227931E-2,-5.4898953E-1,6.603881E-1,8.49474E-4,-7.288403E-1,8.8714755E-1,-4.29278E-4,-1.0140738E0,8.6997665E-4,1.0383952E0,-0E0,-0E0,-6.7236153E-3,-0E0,7.0008035E-3],"categories":[],"categories_nodes":[],"categories_segments":[],"categories_sizes":[],"default_left":[0,0,1,0,1,0,0,0,0,0,0,0,0,0,0],"id":12,"left_children":[1,3,5,-1,7,9,-1,11,-1,13,-1,-1,-1,-1,-1],"loss_changes":[1.7529524E1,4.47268E0,4.472234E0,0E0,7.427352E0,1.4499655E0,0E0,4.043129E0,0E0,2.0040474E0,0E0,0E0,0E0,0E0,0E0],"parents":[2147483647,0,0,1,1,2,2,4,4,5,5,7,7,9,9],"right_children":[2,4,6,-1,8,10,-1,12,-1,14,-1,-1,-1,-1,-1],"split_conditions":[1.2E1,5.583882E2,4.011544E1,8.49474E-4,1.6442238E-1,1.703381E-1,-4.29278E-4,1.7E-1,8.6997665E-4,-1.3885205E0,-0E0,-0E0,-6.7236153E-3,-0E0,7.0008035E-3],"split_indices":[9,26,30,0,16,22,0,2,0,19,0,0,0,0,0],"split_type":[0,0,0,0,0,0,0,0,0,0,0,0,0,0,0],"sum_hessian":[4.551649E1,2.6834278E1,1.868221E1,4.2295847E0,2.2604694E1,1.51976E1,3.484611E0,1.7879026E1,4.7256675E0,1.1954879E1,3.2427218E0,3.2281864E0,1.465084E1,3.231733E0,8.7231455E0],"tree_param":{"num_deleted":"0","num_feature":"31","num_nodes":"15","size_leaf_vector":"1"}},{"base_weights":[1.7958222E-2,-4.8640838E-1,8.128273E-1,-7.9509586E-1,-0E0,8.278375E-3,-0E0,-6.031876E-3,-0E0,-2.1824122E-3,2.8947678E-3,-2.8453965E-3,3.2753411E-3],"categories":[],"categories_nodes":[],"categories_segments":[],"categories_sizes":[],"default_left":[0,0,0,0,0,0,0,0,0,0,0,0,0],"id":13,"left_children":[1,3,5,7,9,-1,11,-1,-1,-1,-1,-1,-1],"loss_changes":[1.9346888E1,4.99531E0,9.723962E0,3.1587439E0,2.8621585E0,0E0,3.9411175E0,0E0,0E0,0E0,0E0,0E0,0E0],"parents":[2147483647,0,0,1,1,2,2,3,3,4,4,6,6],"right_children":[2,4,6,8,10,-1,12,-1,-1,-1,-1,-1,-1],"split_conditions":[3.3E0,3.5352322E-1,3.1E1,-7.482674E-1,1.3E0,8.278375E-3,6.3E1,-6.031876E-3,-0E0,-2.1824122E-3,2.8947678E-3,-2.8453965E-3,3.2753411E-3],"split_indices":[6,24,13,17,6,0,0,0,0,0,0,0,0],"split_type":[0,0,0,0,0,0,0,0,0,0,0,0,0],"sum_hessian":[4.3779522E1,2.6330034E1,1.744949E1,1.6637608E1,9.692426E0,8.237093E0,9.212396E0,1.0674934E1,5.962674E0,4.7164297E0,4.975996E0,4.476498E0,4.7358975E0],"tree_param":{"num_deleted":"0","num_feature":"31","num_nodes":"13","size_leaf_vector":"1"}},{"base_weights":[-5.9371058E-2,3.0514896E-1,-8.97708E-1,6.123113E-3,-0E0,-6.2935296E-3,-0E0,2.531026E-1,-4.779571E-1,-3.1873616E-3,3.286681E-3,-5.1358617E-3,3.6299866E-4],"categories":[],"categories_nodes":[],"categories_segments":[],"categories_sizes":[],"default_left":[1,0,0,0,0,0,0,0,1,0,0,0,0],"id":14,"left_children":[1,3,5,-1,7,-1,-1,9,11,-1,-1,-1,-1],"loss_changes":[1.6076996E1,9.06312E0,2.423195E0,0E0,3.5136824E0,0E0,0E0,5.5669975E0,3.6581635E0,0E0,0E0,0E0,0E0],"parents":[2147483647,0,0,1,1,2,2,4,4,7,7,8,8],"right_children":[2,4,6,-1,8,-1,-1,10,12,-1,-1,-1,-1],"split_conditions":[1.18251915E1,2.9E1,3.7E0,6.123113E-3,3.6E1,-6.2935296E-3,-0E0,4.8E1,1.3838342E-1,-3.1873616E-3,3.286681E-3,-5.1358617E-3,3.6299866E-4],"split_indices":[20,13,6,0,12,0,0,0,19,0,0,0,0],"split_type":[0,0,0,0,0,0,0,0,0,0,0,0,0],"sum_hessian":[4.7007774E1,3.260559E1,1.4402181E1,8.23115E0,2.4374443E1,1.0173126E1,4.2290545E0,1.5677994E1,8.696449E0,3.2327425E0,1.2445251E1,5.213991E0,3.4824579E0],"tree_param":{"num_deleted":"0","num_feature":"31","num_nodes":"13","size_leaf_vector":"1"}},{"base_weights":[1.4688064E-1,-4.8543438E-1,6.60335E-1,-7.9143125E-1,2.3438655E-4,1.1572047E0,-3.341432E-2,-6.1950865E-3,-3.2041568E-4,7.28846E-4,7.429285E-3,-4.5122565E-3,3.130291E-1,4.114979E-3,-0E0],"categories":[],"categories_nodes":[],"categories_segments":[],"categories_sizes":[],"default_left":[0,1,0,0,0,0,0,0,0,0,0,0,0,0,0],"id":15,"left_children":[1,3,5,7,-1,9,11,-1,-1,-1,-1,-1,13,-1,-1],"loss_changes":[1.5889774E1,4.290209E0,1.0813689E1,2.0754652E0,0E0,1.2330894E0,4.3437414E0,0E0,0E0,0E0,0E0,0E0,1.920658E0,0E0,0E0],"parents":[2147483647,0,0,1,1,2,2,3,3,5,5,6,6,12,12],"right_children":[2,4,6,8,-1,10,12,-1,-1,-1,-1,-1,14,-1,-1],"split_conditions":[2.1E0,8.806901E-1,3.4E1,-6.025032E-1,2.3438655E-4,5.0257236E-1,1.1079545E-1,-6.1950865E-3,-3.2041568E-4,7.28846E-4,7.429285E-3,-4.5122565E-3,1.35E2,4.114979E-3,-0E0],"split_indices":[6,18,13,17,0,18,23,0,0,0,0,0,4,0,0],"split_type":[0,0,0,0,0,0,0,0,0,0,0,0,0,0,0],"sum_hessian":[4.4775986E1,1.9113115E1,2.566287E1,1.2902422E1,6.2106924E0,1.5216201E1,1.0446671E1,7.1903424E0,5.7120795E0,3.7394857E0,1.1476715E1,3.4760036E0,6.9706674E0,3.2383423E0,3.7323248E0],"tree_param":{"num_deleted":"0","num_feature":"31","num_nodes":"15","size_leaf_vector":"1"}},{"base_weights":[-4.7695648E-2,-5.410482E-1,5.869228E-1,4.712502E-4,-7.008704E-1,-8.035402E-2,1.1095694E0,-9.063011E-1,-0E0,1.1398012E-3,-3.5291775E-3,-0E0,7.6553416E-3,-0E0,-5.9380345E-3],"categories":[],"categories_nodes":[],"categories_segments":[],"categories_sizes":[],"default_left":[0,1,0,0,0,0,0,0,0,0,0,0,0,0,0],"id":16,"left_children":[1,3,5,-1,7,9,11,13,-1,-1,-1,-1,-1,-1,-1],"loss_changes":[1.618263E1,3.8214064E0,8.913158E0,0E0,3.5574083E0,2.3638248E0,2.8569107E0,2.4821148E0,0E0,0E0,0E0,0E0,0E0,0E0,0E0],"parents":[2147483647,0,0,1,1,2,2,4,4,5,5,6,6,7,7],"right_children":[2,4,6,-1,8,10,12,14,-1,-1,-1,-1,-1,-1,-1],"split_conditions":[3.3E0,-2.284021E0,6.3E1,4.712502E-4,1.3E1,8.729013E0,-1.1436523E0,9.4666664E1,-0E0,1.1398012E-3,-3.5291775E-3,-0E0,7.6553416E-3,-0E0,-5.9380345E-3],"split_indices":[6,17,0,0,9,20,19,4,0,0,0,0,0,0,0],"split_type":[0,0,0,0,0,0,0,0,0,0,0,0,0,0,0],"sum_hessian":[4.825455E1,2.830898E1,1.9945572E1,4.473811E0,2.3835169E1,8.46573E0,1.1479842E1,1.7867107E1,5.9680614E0,4.9844465E0,3.4812827E0,3.2393003E0,8.240541E0,3.478253E0,1.4388855E1],"tree_param":{"num_deleted":"0","num_feature":"31","num_nodes":"15","size_leaf_vector":"1"}},{"base_weights":[-5.7918314E-2,-6.362897E-1,6.4504987E-1,-8.310037E-1,4.5491842E-4,1.1024958E0,-6.70204E-2,-1.0551094E0,-0E0,8.063938E-3,1.8515993E-3,-3.3081188E-3,1.2064335E-3,-0E0,-6.7407303E-3],"categories":[],"categories_nodes":[],"categories_segments":[],"categories_sizes":[],"default_left":[0,0,0,0,0,0,0,0,0,0,0,0,0,0,0],"id":17,"left_children":[1,3,5,7,-1,9,11,13,-1,-1,-1,-1,-1,-1,-1],"loss_changes":[1.9852343E1,4.838234E0,8.230278E0,4.517515E0,0E0,8.990288E-1,2.0300887E0,2.0353985E0,0E0,0E0,0E0,0E0,0E0,0E0,0E0],"parents":[2147483647,0,0,1,1,2,2,3,3,5,5,6,6,7,7],"right_children":[2,4,6,8,-1,10,12,14,-1,-1,-1,-1,-1,-1,-1],"split_conditions":[3.2E0,1.2E2,2.2E2,7.2E1,4.5491842E-4,3.3E1,2.9997894E-1,9.90954E-2,-0E0,8.063938E-3,1.8515993E-3,-3.3081188E-3,1.2064335E-3,-0E0,-6.7407303E-3],"split_indices":[6,14,4,0,0,12,24,23,0,0,0,0,0,0,0],"split_type":[0,0,0,0,0,0,0,0,0,0,0,0,0,0,0],"sum_hessian":[4.5261734E1,2.5815159E1,1.9446573E1,2.1340464E1,4.4746943E0,1.221952E1,7.227054E0,1.6617216E1,4.7232485E0,6.244506E0,5.9750137E0,3.2388484E0,3.9882057E0,3.2241735E0,1.3393043E1],"tree_param":{"num_deleted":"0","num_feature":"31","num_nodes":"15","size_leaf_vector":"1"}},{"base_weights":[-5.327857E-2,7.805949E-1,-4.5932502E-1,1.1267892E0,-0E0,-8.065792E-1,2.2586407E-1,7.658454E-4,7.6635582E-3,-9.938419E-1,-0E0,-5.9369294E-4,3.814118E-3,-6.5339184E-3,-0E0],"categories":[],"categories_nodes":[],"categories_segments":[],"categories_sizes":[],"default_left":[0,0,0,0,0,1,0,0,0,1,0,0,0,0,0],"id":18,"left_children":[1,3,5,7,-1,9,11,-1,-1,13,-1,-1,-1,-1,-1],"loss_changes":[1.5272071E1,4.3546047E0,8.562958E0,5.3810596E-1,0E0,4.440572E0,2.494144E0,0E0,0E0,3.033453E0,0E0,0E0,0E0,0E0,0E0],"parents":[2147483647,0,0,1,1,2,2,3,3,5,5,6,6,9,9],"right_children":[2,4,6,8,-1,10,12,-1,-1,14,-1,-1,-1,-1,-1],"split_conditions":[-9.4E0,3.5E1,1.3E1,5.9E1,-0E0,1.0818868E2,7.1E1,7.658454E-4,7.6635582E-3,1.2954951E2,-0E0,-5.9369294E-4,3.814118E-3,-6.5339184E-3,-0E0],"split_indices":[7,12,9,0,0,25,0,0,0,27,0,0,0,0,0],"split_type":[0,0,0,0,0,0,0,0,0,0,0,0,0,0,0],"sum_hessian":[4.250838E1,1.2460321E1,3.0048061E1,8.480309E0,3.980013E0,2.083694E1,9.21112E0,3.239845E0,5.2404637E0,1.7610207E1,3.2267334E0,4.724627E0,4.486493E0,1.4131429E1,3.4787784E0],"tree_param":{"num_deleted":"0","num_feature":"31","num_nodes":"15","size_leaf_vector":"1"}},{"base_weights":[-0E0,-4.5049936E-1,8.457301E-1,-6.99903E-1,1.8364972E-1,7.936199E-3,-6.746504E-7,-0E0,-8.767017E-1,-0E0,2.8977676E-3,-6.376503E-3,-8.845651E-4],"categories":[],"categories_nodes":[],"categories_segments":[],"categories_sizes":[],"default_left":[0,0,0,0,0,0,0,0,1,0,0,0,0],"id":19,"left_children":[1,3,5,7,9,-1,-1,-1,11,-1,-1,-1,-1],"loss_changes":[1.7644354E1,5.3808694E0,9.841207E0,2.2288332E0,1.1003461E0,0E0,0E0,0E0,1.5622835E0,0E0,0E0,0E0,0E0],"parents":[2147483647,0,0,1,1,2,2,3,3,4,4,8,8],"right_children":[2,4,6,8,10,-1,-1,-1,12,-1,-1,-1,-1],"split_conditions":[7E1,5E0,-2.3E0,1.1125E2,1.3488091E1,7.936199E-3,-6.746504E-7,-0E0,7.429927E-1,-0E0,2.8977676E-3,-6.376503E-3,-8.845651E-4],"split_indices":[0,6,7,4,27,0,0,0,18,0,0,0,0],"split_type":[0,0,0,0,0,0,0,0,0,0,0,0,0],"sum_hessian":[4.17545E1,2.7057362E1,1.4697141E1,2.0578484E1,6.4788775E0,8.730357E0,5.966783E0,5.211184E0,1.53673E1,3.2364023E0,3.242475E0,9.165989E0,6.2013116E0],"tree_param":{"num_deleted":"0","num_feature":"31","num_nodes":"13","size_leaf_vector":"1"}},{"base_weights":[-2.1868188E-2,-5.9594584E-1,7.245409E-1,-8.353951E-1,1.8936531E-4,1.0517527E0,-2.1152322E-3,-0E0,-1.0421965E0,-0E0,7.169583E-3,-6.67809E-3,-2.8160517E-4],"categories":[],"categories_nodes":[],"categories_segments":[],"categories_sizes":[],"default_left":[0,0,1,0,0,0,0,0,1,0,0,0,0],"id":20,"left_children":[1,3,5,7,-1,9,-1,-1,11,-1,-1,-1,-1],"loss_changes":[2.0142822E1,5.1288786E0,8.633145E0,3.4494267E0,0E0,3.1730595E0,0E0,0E0,1.2141457E0,0E0,0E0,0E0,0E0],"parents":[2147483647,0,0,1,1,2,2,3,3,5,5,8,8],"right_children":[2,4,6,8,-1,10,-1,-1,12,-1,-1,-1,-1],"split_conditions":[3.4E0,7.2E1,1.3022207E1,-1.5733757E0,1.8936531E-4,1.9293657E-1,-2.1152322E-3,-0E0,2.5615606E-1,-0E0,7.169583E-3,-6.67809E-3,-2.8160517E-4],"split_indices":[6,0,20,17,0,21,0,0,21,0,0,0,0],"split_type":[0,0,0,0,0,0,0,0,0,0,0,0,0],"sum_hessian":[4.3762966E1,2.5805046E1,1.7957918E1,1.9590273E1,6.2147737E0,1.4724688E1,3.233231E0,4.4662385E0,1.5124034E1,3.7402878E0,1.09844E1,1.1649994E1,3.4740403E0],"tree_param":{"num_deleted":"0","num_feature":"31","num_nodes":"13","size_leaf_vector":"1"}},{"base_weights":[3.702915E-2,7.694069E-1,-5.378502E-1,-1.8655454E-3,1.1099223E0,-5.6827785E-3,3.8678031E-3,1.3025345E0,-0E0,-4.0011043E-3,6.296708E-1,9.602424E-4,8.334115E-3,5.6106853E-3,-0E0],"categories":[],"categories_nodes":[],"categories_segments":[],"categories_sizes":[],"default_left":[0,0,0,0,0,0,0,0,0,0,0,0,0,0,0],"id":21,"left_children":[1,3,5,-1,7,-1,9,11,-1,-1,13,-1,-1,-1,-1],"loss_changes":[1.9548252E1,9.454823E0,7.7597976E0,0E0,2.5219803E0,0E0,6.3777013E0,8.3506775E-1,0E0,0E0,2.0464156E0,0E0,0E0,0E0,0E0],"parents":[2147483647,0,0,1,1,2,2,4,4,6,6,7,7,10,10],"right_children":[2,4,6,-1,8,-1,10,12,-1,-1,14,-1,-1,-1,-1],"split_conditions":[-5.9E0,4.3E1,9.861585E1,-1.8655454E-3,3.5E1,-5.6827785E-3,6.880236E-1,2.6E0,-0E0,-4.0011043E-3,3.2650092E-1,9.602424E-4,8.334115E-3,5.6106853E-3,-0E0],"split_indices":[7,0,29,0,12,0,18,6,0,0,16,0,0,0,0],"split_type":[0,0,0,0,0,0,0,0,0,0,0,0,0,0,0],"sum_hessian":[4.2258698E1,1.9190804E1,2.3067896E1,3.7314413E0,1.5459362E1,1.2388984E1,1.0678912E1,1.2222385E1,3.2369764E0,3.9682472E0,6.7106647E0,3.2288005E0,8.993586E0,3.481162E0,3.2295027E0],"tree_param":{"num_deleted":"0","num_feature":"31","num_nodes":"15","size_leaf_vector":"1"}},{"base_weights":[-8.4331095E-2,-7.3823345E-1,8.5897106E-1,-1.0236167E0,-0E0,7.5317007E-3,-9.988163E-5,-0E0,-1.1968274E0,1.4268998E-3,-3.4712494E-4,-7.337285E-3,-8.76117E-4],"categories":[],"categories_nodes":[],"categories_segments":[],"categories_sizes":[],"default_left":[0,0,0,0,0,0,0,0,0,0,0,0,0],"id":22,"left_children":[1,3,5,7,9,-1,-1,-1,11,-1,-1,-1,-1],"loss_changes":[2.908007E1,7.0705824E0,9.8336525E0,3.3323956E0,3.7097925E-1,0E0,0E0,0E0,3.6155128E-1,0E0,0E0,0E0,0E0],"parents":[2147483647,0,0,1,1,2,2,3,3,4,4,8,8],"right_children":[2,4,6,8,10,-1,-1,-1,12,-1,-1,-1,-1],"split_conditions":[3.4E0,1.3E1,3.5E1,-6.3E0,9.8781044E1,7.5317007E-3,-9.988163E-5,-0E0,7.142857E1,1.4268998E-3,-3.4712494E-4,-7.337285E-3,-8.76117E-4],"split_indices":[6,9,12,7,25,0,0,0,30,0,0,0,0],"split_type":[0,0,0,0,0,0,0,0,0,0,0,0,0],"sum_hessian":[4.374395E1,2.6778965E1,1.6964983E1,1.981915E1,6.9598155E0,1.098908E1,5.975902E0,3.4748912E0,1.634426E1,3.4810164E0,3.478799E0,1.3119963E1,3.2242966E0],"tree_param":{"num_deleted":"0","num_feature":"31","num_nodes":"13","size_leaf_vector":"1"}},{"base_weights":[-1.3314094E-1,4.3624452E-1,-5.8692056E-1,-0E0,5.726853E-3,5.3018663E-4,-7.521172E-1,2.8960032E-3,-3.336689E-1,-9.005668E-1,-0E0,-3.8251411E-3,-0E0,-2.041534E-4,-5.711865E-3],"categories":[],"categories_nodes":[],"categories_segments":[],"categories_sizes":[],"default_left":[0,0,0,0,0,0,1,0,0,0,0,0,0,0,0],"id":23,"left_children":[1,3,5,7,-1,-1,9,-1,11,13,-1,-1,-1,-1,-1],"loss_changes":[1.2901005E1,6.2074575E0,4.0704985E0,2.4898753E0,0E0,0E0,3.1481886E0,0E0,1.5215311E0,1.0830154E0,0E0,0E0,0E0,0E0,0E0],"parents":[2147483647,0,0,1,1,2,2,3,3,6,6,8,8,9,9],"right_children":[2,4,6,8,-1,-1,10,-1,12,14,-1,-1,-1,-1,-1],"split_conditions":[-5.9E0,1.2755682E-1,9.6354164E-2,2.9E1,5.726853E-3,5.3018663E-4,1.9111699E-1,2.8960032E-3,1.1311487E-1,3.1E1,-0E0,-3.8251411E-3,-0E0,-2.041534E-4,-5.711865E-3],"split_indices":[7,23,23,13,0,0,16,0,23,13,0,0,0,0,0],"split_type":[0,0,0,0,0,0,0,0,0,0,0,0,0,0,0],"sum_hessian":[4.570789E1,1.9186903E1,2.6520987E1,1.1451038E1,7.735865E0,3.9672003E0,2.2553785E1,3.2398512E0,8.211187E0,1.9072275E1,3.4815116E0,3.727121E0,4.484066E0,3.9713418E0,1.5100933E1],"tree_param":{"num_deleted":"0","num_feature":"31","num_nodes":"15","size_leaf_vector":"1"}},{"base_weights":[1.6306366E-1,1.152611E0,-1.4111656E-1,-0E0,8.223825E-3,-3.891568E-1,2.9638612E-1,-5.847743E-1,5.1308074E-4,5.2114576E-3,-1.1298602E-3,-4.4923015E-3,8.93265E-4],"categories":[],"categories_nodes":[],"categories_segments":[],"categories_sizes":[],"default_left":[0,0,0,0,0,1,1,1,0,0,0,0,0],"id":24,"left_children":[1,3,5,-1,-1,7,9,11,-1,-1,-1,-1,-1],"loss_changes":[1.5453447E1,3.4309692E0,4.251958E0,0E0,0E0,3.0723403E0,5.218979E0,4.388747E0,0E0,0E0,0E0,0E0,0E0],"parents":[2147483647,0,0,1,1,2,2,5,5,6,6,7,7],"right_children":[2,4,6,-1,-1,8,10,12,-1,-1,-1,-1,-1],"split_conditions":[2.5E1,9.33388E-2,7E1,-0E0,8.223825E-3,1.0205407E2,5.2433422E1,1.3797542E-1,5.1308074E-4,5.2114576E-3,-1.1298602E-3,-4.4923015E-3,8.93265E-4],"split_indices":[13,16,0,0,0,29,27,23,0,0,0,0,0],"split_type":[0,0,0,0,0,0,0,0,0,0,0,0,0],"sum_hessian":[4.4752464E1,1.023243E1,3.4520035E1,3.2358427E0,6.9965878E0,2.3820936E1,1.0699097E1,1.8356087E1,5.4648495E0,4.9814796E0,5.7176175E0,1.5126359E1,3.2297282E0],"tree_param":{"num_deleted":"0","num_feature":"31","num_nodes":"13","size_leaf_vector":"1"}},{"base_weights":[3.9283834E-2,-3.712009E-1,9.3253344E-1,1.9073029E-3,-6.213146E-1,7.030971E-3,3.5513976E-1,-0E0,-9.004359E-1,-0E0,3.8804489E-3,2.4664353E-3,-2.723648E-3,-6.156663E-3,-0E0],"categories":[],"categories_nodes":[],"categories_segments":[],"categories_sizes":[],"default_left":[0,0,1,0,0,0,0,1,1,0,0,0,0,0,0],"id":25,"left_children":[1,3,5,-1,7,-1,9,11,13,-1,-1,-1,-1,-1,-1],"loss_changes":[1.7137293E1,6.082816E0,2.6954174E-1,0E0,3.1950407E0,0E0,1.3052834E0,2.7406552E0,1.9773722E0,0E0,0E0,0E0,0E0,0E0,0E0],"parents":[2147483647,0,0,1,1,2,2,4,4,6,6,7,7,8,8],"right_children":[2,4,6,-1,8,-1,10,12,14,-1,-1,-1,-1,-1,-1],"split_conditions":[5.1E0,-1.4659747E0,-1.7536011E-4,1.9073029E-3,1.5416667E2,7.030971E-3,1.8181818E1,-1.1708175E-4,4.2347965E-1,-0E0,3.8804489E-3,2.4664353E-3,-2.723648E-3,-6.156663E-3,-0E0],"split_indices":[6,17,15,0,4,0,30,15,19,0,0,0,0,0,0],"split_type":[0,0,0,0,0,0,0,0,0,0,0,0,0,0,0],"sum_hessian":[4.1517082E1,2.828546E1,1.3231624E1,5.967346E0,2.2318111E1,5.745919E0,7.485705E0,8.68746E0,1.3630652E1,4.239794E0,3.2459111E0,3.4808362E0,5.2066236E0,9.909411E0,3.7212412E0],"tree_param":{"num_deleted":"0","num_feature":"31","num_nodes":"15","size_leaf_vector":"1"}},{"base_weights":[2.0206405E-1,9.995596E-1,-1.2303889E-1,-0E0,6.6643893E-3,-4.627344E-1,5.3013456E-1,1.9680145E-3,-6.72334E-1,4.60737E-3,-0E0,-0E0,-4.7066193E-3],"categories":[],"categories_nodes":[],"categories_segments":[],"categories_sizes":[],"default_left":[0,0,0,0,0,0,1,0,1,0,0,0,0],"id":26,"left_children":[1,3,5,-1,-1,7,9,-1,11,-1,-1,-1,-1],"loss_changes":[1.3343901E1,1.9673233E0,7.859642E0,0E0,0E0,4.9629827E0,2.2235973E0,0E0,3.3904247E0,0E0,0E0,0E0,0E0],"parents":[2147483647,0,0,1,1,2,2,5,5,6,6,8,8],"right_children":[2,4,6,-1,-1,8,10,-1,12,-1,-1,-1,-1],"split_conditions":[-8.9E0,1.0942982E-1,1.3E1,-0E0,6.6643893E-3,5E0,9.10463E0,1.9680145E-3,-2.1831691E0,4.60737E-3,-0E0,-0E0,-4.7066193E-3],"split_indices":[7,23,9,0,0,9,20,0,17,0,0,0,0],"split_type":[0,0,0,0,0,0,0,0,0,0,0,0,0],"sum_hessian":[4.4974594E1,1.296761E1,3.200698E1,3.2341504E0,9.73346E0,2.2548487E1,9.458495E0,3.23347E0,1.9315018E1,5.979875E0,3.4786203E0,3.229071E0,1.6085945E1],"tree_param":{"num_deleted":"0","num_feature":"31","num_nodes":"13","size_leaf_vector":"1"}},{"base_weights":[-0E0,8.58882E-1,-3.9335868E-1,-1.2564162E-3,7.054394E-3,2.1856113E-1,-8.531197E-1,5.9681606E-1,-1.1160715E-3,-1.0090145E0,-0E0,4.9615013E-3,-0E0,-2.157438E-3,-7.087585E-3],"categories":[],"categories_nodes":[],"categories_segments":[],"categories_sizes":[],"default_left":[0,0,1,0,0,1,0,0,0,0,0,0,0,0,0],"id":27,"left_children":[1,3,5,-1,-1,7,9,11,-1,13,-1,-1,-1,-1,-1],"loss_changes":[1.7244919E1,9.048176E0,1.0629116E1,0E0,0E0,3.0430448E0,2.7662954E0,1.7688997E0,0E0,1.6695404E-1,0E0,0E0,0E0,0E0,0E0],"parents":[2147483647,0,0,1,1,2,2,5,5,6,6,7,7,9,9],"right_children":[2,4,6,-1,-1,8,10,12,-1,14,-1,-1,-1,-1,-1],"split_conditions":[3.1E1,1.6E0,2.777976E-1,-1.2564162E-3,7.054394E-3,9.371155E0,1.6140874E-1,1.89E2,-1.1160715E-3,3.2E1,-0E0,4.9615013E-3,-0E0,-2.157438E-3,-7.087585E-3],"split_indices":[13,6,24,0,0,20,23,4,0,11,0,0,0,0,0],"split_type":[0,0,0,0,0,0,0,0,0,0,0,0,0,0,0],"sum_hessian":[4.6689327E1,1.445402E1,3.2235306E1,3.4676075E0,1.0986412E1,1.31664915E1,1.9068815E1,7.9635606E0,5.2029314E0,1.5839228E1,3.229587E0,4.7339215E0,3.2296388E0,7.4398355E0,8.399392E0],"tree_param":{"num_deleted":"0","num_feature":"31","num_nodes":"15","size_leaf_vector":"1"}},{"base_weights":[-4.6081197E-2,5.570303E-1,-5.820402E-1,-3.1096477E-3,9.0869606E-1,-0E0,-1.0391147E0,1.1157995E0,-0E0,-5.9912956E-1,2.9495626E-3,-6.9300234E-3,-0E0,7.231657E-3,7.8015676E-4,-0E0,-4.374051E-3],"categories":[],"categories_nodes":[],"categories_segments":[],"categories_sizes":[],"default_left":[0,0,0,0,1,0,1,0,0,0,0,0,0,0,0,0,0],"id":28,"left_children":[1,3,5,-1,7,9,11,13,-1,15,-1,-1,-1,-1,-1,-1,-1],"loss_changes":[1.6274292E1,1.024693E1,6.4814577E0,0E0,3.8233547E0,5.312998E0,2.1035938E0,9.0506744E-1,0E0,2.3929358E-1,0E0,0E0,0E0,0E0,0E0,0E0,0E0],"parents":[2147483647,0,0,1,1,2,2,4,4,5,5,6,6,7,7,9,9],"right_children":[2,4,6,-1,8,10,12,14,-1,16,-1,-1,-1,-1,-1,-1,-1],"split_conditions":[-6E0,4.6E1,1.9E2,-3.1096477E-3,-5.485279E-1,-7.009937E-1,1.03542114E2,3.5E1,-0E0,-1.3003426E0,2.9495626E-3,-6.9300234E-3,-0E0,7.231657E-3,7.8015676E-4,-0E0,-4.374051E-3],"split_indices":[7,0,4,0,17,19,27,12,0,17,0,0,0,0,0,0,0],"split_type":[0,0,0,0,0,0,0,0,0,0,0,0,0,0,0,0,0],"sum_hessian":[4.6679333E1,2.0928715E1,2.5750618E1,3.9730299E0,1.6955685E1,1.2895072E1,1.2855546E1,1.3714693E1,3.2409904E0,6.684512E0,6.2105603E0,9.635609E0,3.2199368E0,9.979711E0,3.734983E0,3.221327E0,3.4631848E0],"tree_param":{"num_deleted":"0","num_feature":"31","num_nodes":"17","size_leaf_vector":"1"}},{"base_weights":[-1.1037285E-1,9.6765417E-1,-4.8111278E-1,-0E0,7.4137733E-3,3.394342E-1,-7.7824986E-1,4.7791693E-3,-2.0844718E-4,-1.0219966E0,-4.7814166E-3,-6.415148E-3,-1.2687563E-3,1.647044E-3,-2.6048336E-3],"categories":[],"categories_nodes":[],"categories_segments":[],"categories_sizes":[],"default_left":[0,0,1,0,0,0,0,0,0,0,0,0,0,0,0],"id":29,"left_children":[1,3,5,-1,-1,7,9,-1,-1,11,13,-1,-1,-1,-1],"loss_changes":[1.8956465E1,4.3018312E0,9.935331E0,0E0,0E0,2.9767184E0,4.202093E0,0E0,0E0,1.7977333E-1,1.8229499E0,0E0,0E0,0E0,0E0],"parents":[2147483647,0,0,1,1,2,2,5,5,6,6,9,9,10,10],"right_children":[2,4,6,-1,-1,8,10,-1,-1,12,14,-1,-1,-1,-1],"split_conditions":[2.9E1,3.2E0,2.0796876E-1,-0E0,7.4137733E-3,1.0782165E1,1.3E1,4.7791693E-3,-2.0844718E-4,1.2029845E-1,-5.539112E-1,-6.415148E-3,-1.2687563E-3,1.647044E-3,-2.6048336E-3],"split_indices":[13,6,24,0,0,20,9,0,0,22,19,0,0,0,0],"split_type":[0,0,0,0,0,0,0,0,0,0,0,0,0,0,0],"sum_hessian":[4.4951424E1,9.979074E0,3.497235E1,3.2312355E0,6.747838E0,8.208693E0,2.6763659E1,3.736102E0,4.47259E0,1.8791954E1,7.971705E0,1.408657E1,4.7053833E0,3.7401705E0,4.2315345E0],"tree_param":{"num_deleted":"0","num_feature":"31","num_nodes":"15","size_leaf_vector":"1"}},{"base_weights":[-9.755117E-3,6.691156E-1,-6.054561E-1,1.0421567E0,-0E0,-5.0133806E-2,-6.487079E-3,1.0915627E-3,7.351998E-3,-1.9852587E-3,2.1970922E-3,-3.4120136E-3,2.2080682E-1,4.2969636E-3,-1.4274601E-3],"categories":[],"categories_nodes":[],"categories_segments":[],"categories_sizes":[],"default_left":[0,1,1,0,0,0,0,0,0,0,0,0,0,0,0],"id":30,"left_children":[1,3,5,7,9,11,-1,-1,-1,-1,-1,-1,13,-1,-1],"loss_changes":[1.883663E1,4.2032366E0,6.6160603E0,8.187494E-1,1.7513568E0,3.13648E0,0E0,0E0,0E0,0E0,0E0,0E0,3.8001246E0,0E0,0E0],"parents":[2147483647,0,0,1,1,2,2,3,3,4,4,5,5,12,12],"right_children":[2,4,6,8,10,12,-1,-1,-1,-1,-1,-1,14,-1,-1],"split_conditions":[-5.9E0,8.201541E0,3.31976E-1,8.1E0,1.1E1,-6.4411587E-1,-6.487079E-3,1.0915627E-3,7.351998E-3,-1.9852587E-3,2.1970922E-3,-3.4120136E-3,1.84E2,4.2969636E-3,-1.4274601E-3],"split_indices":[7,20,24,5,9,19,0,0,0,0,0,0,4,0,0],"split_type":[0,0,0,0,0,0,0,0,0,0,0,0,0,0,0],"sum_hessian":[4.3181324E1,1.9183458E1,2.3997866E1,1.0727669E1,8.45579E0,1.412136E1,9.876506E0,4.4886937E0,6.238975E0,3.2234068E0,5.2323833E0,5.194342E0,8.927017E0,4.720501E0,4.2065163E0],"tree_param":{"num_deleted":"0","num_feature":"31","num_nodes":"15","size_leaf_vector":"1"}},{"base_weights":[3.0763913E-2,9.95398E-1,-2.2832814E-1,-0E0,7.0788343E-3,-4.9954027E-1,5.5227536E-1,-8.128445E-1,1.8471424E-1,-8.725511E-4,6.327922E-3,-0E0,-5.5488264E-3,3.7074024E-3,-6.986348E-4],"categories":[],"categories_nodes":[],"categories_segments":[],"categories_sizes":[],"default_left":[0,0,0,0,0,0,0,0,0,0,0,0,0,0,0],"id":31,"left_children":[1,3,5,-1,-1,7,9,11,13,-1,-1,-1,-1,-1,-1],"loss_changes":[1.308758E1,1.9833231E0,8.426322E0,0E0,0E0,7.426144E0,5.434654E0,4.133402E0,2.2426085E0,0E0,0E0,0E0,0E0,0E0,0E0],"parents":[2147483647,0,0,1,1,2,2,5,5,6,6,7,7,8,8],"right_children":[2,4,6,-1,-1,8,10,12,14,-1,-1,-1,-1,-1,-1],"split_conditions":[2.9E1,3.3E0,1.65625E-1,-0E0,7.0788343E-3,1.3E1,1.21E1,2.3E-1,1.366E2,-8.725511E-4,6.327922E-3,-0E0,-5.5488264E-3,3.7074024E-3,-6.986348E-4],"split_indices":[13,6,23,0,0,9,8,2,4,0,0,0,0,0,0],"split_type":[0,0,0,0,0,0,0,0,0,0,0,0,0,0,0],"sum_hessian":[4.5450474E1,9.480375E0,3.59701E1,3.2329872E0,6.2473884E0,2.8257717E1,7.7123823E0,2.0296509E1,7.961209E0,3.2226794E0,4.4897027E0,3.46068E0,1.6835829E1,3.7369657E0,4.224243E0],"tree_param":{"num_deleted":"0","num_feature":"31","num_nodes":"15","size_leaf_vector":"1"}},{"base_weights":[-8.886294E-3,-5.060724E-1,6.327808E-1,-7.399558E-1,-0E0,6.774358E-3,-2.1471465E-1,-9.287465E-1,-0E0,-1.5607241E-3,1.7913018E-3,-4.9879765E-3,2.1597783E-3,-5.247156E-4,-6.41103E-3],"categories":[],"categories_nodes":[],"categories_segments":[],"categories_sizes":[],"default_left":[0,1,1,0,0,0,0,0,0,0,0,0,0,0,0],"id":32,"left_children":[1,3,5,7,9,-1,11,13,-1,-1,-1,-1,-1,-1,-1],"loss_changes":[1.5729095E1,3.8461828E0,1.20124035E1,2.6354876E0,1.1182363E0,0E0,5.0537586E0,1.4642372E0,0E0,0E0,0E0,0E0,0E0,0E0,0E0],"parents":[2147483647,0,0,1,1,2,2,3,3,4,4,6,6,7,7],"right_children":[2,4,6,8,10,-1,12,14,-1,-1,-1,-1,-1,-1,-1],"split_conditions":[3.3E0,3.7863544E-1,8.474777E0,1.498748E-1,2.0092651E-1,6.774358E-3,5.0895443E1,-6.3E0,-0E0,-1.5607241E-3,1.7913018E-3,-4.9879765E-3,2.1597783E-3,-5.247156E-4,-6.41103E-3],"split_indices":[6,19,20,23,21,0,29,7,0,0,0,0,0,0,0],"split_type":[0,0,0,0,0,0,0,0,0,0,0,0,0,0,0],"sum_hessian":[4.6175793E1,2.7231836E1,1.8943958E1,1.8811129E1,8.420709E0,1.1483111E1,7.460846E0,1.4343503E1,4.467625E0,3.7049086E0,4.7158003E0,3.9681692E0,3.4926767E0,4.716729E0,9.626774E0],"tree_param":{"num_deleted":"0","num_feature":"31","num_nodes":"15","size_leaf_vector":"1"}},{"base_weights":[-1.168132E-2,-7.223206E-1,4.998001E-1,-0E0,-1.0508738E0,-3.5864624E-1,1.0819495E0,-7.5982087E-3,-0E0,6.9522404E-4,-4.691484E-3,6.8469155E-3,5.0904E-4],"categories":[],"categories_nodes":[],"categories_segments":[],"categories_sizes":[],"default_left":[0,0,0,0,1,0,0,0,0,0,0,0,0],"id":33,"left_children":[1,3,5,-1,7,9,11,-1,-1,-1,-1,-1,-1],"loss_changes":[1.5797948E1,5.4993153E0,1.3491261E1,0E0,4.3072586E0,3.4380584E0,6.6526604E-1,0E0,0E0,0E0,0E0,0E0,0E0],"parents":[2147483647,0,0,1,1,2,2,4,4,5,5,6,6],"right_children":[2,4,6,-1,8,10,12,-1,-1,-1,-1,-1,-1],"split_conditions":[2.2E0,1.1125E2,6.3E1,-0E0,8.9460063E-1,3.5E1,7.989706E-1,-7.5982087E-3,-0E0,6.9522404E-4,-4.691484E-3,6.8469155E-3,5.0904E-4],"split_indices":[6,4,0,0,18,12,19,0,0,0,0,0,0],"split_type":[0,0,0,0,0,0,0,0,0,0,0,0,0],"sum_hessian":[3.9202694E1,1.7032658E1,2.2170038E1,4.9484744E0,1.2084182E1,8.444E0,1.3726037E1,8.622852E0,3.46133E0,3.7379959E0,4.7060046E0,1.048187E1,3.2441673E0],"tree_param":{"num_deleted":"0","num_feature":"31","num_nodes":"13","size_leaf_vector":"1"}},{"base_weights":[8.02319E-2,-4.2309242E-1,7.500454E-1,-6.105757E-1,1.5589746E-3,7.820969E-3,1.8004397E-1,-8.150916E-1,5.187908E-4,4.1874573E-3,-1.6320315E-1,-5.623399E-3,-0E0,7.2639E-4,-3.1411939E-3],"categories":[],"categories_nodes":[],"categories_segments":[],"categories_sizes":[],"default_left":[0,0,0,0,0,0,1,0,0,0,0,0,0,0,0],"id":34,"left_children":[1,3,5,7,-1,-1,9,11,-1,-1,13,-1,-1,-1,-1],"loss_changes":[1.5769559E1,4.023759E0,5.4731665E0,4.1021395E0,0E0,0E0,3.6677458E0,2.6603642E0,0E0,0E0,1.7031319E0,0E0,0E0,0E0,0E0],"parents":[2147483647,0,0,1,1,2,2,3,3,6,6,7,7,10,10],"right_children":[2,4,6,8,-1,-1,10,12,-1,-1,14,-1,-1,-1,-1],"split_conditions":[3.4E0,2.2419136E2,3.1E1,2.641304E-1,1.5589746E-3,7.820969E-3,2.23748E-1,1.3981481E-1,5.187908E-4,4.1874573E-3,7.2E0,-5.623399E-3,-0E0,7.2639E-4,-3.1411939E-3],"split_indices":[6,28,13,21,0,0,24,23,0,0,5,0,0,0,0],"split_type":[0,0,0,0,0,0,0,0,0,0,0,0,0,0,0],"sum_hessian":[4.219962E1,2.3497223E1,1.8702394E1,2.00279E1,3.469322E0,6.496643E0,1.2205751E1,1.6558996E1,3.4689038E0,4.9917955E0,7.2139564E0,1.2592384E1,3.9666128E0,3.2400265E0,3.9739301E0],"tree_param":{"num_deleted":"0","num_feature":"31","num_nodes":"15","size_leaf_vector":"1"}},{"base_weights":[-2.9812394E-2,6.6243404E-1,-6.4011514E-1,9.490969E-1,-1.497509E-3,2.2057138E-4,-9.038222E-1,-0E0,7.0935856E-3,-0E0,-6.147817E-3],"categories":[],"categories_nodes":[],"categories_segments":[],"categories_sizes":[],"default_left":[0,0,1,0,0,0,0,0,0,0,0],"id":35,"left_children":[1,3,5,7,-1,-1,9,-1,-1,-1,-1],"loss_changes":[1.919337E1,6.7100115E0,5.5346775E0,4.44893E0,0E0,0E0,2.8666344E0,0E0,0E0,0E0,0E0],"parents":[2147483647,0,0,1,1,2,2,3,3,6,6],"right_children":[2,4,6,8,-1,-1,10,-1,-1,-1,-1],"split_conditions":[-6E0,3.5E1,2.2196181E-1,3E0,-1.497509E-3,2.2057138E-4,-1.3786435E-4,-0E0,7.0935856E-3,-0E0,-6.147817E-3],"split_indices":[7,12,24,6,0,0,15,0,0,0,0],"split_type":[0,0,0,0,0,0,0,0,0,0,0],"sum_hessian":[4.191006E1,1.8689041E1,2.322102E1,1.520882E1,3.4802213E0,5.7034903E0,1.751753E1,4.971394E0,1.0237427E1,4.2050586E0,1.3312471E1],"tree_param":{"num_deleted":"0","num_feature":"31","num_nodes":"11","size_leaf_vector":"1"}},{"base_weights":[4.6361484E-2,-4.9202442E-1,1.0022588E0,-7.842404E-1,2.0697346E-1,7.4970685E-3,-0E0,-0E0,-1.069459E0,4.1568796E-3,-1.3429609E-3,-6.8359654E-3,-6.158101E-4],"categories":[],"categories_nodes":[],"categories_segments":[],"categories_sizes":[],"default_left":[0,0,0,0,0,0,0,0,0,0,0,0,0],"id":36,"left_children":[1,3,5,7,9,-1,-1,-1,11,-1,-1,-1,-1],"loss_changes":[2.5610886E1,7.1685686E0,6.4845543E0,5.374175E0,3.1670513E0,0E0,0E0,0E0,9.2961884E-1,0E0,0E0,0E0,0E0],"parents":[2147483647,0,0,1,1,2,2,3,3,4,4,8,8],"right_children":[2,4,6,8,10,-1,-1,-1,12,-1,-1,-1,-1],"split_conditions":[3.7E0,7.1E1,3.5E1,-1.3192401E-4,1.275488E-1,7.4970685E-3,-0E0,-0E0,1.1E2,4.1568796E-3,-1.3429609E-3,-6.8359654E-3,-6.158101E-4],"split_indices":[6,0,12,15,16,0,0,0,14,0,0,0,0],"split_type":[0,0,0,0,0,0,0,0,0,0,0,0,0],"sum_hessian":[4.5133762E1,2.8663166E1,1.6470594E1,2.1210802E1,7.4523644E0,1.1738182E1,4.7324133E0,5.932242E0,1.527856E1,3.9778616E0,3.4745026E0,1.1568159E1,3.7104008E0],"tree_param":{"num_deleted":"0","num_feature":"31","num_nodes":"13","size_leaf_vector":"1"}},{"base_weights":[-6.890001E-2,4.159927E-1,-7.671678E-1,-6.213011E-2,9.5291513E-1,-0E0,-9.8750186E-1,2.9075167E-3,-4.439634E-1,-0E0,6.496573E-3,-6.3486393E-3,-2.3608303E-4,-4.4132955E-3,-0E0],"categories":[],"categories_nodes":[],"categories_segments":[],"categories_sizes":[],"default_left":[1,0,0,0,0,0,0,0,0,0,0,0,0,0,0],"id":37,"left_children":[1,3,5,7,9,-1,11,-1,13,-1,-1,-1,-1,-1,-1],"loss_changes":[1.6432537E1,8.090755E0,3.984105E0,3.6691918E0,2.1229067E0,0E0,1.0212059E0,0E0,2.3919678E0,0E0,0E0,0E0,0E0,0E0,0E0],"parents":[2147483647,0,0,1,1,2,2,3,3,4,4,6,6,8,8],"right_children":[2,4,6,8,10,-1,12,-1,14,-1,-1,-1,-1,-1,-1],"split_conditions":[9.371155E0,3.4E0,3.1E1,2.2329678E-1,5.4E1,-0E0,1.0798934E2,2.9075167E-3,2.7564114E-1,-0E0,6.496573E-3,-6.3486393E-3,-2.3608303E-4,-4.4132955E-3,-0E0],"split_indices":[20,6,13,21,0,0,25,0,21,0,0,0,0,0,0],"split_type":[0,0,0,0,0,0,0,0,0,0,0,0,0,0,0],"sum_hessian":[4.3877995E1,2.5357277E1,1.8520716E1,1.3124588E1,1.2232689E1,3.9656227E0,1.4555093E1,3.7277095E0,9.396879E0,3.2426286E0,8.990061E0,1.1089375E1,3.4657187E0,5.439531E0,3.957348E0],"tree_param":{"num_deleted":"0","num_feature":"31","num_nodes":"15","size_leaf_vector":"1"}},{"base_weights":[-7.1006015E-2,-5.2826864E-1,6.3977116E-1,-8.050093E-1,9.889117E-2,5.6341104E-3,-0E0,-9.370489E-1,-0E0,-8.0689584E-4,3.0987153E-3,-1.2211858E-3,-6.326983E-3],"categories":[],"categories_nodes":[],"categories_segments":[],"categories_sizes":[],"default_left":[0,0,0,0,1,0,0,0,0,0,0,0,0],"id":38,"left_children":[1,3,5,7,9,-1,-1,11,-1,-1,-1,-1,-1],"loss_changes":[1.4108627E1,5.7174063E0,3.7429652E0,1.4619856E0,1.6048882E0,0E0,0E0,4.7699547E-1,0E0,0E0,0E0,0E0,0E0],"parents":[2147483647,0,0,1,1,2,2,3,3,4,4,7,7],"right_children":[2,4,6,8,10,-1,-1,12,-1,-1,-1,-1,-1],"split_conditions":[3.3E0,7.2E1,3.3E1,2.3481706E-1,-9.6603566E-1,5.6341104E-3,-0E0,9.3E0,-0E0,-8.0689584E-4,3.0987153E-3,-1.2211858E-3,-6.326983E-3],"split_indices":[6,0,12,16,17,0,0,8,0,0,0,0,0],"split_type":[0,0,0,0,0,0,0,0,0,0,0,0,0],"sum_hessian":[4.015595E1,2.5692055E1,1.4463894E1,1.8737118E1,6.9549384E0,8.240624E0,6.2232695E0,1.5025555E1,3.7115624E0,3.724718E0,3.2302203E0,5.423349E0,9.602205E0],"tree_param":{"num_deleted":"0","num_feature":"31","num_nodes":"13","size_leaf_vector":"1"}},{"base_weights":[2.2705916E-2,6.2173134E-1,-3.946109E-1,9.5544773E-1,-1.2549986E-3,1.7384028E-3,-6.531081E-1,1.2333116E-4,6.5897442E-3,-8.906789E-1,4.252736E-4,-0E0,-6.262566E-3],"categories":[],"categories_nodes":[],"categories_segments":[],"categories_sizes":[],"default_left":[0,0,1,0,0,0,0,0,0,0,0,0,0],"id":39,"left_children":[1,3,5,7,-1,-1,9,-1,-1,11,-1,-1,-1],"loss_changes":[1.0994203E1,6.5222754E0,5.1957684E0,1.80797E0,0E0,0E0,4.4374523E0,0E0,0E0,3.7192078E0,0E0,0E0,0E0],"parents":[2147483647,0,0,1,1,2,2,3,3,6,6,9,9],"right_children":[2,4,6,8,-1,-1,10,-1,-1,12,-1,-1,-1],"split_conditions":[-6.3E0,3.5E1,1.9583334E-1,1.0870098E-1,-1.2549986E-3,1.7384028E-3,1.5835649E-1,1.2333116E-4,6.5897442E-3,9.812347E-2,4.252736E-4,-0E0,-6.262566E-3],"split_indices":[7,12,24,23,0,0,23,0,0,23,0,0,0],"split_type":[0,0,0,0,0,0,0,0,0,0,0,0,0],"sum_hessian":[3.9402096E1,1.6942276E1,2.2459818E1,1.296362E1,3.9786556E0,4.7196407E0,1.7740177E1,3.981944E0,8.981676E0,1.4266927E1,3.4732509E0,3.2059984E0,1.1060928E1],"tree_param":{"num_deleted":"0","num_feature":"31","num_nodes":"13","size_leaf_vector":"1"}},{"base_weights":[-0E0,5.3420905E-3,-2.3873267E-1,-4.9020272E-1,4.1191244E-1,-8.984326E-1,-0E0,5.012199E-3,-0E0,-6.0434686E-3,-0E0,-2.1965273E-3,2.2680946E-3],"categories":[],"categories_nodes":[],"categories_segments":[],"categories_sizes":[],"default_left":[0,0,0,0,1,0,0,0,0,0,0,0,0],"id":40,"left_children":[1,-1,3,5,7,9,11,-1,-1,-1,-1,-1,-1],"loss_changes":[1.1765893E1,0E0,6.7805176E0,6.383762E0,2.3457522E0,1.796998E0,2.7263556E0,0E0,0E0,0E0,0E0,0E0,0E0],"parents":[2147483647,0,0,2,2,3,3,4,4,5,5,6,6],"right_children":[2,-1,4,6,8,10,12,-1,-1,-1,-1,-1,-1],"split_conditions":[2.4E1,5.3420905E-3,7.1E1,1.4578849E-1,6.032735E2,3.5E1,1.3E1,5.012199E-3,-0E0,-6.0434686E-3,-0E0,-2.1965273E-3,2.2680946E-3],"split_indices":[13,0,0,16,26,11,8,0,0,0,0,0,0],"split_type":[0,0,0,0,0,0,0,0,0,0,0,0,0],"sum_hessian":[4.5375134E1,8.47226E0,3.6902874E1,2.8198896E1,8.703977E0,1.5048573E1,1.3150324E1,3.2421305E0,5.461846E0,1.1113448E1,3.9351246E0,6.180643E0,6.9696813E0],"tree_param":{"num_deleted":"0","num_feature":"31","num_nodes":"13","size_leaf_vector":"1"}},{"base_weights":[4.9171515E-2,-3.785495E-1,4.7733104E-1,1.4371783E-3,-6.852462E-1,8.9271456E-1,-1.19192064E-1,-5.6648534E-3,-0E0,-0E0,1.1248093E0,2.5899378E-3,-4.0863445E-3,7.3681776E-3,1.0147704E-3],"categories":[],"categories_nodes":[],"categories_segments":[],"categories_sizes":[],"default_left":[0,0,0,0,1,0,1,0,0,0,1,0,0,0,0],"id":41,"left_children":[1,3,5,-1,7,9,11,-1,-1,-1,13,-1,-1,-1,-1],"loss_changes":[8.618399E0,5.113291E0,7.1321597E0,0E0,3.640108E0,2.960349E0,4.739491E0,0E0,0E0,0E0,2.2093964E-1,0E0,0E0,0E0,0E0],"parents":[2147483647,0,0,1,1,2,2,4,4,5,5,6,6,10,10],"right_children":[2,4,6,-1,8,10,12,-1,-1,-1,14,-1,-1,-1,-1],"split_conditions":[2.5E0,1.0255319E2,3.5E1,1.4371783E-3,-6.4411587E-1,5.7E1,6.152796E0,-5.6648534E-3,-0E0,-0E0,3.222222E1,2.5899378E-3,-4.0863445E-3,7.3681776E-3,1.0147704E-3],"split_indices":[6,4,12,0,19,0,20,0,0,0,30,0,0,0,0],"split_type":[0,0,0,0,0,0,0,0,0,0,0,0,0,0,0],"sum_hessian":[4.28952E1,2.0228716E1,2.2666483E1,5.4465637E0,1.4782153E1,1.3966776E1,8.699707E0,9.110941E0,5.6712117E0,3.4907172E0,1.0476059E1,3.743352E0,4.9563556E0,6.9889975E0,3.4870615E0],"tree_param":{"num_deleted":"0","num_feature":"31","num_nodes":"15","size_leaf_vector":"1"}},{"base_weights":[-1.053105E-1,-5.106424E-1,6.1363673E-1,-0E0,-7.800688E-1,6.5486752E-3,-0E0,-4.119628E-1,2.7593041E-3,-1.0459436E0,-0E0,-2.9092943E-3,1.9804046E-3,-0E0,-4.677314E-3,-6.7189457E-3,-3.0396375E-4],"categories":[],"categories_nodes":[],"categories_segments":[],"categories_sizes":[],"default_left":[0,0,0,0,1,0,0,0,0,0,0,0,0,0,0,0,0],"id":42,"left_children":[1,3,5,7,9,-1,11,13,-1,15,-1,-1,-1,-1,-1,-1,-1],"loss_changes":[1.4746904E1,4.0779896E0,7.100112E0,3.2189407E0,5.335246E0,0E0,2.264489E0,2.32406E0,0E0,1.1933804E0,0E0,0E0,0E0,0E0,0E0,0E0,0E0],"parents":[2147483647,0,0,1,1,2,2,3,3,4,4,6,6,7,7,9,9],"right_children":[2,4,6,8,10,-1,12,14,-1,16,-1,-1,-1,-1,-1,-1,-1],"split_conditions":[3.4E0,1.72E2,3.3E1,3.341865E-1,1.084574E0,6.5486752E-3,1.8181818E1,6.3847065E-1,2.7593041E-3,7.1E1,-0E0,-2.9092943E-3,1.9804046E-3,-0E0,-4.677314E-3,-6.7189457E-3,-3.0396375E-4],"split_indices":[6,4,13,24,18,0,30,18,0,0,0,0,0,0,0,0,0],"split_type":[0,0,0,0,0,0,0,0,0,0,0,0,0,0,0,0,0],"sum_hessian":[4.729988E1,3.1593245E1,1.5706637E1,1.2374593E1,1.921865E1,7.9866014E0,7.7200356E0,7.6705465E0,4.704046E0,1.4773683E1,4.4449687E0,3.7281277E0,3.991908E0,3.957743E0,3.7128036E0,1.1301233E1,3.4724498E0],"tree_param":{"num_deleted":"0","num_feature":"31","num_nodes":"17","size_leaf_vector":"1"}},{"base_weights":[-0E0,6.5592895E-3,-2.856492E-1,1.13986686E-1,-7.693401E-1,-2.0721637E-1,5.3306897E-3,-0E0,-9.956841E-1,9.89785E-4,-3.6462396E-3,-6.647293E-3,-0E0],"categories":[],"categories_nodes":[],"categories_segments":[],"categories_sizes":[],"default_left":[0,0,1,1,0,1,0,0,0,0,0,0,0],"id":43,"left_children":[1,-1,3,5,7,9,-1,-1,11,-1,-1,-1,-1],"loss_changes":[1.643583E1,0E0,8.179795E0,6.913901E0,2.9916477E0,3.4860854E0,0E0,0E0,1.7218962E0,0E0,0E0,0E0,0E0],"parents":[2147483647,0,0,2,2,3,3,4,4,5,5,8,8],"right_children":[2,-1,4,6,8,10,-1,-1,12,-1,-1,-1,-1],"split_conditions":[2.5E1,6.5592895E-3,5.481349E-5,1.4290065E-1,5.899331E0,1.0708499E-1,5.3306897E-3,-0E0,1.6713683E-1,9.89785E-4,-3.6462396E-3,-6.647293E-3,-0E0],"split_indices":[13,0,15,23,20,16,0,0,16,0,0,0,0],"split_type":[0,0,0,0,0,0,0,0,0,0,0,0,0],"sum_hessian":[4.3575054E1,7.7254786E0,3.5849575E1,1.908635E1,1.6763226E1,1.3854089E1,5.2322617E0,4.457594E0,1.2305631E1,6.6892195E0,7.1648693E0,9.088819E0,3.2168124E0],"tree_param":{"num_deleted":"0","num_feature":"31","num_nodes":"13","size_leaf_vector":"1"}},{"base_weights":[-1.1496826E-1,-3.8273144E-1,5.8143497E-1,8.068347E-2,-7.2334105E-1,4.882587E-3,-0E0,-1.5645099E-3,3.8680524E-1,-0E0,-9.863159E-1,-2.7176694E-4,4.839014E-3,-6.665459E-3,-0E0],"categories":[],"categories_nodes":[],"categories_segments":[],"categories_sizes":[],"default_left":[0,0,0,0,0,0,0,0,0,0,0,0,0,0,0],"id":44,"left_children":[1,3,5,7,9,-1,-1,-1,11,-1,13,-1,-1,-1,-1],"loss_changes":[9.04584E0,6.620803E0,3.1023645E0,2.0617867E0,4.219285E0,0E0,0E0,0E0,3.3539636E0,0E0,2.5161095E0,0E0,0E0,0E0,0E0],"parents":[2147483647,0,0,1,1,2,2,3,3,4,4,8,8,10,10],"right_children":[2,4,6,8,10,-1,-1,-1,12,-1,14,-1,-1,-1,-1],"split_conditions":[1.4E1,-5.9E0,3.6E1,2.8333333E-1,3.61E1,4.882587E-3,-0E0,-1.5645099E-3,7.8333336E1,-0E0,5.7411456E-1,-2.7176694E-4,4.839014E-3,-6.665459E-3,-0E0],"split_indices":[9,7,13,24,10,0,0,0,3,0,24,0,0,0,0],"split_type":[0,0,0,0,0,0,0,0,0,0,0,0,0,0,0],"sum_hessian":[4.5807304E1,3.4850983E1,1.0956321E1,1.3922191E1,2.0928793E1,7.7319064E0,3.2244139E0,4.723382E0,9.198809E0,6.161107E0,1.4767685E1,4.469805E0,4.7290034E0,1.104754E1,3.7201452E0],"tree_param":{"num_deleted":"0","num_feature":"31","num_nodes":"15","size_leaf_vector":"1"}},{"base_weights":[-3.630668E-2,-5.592033E-1,7.7528167E-1,-7.870823E-1,1.0234942E-3,-0E0,9.8784244E-1,-9.8397106E-1,-0E0,6.623373E-4,6.5568634E-3,-2.5014073E-4,-6.0702045E-3],"categories":[],"categories_nodes":[],"categories_segments":[],"categories_sizes":[],"default_left":[0,0,0,1,0,0,0,1,0,0,0,0,0],"id":45,"left_children":[1,3,5,7,-1,-1,9,11,-1,-1,-1,-1,-1],"loss_changes":[2.145072E1,6.3529882E0,4.058093E0,4.725748E0,0E0,0E0,9.933195E-1,8.842468E-1,0E0,0E0,0E0,0E0,0E0],"parents":[2147483647,0,0,1,1,2,2,3,3,6,6,7,7],"right_children":[2,4,6,8,-1,-1,10,12,-1,-1,-1,-1,-1],"split_conditions":[1.3E1,7.2E1,1.8E0,1.1389372E2,1.0234942E-3,-0E0,1.1626157E-1,3.6801887E-1,-0E0,6.623373E-4,6.5568634E-3,-2.5014073E-4,-6.0702045E-3],"split_indices":[9,0,6,29,0,0,23,18,0,0,0,0,0],"split_type":[0,0,0,0,0,0,0,0,0,0,0,0,0],"sum_hessian":[4.7514988E1,3.0090174E1,1.7424812E1,2.4131195E1,5.9589796E0,3.2197337E0,1.4205079E1,1.9677645E1,4.4535494E0,4.2304454E0,9.974634E0,3.4674792E0,1.6210165E1],"tree_param":{"num_deleted":"0","num_feature":"31","num_nodes":"13","size_leaf_vector":"1"}},{"base_weights":[-7.2931093E-3,1.016203E0,-3.3212978E-1,5.5932923E-4,6.783735E-3,-1.211509E-1,-5.811273E-3,-3.7671816E-1,4.552601E-1,-2.8217419E-3,5.923596E-4,4.356709E-3,-0E0],"categories":[],"categories_nodes":[],"categories_segments":[],"categories_sizes":[],"default_left":[0,0,1,0,0,1,0,0,0,0,0,0,0],"id":46,"left_children":[1,3,5,-1,-1,7,-1,9,11,-1,-1,-1,-1],"loss_changes":[1.5562703E1,3.7479496E-1,4.2122145E0,0E0,0E0,5.0368423E0,0E0,2.1693912E0,1.304164E0,0E0,0E0,0E0,0E0],"parents":[2147483647,0,0,1,1,2,2,5,5,7,7,8,8],"right_children":[2,4,6,-1,-1,8,-1,10,12,-1,-1,-1,-1],"split_conditions":[2.9E1,-9.7375095E-1,3.803125E-1,5.5932923E-4,6.783735E-3,1.3368723E-1,-5.811273E-3,8.4E0,-1.5127276E0,-2.8217419E-3,5.923596E-4,4.356709E-3,-0E0],"split_indices":[13,19,24,0,0,23,0,6,17,0,0,0,0],"split_type":[0,0,0,0,0,0,0,0,0,0,0,0,0],"sum_hessian":[4.555669E1,9.212685E0,3.6344006E1,3.225692E0,5.986992E0,3.0932817E1,5.411188E0,2.3231537E1,7.70128E0,1.999016E1,3.2413762E0,3.48979E0,4.21149E0],"tree_param":{"num_deleted":"0","num_feature":"31","num_nodes":"13","size_leaf_vector":"1"}},{"base_weights":[-0E0,6.156038E-3,-3.6894047E-1,-5.307355E-1,3.1200764E-3,1.6878855E-1,-7.772992E-1,-1.6705036E-3,4.536266E-3,-5.5829855E-3,-0E0],"categories":[],"categories_nodes":[],"categories_segments":[],"categories_sizes":[],"default_left":[0,0,0,0,0,1,1,0,0,0,0],"id":47,"left_children":[1,-1,3,5,-1,7,9,-1,-1,-1,-1],"loss_changes":[1.8950016E1,0E0,6.0659447E0,6.691309E0,0E0,3.7811077E0,3.7850838E0,0E0,0E0,0E0,0E0],"parents":[2147483647,0,0,2,2,3,3,5,5,6,6],"right_children":[2,-1,4,6,-1,8,10,-1,-1,-1,-1],"split_conditions":[2.5E1,6.156038E-3,1.6E1,1.01882355E2,3.1200764E-3,5.671187E-1,1.3797542E-1,-1.6705036E-3,4.536266E-3,-5.5829855E-3,-0E0],"split_indices":[13,0,9,4,0,18,23,0,0,0,0],"split_type":[0,0,0,0,0,0,0,0,0,0,0],"sum_hessian":[4.4580887E1,9.466894E0,3.511399E1,3.1622562E1,3.4914293E0,7.1818748E0,2.444069E1,3.7067814E0,3.4750934E0,1.7500078E1,6.94061E0],"tree_param":{"num_deleted":"0","num_feature":"31","num_nodes":"11","size_leaf_vector":"1"}},{"base_weights":[-4.7289915E-2,8.959279E-1,-5.835589E-1,6.464288E-3,-0E0,4.0531896E-2,-8.6205566E-1,-9.817529E-4,3.028055E-3,-1.0856036E0,-0E0,-2.0250697E-3,-7.2632395E-3],"categories":[],"categories_nodes":[],"categories_segments":[],"categories_sizes":[],"default_left":[0,0,1,0,0,0,0,0,0,0,0,0,0],"id":48,"left_children":[1,3,5,-1,-1,7,9,-1,-1,11,-1,-1,-1],"loss_changes":[2.363743E1,4.181732E0,6.3737564E0,0E0,0E0,1.6977624E0,4.037403E0,0E0,0E0,1.254654E-1,0E0,0E0,0E0],"parents":[2147483647,0,0,1,1,2,2,5,5,6,6,9,9],"right_children":[2,4,6,-1,-1,8,10,-1,-1,12,-1,-1,-1],"split_conditions":[3.1E1,1.4153021E1,2.3291706E-1,6.464288E-3,-0E0,8.1666664E1,1.3E1,-9.817529E-4,3.028055E-3,7.3E0,-0E0,-2.0250697E-3,-7.2632395E-3],"split_indices":[13,20,24,0,0,3,9,0,0,5,0,0,0],"split_type":[0,0,0,0,0,0,0,0,0,0,0,0,0],"sum_hessian":[4.3801846E1,1.4671034E1,2.913081E1,1.09585705E1,3.7124639E0,8.195099E0,2.093571E1,4.967173E0,3.2279258E0,1.5966885E1,4.968827E0,6.152711E0,9.814174E0],"tree_param":{"num_deleted":"0","num_feature":"31","num_nodes":"13","size_leaf_vector":"1"}},{"base_weights":[-0E0,-4.477415E-1,6.65795E-1,-8.764907E-1,-0E0,7.183613E-3,-0E0,-0E0,-5.765334E-3,-1.9044277E-3,2.3218812E-1,2.548425E-3,-3.3607967E-3,3.6915238E-3,-3.266267E-4],"categories":[],"categories_nodes":[],"categories_segments":[],"categories_sizes":[],"default_left":[0,0,0,0,0,0,1,0,0,0,0,0,0,0,0],"id":49,"left_children":[1,3,5,7,9,-1,11,-1,-1,-1,13,-1,-1,-1,-1],"loss_changes":[1.4430192E1,5.6786623E0,8.979204E0,1.2001133E0,1.3423722E0,0E0,3.6493907E0,0E0,0E0,0E0,2.119691E0,0E0,0E0,0E0,0E0],"parents":[2147483647,0,0,1,1,2,2,3,3,4,4,6,6,10,10],"right_children":[2,4,6,8,10,-1,12,-1,-1,-1,14,-1,-1,-1,-1],"split_conditions":[3.3E0,7.180062E-1,3.3E1,-6.1E0,1.24153644E-1,7.183613E-3,6.115972E2,-0E0,-5.765334E-3,-1.9044277E-3,1.5449259E-4,2.548425E-3,-3.3607967E-3,3.6915238E-3,-3.266267E-4],"split_indices":[6,18,12,7,23,0,26,0,0,0,15,0,0,0,0],"split_type":[0,0,0,0,0,0,0,0,0,0,0,0,0,0,0],"sum_hessian":[4.4530407E1,2.6604065E1,1.7926344E1,1.3013545E1,1.359052E1,8.726957E0,9.199387E0,3.2196367E0,9.793908E0,4.6757975E0,8.914722E0,4.9874225E0,4.211964E0,4.222019E0,4.692703E0],"tree_param":{"num_deleted":"0","num_feature":"31","num_nodes":"15","size_leaf_vector":"1"}},{"base_weights":[8.958571E-2,-4.0097314E-1,7.525167E-1,2.5722184E-4,-5.962592E-1,7.4719875E-3,1.003413E-1,9.810028E-5,-7.780117E-1,3.5982914E-3,-2.0656132E-3,-0E0,-5.318189E-3],"categories":[],"categories_nodes":[],"categories_segments":[],"categories_sizes":[],"default_left":[0,1,0,0,0,0,1,0,0,0,0,0,0],"id":50,"left_children":[1,3,5,-1,7,-1,9,-1,11,-1,-1,-1,-1],"loss_changes":[1.59283495E1,3.0068903E0,6.3709526E0,0E0,3.1763506E0,0E0,4.132185E0,0E0,2.5224419E0,0E0,0E0,0E0,0E0],"parents":[2147483647,0,0,1,1,2,2,4,4,6,6,8,8],"right_children":[2,4,6,-1,8,-1,10,-1,12,-1,-1,-1,-1],"split_conditions":[3.2E0,2.3291706E-1,3.1E1,2.5722184E-4,5.8333332E1,7.4719875E-3,9.10463E0,9.810028E-5,-6.7E0,3.5982914E-3,-2.0656132E-3,-0E0,-5.318189E-3],"split_indices":[6,24,13,0,3,0,20,0,7,0,0,0,0],"split_type":[0,0,0,0,0,0,0,0,0,0,0,0,0],"sum_hessian":[4.430049E1,2.4876684E1,1.942381E1,6.196428E0,1.8680256E1,8.223785E0,1.1200023E1,3.2008154E0,1.5479442E1,5.9893036E0,5.2107196E0,3.219456E0,1.2259985E1],"tree_param":{"num_deleted":"0","num_feature":"31","num_nodes":"13","size_leaf_vector":"1"}},{"base_weights":[-0E0,5.0807774E-1,-4.6470115E-1,8.160549E-1,-3.6572318E-3,-8.119232E-1,2.7769145E-1,2.3193173E-1,6.3718567E-3,-2.0522322E-3,9.579889E-4,-0E0,-1.00605E0,-1.5079105E-4,3.933354E-3,3.488542E-3,-4.7139535E-4,-5.287645E-4,-6.5919836E-3],"categories":[],"categories_nodes":[],"categories_segments":[],"categories_sizes":[],"default_left":[0,1,0,0,0,0,0,0,0,0,0,0,1,0,0,0,0,0,0],"id":51,"left_children":[1,3,5,7,9,11,13,15,-1,-1,-1,-1,17,-1,-1,-1,-1,-1,-1],"loss_changes":[1.1617777E1,4.73129E0,7.4533134E0,1.1662865E0,9.533424E-1,2.7575493E0,1.9038E0,1.9159223E0,0E0,0E0,0E0,0E0,8.21887E-1,0E0,0E0,0E0,0E0,0E0,0E0],"parents":[2147483647,0,0,1,1,2,2,3,3,4,4,5,5,6,6,7,7,12,12],"right_children":[2,4,6,8,10,12,14,16,-1,-1,-1,-1,18,-1,-1,-1,-1,-1,-1],"split_conditions":[1.89E2,9.505175E0,7.2E1,1.4738005E-1,8.82E1,-8.9E0,8E1,1.14629626E-1,6.3718567E-3,-2.0522322E-3,9.579889E-4,-0E0,2.6815972E-1,-1.5079105E-4,3.933354E-3,3.488542E-3,-4.7139535E-4,-5.287645E-4,-6.5919836E-3],"split_indices":[4,20,0,23,1,7,3,23,0,0,0,0,24,0,0,0,0,0,0],"split_type":[0,0,0,0,0,0,0,0,0,0,0,0,0,0,0,0,0,0,0],"sum_hessian":[4.5515434E1,2.2316614E1,2.3198822E1,1.466083E1,7.6557846E0,1.673955E1,6.459271E0,7.6912484E0,6.9695807E0,3.9483602E0,3.7074246E0,3.7354412E0,1.3004109E1,3.2267551E0,3.232516E0,4.2208996E0,3.4703486E0,3.6972842E0,9.306825E0],"tree_param":{"num_deleted":"0","num_feature":"31","num_nodes":"19","size_leaf_vector":"1"}},{"base_weights":[1.714296E-2,7.8665084E-1,-3.1464973E-1,6.127178E-3,-0E0,-6.7972076E-1,3.8070258E-1,-0E0,-9.3452007E-1,-2.3360504E-3,5.3404667E-3,-5.9260796E-3,-4.640314E-4],"categories":[],"categories_nodes":[],"categories_segments":[],"categories_sizes":[],"default_left":[1,0,0,0,0,0,0,0,0,0,0,0,0],"id":52,"left_children":[1,3,5,-1,-1,7,9,-1,11,-1,-1,-1,-1],"loss_changes":[1.2988041E1,3.4512024E0,9.206165E0,0E0,0E0,4.2087603E0,6.7262554E0,0E0,5.1821995E-1,0E0,0E0,0E0,0E0],"parents":[2147483647,0,0,1,1,2,2,5,5,6,6,8,8],"right_children":[2,4,6,-1,-1,8,10,-1,12,-1,-1,-1,-1],"split_conditions":[2.3291706E-1,1.0928893E1,7E1,6.127178E-3,-0E0,-8.8E0,8.7E0,-0E0,1.518215E-1,-2.3360504E-3,5.3404667E-3,-5.9260796E-3,-4.640314E-4],"split_indices":[24,20,0,0,0,7,8,0,16,0,0,0,0],"split_type":[0,0,0,0,0,0,0,0,0,0,0,0,0],"sum_hessian":[4.5241035E1,1.3928175E1,3.1312862E1,8.960475E0,4.9677E0,2.1635397E1,9.677465E0,6.2119064E0,1.542349E1,3.4629116E0,6.2145543E0,1.1737528E1,3.685962E0],"tree_param":{"num_deleted":"0","num_feature":"31","num_nodes":"13","size_leaf_vector":"1"}},{"base_weights":[4.4857923E-2,-3.6591378E-1,6.8134236E-1,-5.2610867E-2,-4.807241E-3,6.1378013E-3,-2.8709074E-2,-2.6257574E-3,1.0424157E-1,-3.2114873E-3,1.6865645E-3,-1.1193425E-3,2.6855303E-3],"categories":[],"categories_nodes":[],"categories_segments":[],"categories_sizes":[],"default_left":[0,0,1,0,0,0,0,0,0,0,0,0,0],"id":53,"left_children":[1,3,5,7,-1,-1,9,-1,11,-1,-1,-1,-1],"loss_changes":[1.2964012E1,3.3306162E0,7.3516273E0,1.8846285E0,0E0,0E0,2.1466856E0,0E0,2.2066991E0,0E0,0E0,0E0,0E0],"parents":[2147483647,0,0,1,1,2,2,3,3,6,6,8,8],"right_children":[2,4,6,8,-1,-1,10,-1,12,-1,-1,-1,-1],"split_conditions":[3.2E0,1.5141373E1,8.201541E0,5.497537E-1,-4.807241E-3,6.1378013E-3,6.3333332E1,-2.6257574E-3,3.279514E-1,-3.2114873E-3,1.6865645E-3,-1.1193425E-3,2.6855303E-3],"split_indices":[6,20,20,18,0,0,3,0,24,0,0,0,0],"split_type":[0,0,0,0,0,0,0,0,0,0,0,0,0],"sum_hessian":[4.4717228E1,2.6549421E1,1.8167807E1,1.8971619E1,7.5778017E0,1.1713323E1,6.4544845E0,6.132988E0,1.2838632E1,3.22287E0,3.2316146E0,5.9200296E0,6.918602E0],"tree_param":{"num_deleted":"0","num_feature":"31","num_nodes":"13","size_leaf_vector":"1"}},{"base_weights":[-4.7727283E-2,-4.2453238E-1,5.473655E-1,-6.038183E-1,2.5506397E-3,6.639465E-3,-1.5777493E-1,-8.224783E-1,-0E0,1.9449092E-3,-4.697311E-3,-5.8046705E-3,-0E0,2.472201E-3,-1.8944679E-3],"categories":[],"categories_nodes":[],"categories_segments":[],"categories_sizes":[],"default_left":[0,1,0,0,0,0,0,0,0,0,0,0,0,0,0],"id":54,"left_children":[1,3,5,7,-1,-1,9,11,13,-1,-1,-1,-1,-1,-1],"loss_changes":[1.1034512E1,5.670678E0,9.905014E0,4.235095E0,0E0,0E0,4.440442E0,3.1032162E0,1.6366754E0,0E0,0E0,0E0,0E0,0E0,0E0],"parents":[2147483647,0,0,1,1,2,2,3,3,6,6,7,7,8,8],"right_children":[2,4,6,8,-1,-1,10,12,14,-1,-1,-1,-1,-1,-1],"split_conditions":[3.4E0,2.9032343E2,3.3E1,1.3E1,2.5506397E-3,6.639465E-3,8.138304E0,-4.854729E-1,1.006677E2,1.9449092E-3,-4.697311E-3,-5.8046705E-3,-0E0,2.472201E-3,-1.8944679E-3],"split_indices":[6,29,12,9,0,0,20,17,25,0,0,0,0,0,0],"split_type":[0,0,0,0,0,0,0,0,0,0,0,0,0,0,0],"sum_hessian":[4.6196198E1,2.9773788E1,1.6422407E1,2.6304897E1,3.4688911E0,8.719471E0,7.7029366E0,1.961425E1,6.690648E0,3.989698E0,3.7132387E0,1.4190853E1,5.423396E0,3.4769108E0,3.2137372E0],"tree_param":{"num_deleted":"0","num_feature":"31","num_nodes":"15","size_leaf_vector":"1"}},{"base_weights":[-0E0,7.4647826E-1,-3.413568E-1,1.0776631E0,-0E0,-7.2345656E-1,2.9842007E-1,8.1696914E-4,7.065104E-3,8.724488E-2,-1.1643087E0,-9.258828E-4,6.997163E-1,-9.1589766E-4,2.736156E-3,-8.918E-4,-7.3441E-3,5.263836E-3,-0E0],"categories":[],"categories_nodes":[],"categories_segments":[],"categories_sizes":[],"default_left":[1,0,0,0,0,0,0,0,0,0,0,0,0,0,0,0,0,0,0],"id":55,"left_children":[1,3,5,7,-1,9,11,-1,-1,13,15,-1,17,-1,-1,-1,-1,-1,-1],"loss_changes":[1.3082039E1,3.882781E0,9.085829E0,1.1777973E-1,0E0,9.51582E0,3.1929867E0,0E0,0E0,1.4210535E0,4.8810577E-1,0E0,6.118393E-1,0E0,0E0,0E0,0E0,0E0,0E0],"parents":[2147483647,0,0,1,1,2,2,3,3,5,5,6,6,9,9,10,10,12,12],"right_children":[2,4,6,8,-1,10,12,-1,-1,14,16,-1,18,-1,-1,-1,-1,-1,-1],"split_conditions":[2.34375E-1,3.6E1,1.3E1,6.1E1,-0E0,-6E0,2.8854167E-1,8.1696914E-4,7.065104E-3,1.34584675E1,1.000947E-1,-9.258828E-4,9.505175E0,-9.1589766E-4,2.736156E-3,-8.918E-4,-7.3441E-3,5.263836E-3,-0E0],"split_indices":[24,12,9,0,0,7,24,0,0,27,23,0,20,0,0,0,0,0,0],"split_type":[0,0,0,0,0,0,0,0,0,0,0,0,0,0,0,0,0,0,0],"sum_hessian":[4.6480473E1,1.4662757E1,3.1817715E1,9.449074E0,5.2136836E0,2.0890959E1,1.0926757E1,3.2253995E0,6.223674E0,6.9517035E0,1.3939255E1,4.223268E0,6.703489E0,3.2144022E0,3.7373016E0,3.4220233E0,1.0517231E1,3.4834511E0,3.220038E0],"tree_param":{"num_deleted":"0","num_feature":"31","num_nodes":"19","size_leaf_vector":"1"}},{"base_weights":[4.470668E-2,5.6297016E-1,-4.1305983E-1,-2.1657897E-3,8.8005614E-1,-7.694363E-1,1.3095587E-1,1.0243307E0,-0E0,-0E0,-6.0006343E-3,3.6828374E-3,-1.7526823E-3,8.8802184E-4,6.7719677E-3],"categories":[],"categories_nodes":[],"categories_segments":[],"categories_sizes":[],"default_left":[0,0,1,0,0,1,0,0,0,0,0,0,0,0,0],"id":56,"left_children":[1,3,5,-1,7,9,11,13,-1,-1,-1,-1,-1,-1,-1],"loss_changes":[1.2088957E1,8.636961E0,5.873001E0,0E0,2.088274E0,4.388467E0,3.2622373E0,9.5046616E-1,0E0,0E0,0E0,0E0,0E0,0E0,0E0],"parents":[2147483647,0,0,1,1,2,2,4,4,5,5,6,6,7,7],"right_children":[2,4,6,-1,8,10,12,14,-1,-1,-1,-1,-1,-1,-1],"split_conditions":[-6E0,4.6E1,-7.251255E-1,-2.1657897E-3,2.87E1,1.9583334E-1,1.2600458E-1,6.1666668E1,-0E0,-0E0,-6.0006343E-3,3.6828374E-3,-1.7526823E-3,8.8802184E-4,6.7719677E-3],"split_indices":[7,0,17,0,2,24,23,3,0,0,0,0,0,0,0],"split_type":[0,0,0,0,0,0,0,0,0,0,0,0,0,0,0],"sum_hessian":[4.669622E1,2.2877623E1,2.3818598E1,4.703464E0,1.8174158E1,1.5211315E1,8.607284E0,1.4937441E1,3.2367177E0,4.707632E0,1.0503683E1,4.6885586E0,3.9187243E0,4.479791E0,1.045765E1],"tree_param":{"num_deleted":"0","num_feature":"31","num_nodes":"15","size_leaf_vector":"1"}},{"base_weights":[9.9686526E-2,-2.5203106E-1,8.297986E-1,1.4665319E-1,-7.4887246E-1,6.6250837E-3,-0E0,-2.5740433E-1,5.4786056E-1,-0E0,-5.641729E-3,-3.178458E-3,-0E0,5.264766E-3,-0E0],"categories":[],"categories_nodes":[],"categories_segments":[],"categories_sizes":[],"default_left":[0,0,0,0,0,0,0,0,0,0,0,0,0,0,0],"id":57,"left_children":[1,3,5,7,9,-1,-1,11,13,-1,-1,-1,-1,-1,-1],"loss_changes":[1.26636915E1,7.0008245E0,6.028557E0,3.3966963E0,2.464507E0,0E0,0E0,1.1637411E0,2.8840227E0,0E0,0E0,0E0,0E0,0E0,0E0],"parents":[2147483647,0,0,1,1,2,2,3,3,4,4,7,7,8,8],"right_children":[2,4,6,8,10,-1,-1,12,14,-1,-1,-1,-1,-1,-1],"split_conditions":[7.1E1,2.1933333E2,3.4E1,1.4414558E1,1.5E0,6.6250837E-3,-0E0,1.9330087E-1,2.7095866E-1,-0E0,-5.641729E-3,-3.178458E-3,-0E0,5.264766E-3,-0E0],"split_indices":[0,4,13,27,1,0,0,21,21,0,0,0,0,0,0],"split_type":[0,0,0,0,0,0,0,0,0,0,0,0,0,0,0],"sum_hessian":[4.3504665E1,2.9095448E1,1.4409218E1,1.5566634E1,1.3528813E1,1.0199721E1,4.209496E0,6.6576157E0,8.909019E0,4.6810517E0,8.847762E0,3.436488E0,3.2211277E0,4.946159E0,3.96286E0],"tree_param":{"num_deleted":"0","num_feature":"31","num_nodes":"15","size_leaf_vector":"1"}},{"base_weights":[1.1037897E-1,7.1922344E-1,-4.4816458E-1,6.092981E-3,-0E0,2.1179555E-1,-7.655713E-1,-2.0553747E-3,1.9445205E-3,2.9779356E-3,-0E0,-0E0,-5.90806E-3],"categories":[],"categories_nodes":[],"categories_segments":[],"categories_sizes":[],"default_left":[0,0,1,0,0,0,0,0,0,0,0,0,0],"id":58,"left_children":[1,3,5,-1,7,9,11,-1,-1,-1,-1,-1,-1],"loss_changes":[1.6871063E1,6.557626E0,6.083215E0,0E0,1.5665064E0,1.0833218E0,3.3322392E0,0E0,0E0,0E0,0E0,0E0,0E0],"parents":[2147483647,0,0,1,1,2,2,4,4,5,5,6,6],"right_children":[2,4,6,-1,8,10,12,-1,-1,-1,-1,-1,-1],"split_conditions":[-5.9E0,3.3E1,2.096128E-1,6.092981E-3,1.2E1,3.5E1,3.2E1,-2.0553747E-3,1.9445205E-3,2.9779356E-3,-0E0,-0E0,-5.90806E-3],"split_indices":[7,13,24,0,9,13,12,0,0,0,0,0,0],"split_type":[0,0,0,0,0,0,0,0,0,0,0,0,0],"sum_hessian":[4.522072E1,2.2367786E1,2.285293E1,1.3928691E1,8.4390955E0,6.4470387E0,1.6405891E1,3.957822E0,4.481273E0,3.2292957E0,3.217743E0,5.9148965E0,1.0490995E1],"tree_param":{"num_deleted":"0","num_feature":"31","num_nodes":"13","size_leaf_vector":"1"}},{"base_weights":[2.1021608E-1,8.053808E-1,-6.373656E-2,-0E0,6.6582956E-3,-3.504141E-1,5.276507E-1,-6.7118704E-1,1.1803126E-1,4.1856635E-3,-0E0,-0E0,-4.637671E-3,2.204335E-3,-4.1831392E-4],"categories":[],"categories_nodes":[],"categories_segments":[],"categories_sizes":[],"default_left":[0,0,0,0,0,0,0,1,1,0,0,0,0,0,0],"id":59,"left_children":[1,3,5,-1,-1,7,9,11,13,-1,-1,-1,-1,-1,-1],"loss_changes":[8.56437E0,5.7612305E0,5.616506E0,0E0,0E0,4.4058113E0,1.0929451E0,1.7859249E0,9.594903E-1,0E0,0E0,0E0,0E0,0E0,0E0],"parents":[2147483647,0,0,1,1,2,2,5,5,6,6,7,7,8,8],"right_children":[2,4,6,-1,-1,8,10,12,14,-1,-1,-1,-1,-1,-1],"split_conditions":[3.1E1,5.8E1,1.5837963E-1,-0E0,6.6582956E-3,3.145134E-4,-2E0,2.2899306E-1,3.182986E-1,4.1856635E-3,-0E0,-0E0,-4.637671E-3,2.204335E-3,-4.1831392E-4],"split_indices":[13,0,23,0,0,15,7,24,24,0,0,0,0,0,0],"split_type":[0,0,0,0,0,0,0,0,0,0,0,0,0,0,0],"sum_hessian":[4.4986206E1,1.4400499E1,3.0585709E1,4.9553E0,9.445199E0,2.2390013E1,8.195696E0,1.4276761E1,8.113253E0,4.9813147E0,3.2143807E0,3.2177095E0,1.10590515E1,4.9508247E0,3.1624274E0],"tree_param":{"num_deleted":"0","num_feature":"31","num_nodes":"15","size_leaf_vector":"1"}},{"base_weights":[-5.137204E-2,-6.8168384E-1,4.5129758E-1,-8.6210155E-1,5.488801E-6,1.148642E0,-2.9808155E-1,-5.588191E-3,-2.6684529E-5,1.4269137E-3,7.81192E-3,-7.557053E-1,2.5289299E-3,-5.2324967E-3,-0E0],"categories":[],"categories_nodes":[],"categories_segments":[],"categories_sizes":[],"default_left":[0,1,0,0,0,0,0,0,0,0,0,0,0,0,0],"id":60,"left_children":[1,3,5,7,-1,9,11,-1,-1,-1,-1,13,-1,-1,-1],"loss_changes":[1.6794935E1,3.9525013E0,1.6282997E1,1.4151535E0,0E0,1.1294804E0,5.8610935E0,0E0,0E0,0E0,0E0,4.9293137E-1,0E0,0E0,0E0],"parents":[2147483647,0,0,1,1,2,2,3,3,5,5,6,6,11,11],"right_children":[2,4,6,8,-1,10,12,-1,-1,-1,-1,14,-1,-1,-1],"split_conditions":[2.5E0,1.431891E-1,3.3E1,3.9E1,5.488801E-6,5.671187E-1,1.6140874E-1,-5.588191E-3,-2.6684529E-5,1.4269137E-3,7.81192E-3,9.5E2,2.5289299E-3,-5.2324967E-3,-0E0],"split_indices":[6,23,12,13,0,18,23,0,0,0,0,1,0,0,0],"split_type":[0,0,0,0,0,0,0,0,0,0,0,0,0,0,0],"sum_hessian":[4.8655945E1,2.2312147E1,2.6343796E1,1.8598925E1,3.7132235E0,1.3941364E1,1.2402432E1,1.4458102E1,4.140822E0,4.9740973E0,8.967267E0,8.662457E0,3.7399747E0,5.4388905E0,3.2235668E0],"tree_param":{"num_deleted":"0","num_feature":"31","num_nodes":"15","size_leaf_vector":"1"}},{"base_weights":[8.747162E-2,-2.9579106E-1,7.3960054E-1,2.9432627E-3,-4.8211634E-1,6.26822E-3,-0E0,2.4567752E-1,-8.368184E-1,-1.04749E-3,1.7968742E-3,3.214916E-3,-0E0,-6.2878337E-3,5.5252673E-4],"categories":[],"categories_nodes":[],"categories_segments":[],"categories_sizes":[],"default_left":[0,0,0,0,1,0,0,0,0,0,0,0,0,0,0],"id":61,"left_children":[1,3,5,-1,7,-1,9,11,13,-1,-1,-1,-1,-1,-1],"loss_changes":[1.2268875E1,4.8474646E0,4.3159876E0,0E0,7.649456E0,0E0,7.890988E-1,1.1650772E0,6.621728E0,0E0,0E0,0E0,0E0,0E0,0E0],"parents":[2147483647,0,0,1,1,2,2,4,4,6,6,7,7,8,8],"right_children":[2,4,6,-1,8,-1,10,12,14,-1,-1,-1,-1,-1,-1],"split_conditions":[3.6E0,-9.5E0,3.3E1,2.9432627E-3,2.6610863E-1,6.26822E-3,1.9330087E-1,7.7E0,1.3E1,-1.04749E-3,1.7968742E-3,3.214916E-3,-0E0,-6.2878337E-3,5.5252673E-4],"split_indices":[6,7,12,0,24,0,21,5,9,0,0,0,0,0,0],"split_type":[0,0,0,0,0,0,0,0,0,0,0,0,0,0,0],"sum_hessian":[4.3710316E1,2.7043148E1,1.666717E1,3.2348108E0,2.3808336E1,9.444431E0,7.2227373E0,6.926967E0,1.688137E1,3.2308526E0,3.991885E0,3.223212E0,3.7037551E0,1.342658E1,3.4547892E0],"tree_param":{"num_deleted":"0","num_feature":"31","num_nodes":"15","size_leaf_vector":"1"}},{"base_weights":[-0E0,-7.603172E-1,6.1938244E-1,-9.352779E-1,-0E0,9.7999257E-1,-5.4003805E-2,-6.6445377E-3,-0E0,-0E0,6.663791E-3,2.01704E-3,-4.2862305E-3],"categories":[],"categories_nodes":[],"categories_segments":[],"categories_sizes":[],"default_left":[0,0,1,1,0,0,0,0,0,0,0,0,0],"id":62,"left_children":[1,3,5,7,-1,9,11,-1,-1,-1,-1,-1,-1],"loss_changes":[2.2655941E1,3.091074E0,7.678934E0,4.009591E0,0E0,4.460596E0,3.9774117E0,0E0,0E0,0E0,0E0,0E0,0E0],"parents":[2147483647,0,0,1,1,2,2,3,3,5,5,6,6],"right_children":[2,4,6,8,-1,10,12,-1,-1,-1,-1,-1,-1],"split_conditions":[2.3E0,7.1E1,8.8622055E0,8.806901E-1,-0E0,4.2E1,3.3E1,-6.6445377E-3,-0E0,-0E0,6.663791E-3,2.01704E-3,-4.2862305E-3],"split_indices":[6,0,20,18,0,0,12,0,0,0,0,0,0],"split_type":[0,0,0,0,0,0,0,0,0,0,0,0,0],"sum_hessian":[4.465957E1,1.9565353E1,2.5094213E1,1.5857578E1,3.7077742E0,1.6916386E1,8.177829E0,1.1699519E1,4.15806E0,3.2403893E0,1.3675996E1,4.7298536E0,3.4479752E0],"tree_param":{"num_deleted":"0","num_feature":"31","num_nodes":"13","size_leaf_vector":"1"}},{"base_weights":[-1.4282048E-1,6.2714577E-1,-5.2217376E-1,9.424085E-1,-0E0,2.994771E-1,-7.9829407E-1,6.2381383E-3,4.761182E-4,3.932757E-3,-0E0,-9.716988E-1,1.2156663E-4,-9.2771195E-5,-6.524469E-3],"categories":[],"categories_nodes":[],"categories_segments":[],"categories_sizes":[],"default_left":[0,1,1,1,0,0,0,0,0,0,0,0,0,0,0],"id":63,"left_children":[1,3,5,7,-1,9,11,-1,-1,-1,-1,13,-1,-1,-1],"loss_changes":[1.4307456E1,3.9086785E0,8.645814E0,2.227459E-1,0E0,1.7523832E0,4.9286976E0,0E0,0E0,0E0,0E0,3.209158E0,0E0,0E0,0E0],"parents":[2147483647,0,0,1,1,2,2,3,3,5,5,6,6,11,11],"right_children":[2,4,6,8,-1,10,12,-1,-1,-1,-1,14,-1,-1,-1],"split_conditions":[-9.4E0,1.0524644E1,1.7229167E-1,1.1853837E-1,-0E0,-3.4590504E-1,5E0,6.2381383E-3,4.761182E-4,3.932757E-3,-0E0,-1.4986289E0,1.2156663E-4,-9.2771195E-5,-6.524469E-3],"split_indices":[7,20,24,22,0,17,6,0,0,0,0,17,0,0,0],"split_type":[0,0,0,0,0,0,0,0,0,0,0,0,0,0,0],"sum_hessian":[4.5602894E1,1.3673776E1,3.1929117E1,9.460859E0,4.2129164E0,6.953421E0,2.4975697E1,6.2200365E0,3.2408228E0,3.2346594E0,3.718762E0,2.1493402E1,3.4822946E0,5.160579E0,1.6332823E1],"tree_param":{"num_deleted":"0","num_feature":"31","num_nodes":"15","size_leaf_vector":"1"}},{"base_weights":[-8.803793E-2,7.031981E-1,-3.1844452E-1,6.3564735E-3,-0E0,2.742222E-1,-6.1155903E-1,-3.1779025E-4,3.453485E-3,1.833196E-4,-7.706913E-1,-5.2106376E-3,-0E0],"categories":[],"categories_nodes":[],"categories_segments":[],"categories_sizes":[],"default_left":[0,0,1,0,0,0,1,0,0,0,0,0,0],"id":64,"left_children":[1,3,5,-1,-1,7,9,-1,-1,-1,11,-1,-1],"loss_changes":[8.468075E0,3.3207254E0,7.370556E0,0E0,0E0,2.1821012E0,3.718133E0,0E0,0E0,0E0,3.1884785E0,0E0,0E0],"parents":[2147483647,0,0,1,1,2,2,5,5,6,6,10,10],"right_children":[2,4,6,-1,-1,8,10,-1,-1,-1,12,-1,-1],"split_conditions":[2.5E1,-9.6E0,-4.8719146E-4,6.3564735E-3,-0E0,1.12E1,2.23748E-1,-3.1779025E-4,3.453485E-3,1.833196E-4,7.3E1,-5.2106376E-3,-0E0],"split_indices":[13,7,15,0,0,8,24,0,0,0,0,0,0],"split_type":[0,0,0,0,0,0,0,0,0,0,0,0,0],"sum_hessian":[4.4876514E1,8.176744E0,3.6699768E1,4.46389E0,3.7128541E0,1.0894021E1,2.5805748E1,4.6846256E0,6.209396E0,3.9690757E0,2.1836672E1,1.7635078E1,4.2015934E0],"tree_param":{"num_deleted":"0","num_feature":"31","num_nodes":"13","size_leaf_vector":"1"}},{"base_weights":[-0E0,9.369884E-1,-3.2040372E-1,6.6818693E-3,-0E0,-4.8684603E-1,3.224582E-3,-7.690891E-1,-0E0,-0E0,-4.9678413E-3,3.6495724E-3,-3.1340064E-3],"categories":[],"categories_nodes":[],"categories_segments":[],"categories_sizes":[],"default_left":[0,0,1,0,0,0,0,0,0,0,0,0,0],"id":65,"left_children":[1,3,5,-1,-1,7,-1,9,11,-1,-1,-1,-1],"loss_changes":[1.3696413E1,1.9525356E0,5.731478E0,0E0,0E0,4.907722E0,0E0,1.9245214E0,5.461277E0,0E0,0E0,0E0,0E0],"parents":[2147483647,0,0,1,1,2,2,5,5,7,7,8,8],"right_children":[2,4,6,-1,-1,8,-1,10,12,-1,-1,-1,-1],"split_conditions":[2.9E1,-6.9E0,2.5875255E-1,6.6818693E-3,-0E0,2.91E2,3.224582E-3,-8.6E0,1.34E1,-0E0,-4.9678413E-3,3.6495724E-3,-3.1340064E-3],"split_indices":[13,7,16,0,0,1,0,7,8,0,0,0,0],"split_type":[0,0,0,0,0,0,0,0,0,0,0,0,0],"sum_hessian":[4.33621E1,9.664295E0,3.3697803E1,6.4477525E0,3.216543E0,3.021635E1,3.4814532E0,1.9334185E1,1.0882166E1,3.2315774E0,1.6102608E1,5.4328766E0,5.449289E0],"tree_param":{"num_deleted":"0","num_feature":"31","num_nodes":"13","size_leaf_vector":"1"}},{"base_weights":[1.1622165E-2,-4.0688783E-1,8.074653E-1,2.0356704E-1,-7.3800105E-1,-5.080891E-4,1.1698898E0,3.4591653E-3,-1.8165098E-4,-0E0,-9.232629E-1,4.544111E-4,7.675172E-3,-6.776547E-3,-0E0],"categories":[],"categories_nodes":[],"categories_segments":[],"categories_sizes":[],"default_left":[0,0,0,0,0,0,0,0,0,0,1,0,0,0,0],"id":66,"left_children":[1,3,5,7,9,-1,11,-1,-1,-1,13,-1,-1,-1,-1],"loss_changes":[1.6427801E1,7.0469646E0,7.111738E0,1.8008198E0,3.6475115E0,0E0,1.3021603E0,0E0,0E0,0E0,5.3271017E0,0E0,0E0,0E0,0E0],"parents":[2147483647,0,0,1,1,2,2,3,3,4,4,6,6,10,10],"right_children":[2,4,6,8,10,-1,12,-1,-1,-1,14,-1,-1,-1,-1],"split_conditions":[3.4E0,-1.2821889E-4,5.2E1,1.72E2,6E1,-5.080891E-4,1.6839466E1,3.4591653E-3,-1.8165098E-4,-0E0,1.0961909E2,4.544111E-4,7.675172E-3,-6.776547E-3,-0E0],"split_indices":[6,15,0,4,3,0,27,0,0,0,25,0,0,0,0],"split_type":[0,0,0,0,0,0,0,0,0,0,0,0,0,0,0],"sum_hessian":[4.440035E1,2.8730923E1,1.5669427E1,9.133522E0,1.95974E1,3.9797513E0,1.1689675E1,3.9605687E0,5.172953E0,3.4419034E0,1.6155499E1,3.2291265E0,8.460549E0,1.1964368E1,4.1911297E0],"tree_param":{"num_deleted":"0","num_feature":"31","num_nodes":"15","size_leaf_vector":"1"}},{"base_weights":[1.1924007E-1,-2.4555631E-1,7.529288E-1,-6.6003525E-1,-0E0,6.219411E-3,-0E0,-0E0,-6.2061683E-3,-2.2811097E-1,3.0449843E-1,6.7733246E-4,-4.4643274E-3,3.308009E-3,-0E0],"categories":[],"categories_nodes":[],"categories_segments":[],"categories_sizes":[],"default_left":[0,0,0,0,1,0,0,0,0,0,0,0,0,0,0],"id":67,"left_children":[1,3,5,7,9,-1,-1,-1,-1,11,13,-1,-1,-1,-1],"loss_changes":[1.157757E1,2.7240973E0,6.248624E0,4.178324E0,1.5468028E0,0E0,0E0,0E0,0E0,3.7534602E0,9.549417E-1,0E0,0E0,0E0,0E0],"parents":[2147483647,0,0,1,1,2,2,3,3,4,4,9,9,10,10],"right_children":[2,4,6,8,10,-1,-1,-1,-1,12,14,-1,-1,-1,-1],"split_conditions":[3.4E0,5.505672E-1,3.5E1,1.0509869E-1,1.280303E-1,6.219411E-3,-0E0,-0E0,-6.2061683E-3,8.7E0,3.62E1,6.7733246E-4,-4.4643274E-3,3.308009E-3,-0E0],"split_indices":[6,18,12,23,23,0,0,0,0,5,10,0,0,0,0],"split_type":[0,0,0,0,0,0,0,0,0,0,0,0,0,0,0],"sum_hessian":[4.4362015E1,2.7705982E1,1.6656033E1,8.548162E0,1.915782E1,1.1437039E1,5.218993E0,3.4334714E0,5.114691E0,1.19987755E1,7.1590443E0,7.12148E0,4.877296E0,3.2065072E0,3.952537E0],"tree_param":{"num_deleted":"0","num_feature":"31","num_nodes":"15","size_leaf_vector":"1"}},{"base_weights":[-0E0,5.713812E-1,-4.4903612E-1,8.943607E-1,-9.325238E-5,1.0580462E-3,-7.33848E-1,6.51012E-3,2.690974E-5,-6.230281E-4,1.310925E-3,-5.4829475E-3,-0E0],"categories":[],"categories_nodes":[],"categories_segments":[],"categories_sizes":[],"default_left":[0,1,1,1,0,0,0,0,0,0,0,0,0],"id":68,"left_children":[1,3,5,7,-1,9,11,-1,-1,-1,-1,-1,-1],"loss_changes":[1.1956001E1,4.902725E0,4.2062116E0,2.2671509E0,0E0,4.6867284E-1,2.5292234E0,0E0,0E0,0E0,0E0,0E0,0E0],"parents":[2147483647,0,0,1,1,2,2,3,3,5,5,6,6],"right_children":[2,4,6,8,-1,10,12,-1,-1,-1,-1,-1,-1],"split_conditions":[-5.9E0,9.512116E0,5.899331E0,2.7512535E-4,-9.325238E-5,1E1,4.0322058E-2,6.51012E-3,2.690974E-5,-6.230281E-4,1.310925E-3,-5.4829475E-3,-0E0],"split_indices":[7,20,20,15,0,9,19,0,0,0,0,0,0],"split_type":[0,0,0,0,0,0,0,0,0,0,0,0,0],"sum_hessian":[4.3095615E1,1.8605545E1,2.449007E1,1.2662941E1,5.942604E0,8.628102E0,1.5861968E1,8.202333E0,4.460607E0,3.1870031E0,5.4410987E0,1.0470881E1,5.391086E0],"tree_param":{"num_deleted":"0","num_feature":"31","num_nodes":"13","size_leaf_vector":"1"}},{"base_weights":[-9.9227875E-2,7.5945127E-1,-4.626626E-1,-3.5641785E-4,7.4880766E-3,1.9870568E-3,-6.452199E-1,-8.170907E-1,6.736435E-4,-8.701668E-4,-5.564221E-3],"categories":[],"categories_nodes":[],"categories_segments":[],"categories_sizes":[],"default_left":[1,1,0,0,0,0,0,0,0,0,0],"id":69,"left_children":[1,3,5,-1,-1,-1,7,9,-1,-1,-1],"loss_changes":[1.519177E1,8.446884E0,6.0806217E0,0E0,0E0,0E0,5.0446634E0,1.7088356E0,0E0,0E0,0E0],"parents":[2147483647,0,0,1,1,2,2,6,6,7,7],"right_children":[2,4,6,-1,-1,-1,8,10,-1,-1,-1],"split_conditions":[2.2899306E-1,8.1553116E1,2.8E1,-3.5641785E-4,7.4880766E-3,1.9870568E-3,1.6441798E-1,1.366E2,6.736435E-4,-8.701668E-4,-5.564221E-3],"split_indices":[24,25,12,0,0,0,23,4,0,0,0],"split_type":[0,0,0,0,0,0,0,0,0,0,0],"sum_hessian":[4.59665E1,1.2156709E1,3.380979E1,4.953643E0,7.203066E0,4.6953297E0,2.911446E1,2.490468E1,4.2097797E0,7.6053925E0,1.7299288E1],"tree_param":{"num_deleted":"0","num_feature":"31","num_nodes":"11","size_leaf_vector":"1"}},{"base_weights":[-1.0284051E-1,-5.187348E-1,4.8546273E-1,-6.887825E-1,9.370133E-4,6.275416E-3,-2.031042E-1,-4.944962E-3,-4.1930523E-2,-3.6923918E-3,6.522676E-4,3.8129737E-4,-2.0063706E-3],"categories":[],"categories_nodes":[],"categories_segments":[],"categories_sizes":[],"default_left":[0,0,0,0,0,0,0,0,0,0,0,0,0],"id":70,"left_children":[1,3,5,7,-1,-1,9,-1,11,-1,-1,-1,-1],"loss_changes":[1.1038478E1,3.9910636E0,9.35405E0,1.9844131E0,0E0,0E0,2.141222E0,0E0,6.952535E-1,0E0,0E0,0E0,0E0],"parents":[2147483647,0,0,1,1,2,2,3,3,6,6,8,8],"right_children":[2,4,6,8,-1,-1,10,-1,12,-1,-1,-1,-1],"split_conditions":[3.3E0,1.832679E-1,3.3E1,3.653224E-1,9.370133E-4,6.275416E-3,4.684E2,-4.944962E-3,2.609258E1,-3.6923918E-3,6.522676E-4,3.8129737E-4,-2.0063706E-3],"split_indices":[6,22,12,19,0,0,1,0,29,0,0,0,0],"split_type":[0,0,0,0,0,0,0,0,0,0,0,0,0],"sum_hessian":[4.133405E1,2.5475613E1,1.58584385E1,2.1755709E1,3.7199037E0,8.424671E0,7.4337673E0,1.4665954E1,7.0897546E0,3.7046003E0,3.7291672E0,3.6660776E0,3.423677E0],"tree_param":{"num_deleted":"0","num_feature":"31","num_nodes":"13","size_leaf_vector":"1"}},{"base_weights":[-0E0,-5.2382904E-1,8.1639904E-1,-8.477638E-1,3.245853E-1,6.2119756E-3,-0E0,-5.8992864E-3,-0E0,4.4446215E-3,-2.6819846E-4],"categories":[],"categories_nodes":[],"categories_segments":[],"categories_sizes":[],"default_left":[0,1,0,1,0,0,0,0,0,0,0],"id":71,"left_children":[1,3,5,7,9,-1,-1,-1,-1,-1,-1],"loss_changes":[2.1952503E1,9.453243E0,4.9164114E0,3.4385796E0,2.4892507E0,0E0,0E0,0E0,0E0,0E0,0E0],"parents":[2147483647,0,0,1,1,2,2,3,3,4,4],"right_children":[2,4,6,8,10,-1,-1,-1,-1,-1,-1],"split_conditions":[3.7E0,1.4290065E-1,3.6E1,8.670793E-1,7.5E1,6.2119756E-3,-0E0,-5.8992864E-3,-0E0,4.4446215E-3,-2.6819846E-4],"split_indices":[6,23,13,18,0,0,0,0,0,0,0],"split_type":[0,0,0,0,0,0,0,0,0,0,0],"sum_hessian":[4.7267708E1,2.8647871E1,1.8619835E1,2.170659E1,6.9412804E0,1.2908004E1,5.711831E0,1.6096035E1,5.6105566E0,3.4780784E0,3.4632018E0],"tree_param":{"num_deleted":"0","num_feature":"31","num_nodes":"11","size_leaf_vector":"1"}},{"base_weights":[5.7891064E-4,-3.9231673E-1,6.787658E-1,-6.644902E-1,2.1796496E-1,1.0506588E0,-1.0737915E-3,-8.311896E-1,-0E0,3.466051E-3,-1.4061035E-4,7.172672E-3,1.273209E-4,-5.695213E-3,-0E0],"categories":[],"categories_nodes":[],"categories_segments":[],"categories_sizes":[],"default_left":[0,0,1,1,1,0,0,1,0,0,0,0,0,0,0],"id":72,"left_children":[1,3,5,7,9,11,-1,13,-1,-1,-1,-1,-1,-1,-1],"loss_changes":[1.3276277E1,5.7029295E0,7.4740944E0,3.329917E0,1.6301416E0,2.0850248E0,0E0,3.6765108E0,0E0,0E0,0E0,0E0,0E0,0E0,0E0],"parents":[2147483647,0,0,1,1,2,2,3,3,4,4,5,5,7,7],"right_children":[2,4,6,8,10,12,-1,14,-1,-1,-1,-1,-1,-1,-1],"split_conditions":[3.4E0,7.1E1,9.371155E0,1.5453297E-1,1.0416667E1,1.12E1,-1.0737915E-3,3.5429686E-1,-0E0,3.466051E-3,-1.4061035E-4,7.172672E-3,1.273209E-4,-5.695213E-3,-0E0],"split_indices":[6,0,20,23,30,5,0,24,0,0,0,0,0,0,0],"split_type":[0,0,0,0,0,0,0,0,0,0,0,0,0,0,0],"sum_hessian":[4.502556E1,2.7920637E1,1.710492E1,2.0492666E1,7.427971E0,1.2655877E1,4.4490433E0,1.7272062E1,3.220605E0,3.4747658E0,3.9532049E0,8.942118E0,3.7137594E0,1.4115517E1,3.1565452E0],"tree_param":{"num_deleted":"0","num_feature":"31","num_nodes":"15","size_leaf_vector":"1"}},{"base_weights":[-0E0,-3.0652028E-1,7.289529E-1,-6.0585004E-1,3.5850134E-1,1.0250981E0,-0E0,-5.6918673E-3,-0E0,4.4822264E-3,-7.015157E-4,4.9711944E-4,6.8227854E-3,-2.3521918E-3,1.981991E-3],"categories":[],"categories_nodes":[],"categories_segments":[],"categories_sizes":[],"default_left":[0,0,1,1,0,0,0,0,0,0,0,0,0,0,0],"id":73,"left_children":[1,3,5,7,9,11,-1,-1,13,-1,-1,-1,-1,-1,-1],"loss_changes":[1.133213E1,7.577889E0,3.9819508E0,5.5890884E0,3.3096526E0,5.2218246E-1,0E0,0E0,2.3685107E0,0E0,0E0,0E0,0E0,0E0,0E0],"parents":[2147483647,0,0,1,1,2,2,3,3,4,4,5,5,8,8],"right_children":[2,4,6,8,10,12,-1,-1,14,-1,-1,-1,-1,-1,-1],"split_conditions":[5.1E0,7.2E1,-5.8504915E-1,7.077903E-1,3.4E1,-1.1436523E0,-0E0,-5.6918673E-3,3.5347223E-1,4.4822264E-3,-7.015157E-4,4.9711944E-4,6.8227854E-3,-2.3521918E-3,1.981991E-3],"split_indices":[6,0,17,18,13,19,0,0,24,0,0,0,0,0,0],"split_type":[0,0,0,0,0,0,0,0,0,0,0,0,0,0,0],"sum_hessian":[4.6317013E1,3.2913357E1,1.3403658E1,2.3990328E1,8.92303E0,9.683847E0,3.7198095E0,1.2439271E1,1.1551056E1,5.221391E0,3.7016385E0,3.2244592E0,6.4593887E0,6.386548E0,5.1645083E0],"tree_param":{"num_deleted":"0","num_feature":"31","num_nodes":"15","size_leaf_vector":"1"}},{"base_weights":[-0E0,7.216234E-1,-4.1221586E-1,5.962213E-3,-0E0,3.5405927E-3,-6.603848E-1,-0E0,-8.03986E-1,-5.2428343E-3,-0E0],"categories":[],"categories_nodes":[],"categories_segments":[],"categories_sizes":[],"default_left":[1,0,0,0,0,0,0,0,0,0,0],"id":74,"left_children":[1,3,5,-1,-1,-1,7,-1,9,-1,-1],"loss_changes":[1.3761282E1,4.04762E0,8.596617E0,0E0,0E0,0E0,2.9138832E0,0E0,1.7688427E0,0E0,0E0],"parents":[2147483647,0,0,1,1,2,2,6,6,8,8],"right_children":[2,4,6,-1,-1,-1,8,-1,10,-1,-1],"split_conditions":[2.3291706E-1,3.5E1,2.8E1,5.962213E-3,-0E0,3.5405927E-3,-6.5143855E-4,-0E0,7.2E1,-5.2428343E-3,-0E0],"split_indices":[24,12,12,0,0,0,15,0,0,0,0],"split_type":[0,0,0,0,0,0,0,0,0,0,0],"sum_hessian":[4.30262E1,1.4868097E1,2.81581E1,9.171087E0,5.697011E0,3.9584885E0,2.4199612E1,3.9460723E0,2.0253538E1,1.6055477E1,4.1980624E0],"tree_param":{"num_deleted":"0","num_feature":"31","num_nodes":"11","size_leaf_vector":"1"}},{"base_weights":[-3.2372586E-2,4.9683824E-3,-2.1531528E-1,5.822684E-1,-4.668463E-1,-0E0,5.774157E-3,1.4315037E-1,-7.298007E-1,3.9530103E-3,-2.1639934E-3,5.7943224E-5,-5.0194836E-3],"categories":[],"categories_nodes":[],"categories_segments":[],"categories_sizes":[],"default_left":[0,0,1,1,0,0,0,0,0,0,0,0,0],"id":75,"left_children":[1,-1,3,5,7,-1,-1,9,11,-1,-1,-1,-1],"loss_changes":[6.7337327E0,0E0,7.9096165E0,2.4973366E0,5.782428E0,0E0,0E0,3.7479026E0,4.066391E0,0E0,0E0,0E0,0E0],"parents":[2147483647,0,0,2,2,3,3,4,4,7,7,8,8],"right_children":[2,-1,4,6,8,-1,-1,10,12,-1,-1,-1,-1],"split_conditions":[2.8E1,4.9683824E-3,1.8854167E-1,1.01622105E-1,-4.1134504E-4,-0E0,5.774157E-3,9.691531E1,5.6666668E1,3.9530103E-3,-2.1639934E-3,5.7943224E-5,-5.0194836E-3],"split_indices":[12,0,24,16,15,0,0,25,3,0,0,0,0],"split_type":[0,0,0,0,0,0,0,0,0,0,0,0,0],"sum_hessian":[4.0330082E1,4.45525E0,3.5874832E1,6.949996E0,2.8924835E1,3.7225955E0,3.2274005E0,7.6507425E0,2.1274094E1,4.4386063E0,3.2121363E0,3.1910655E0,1.8083027E1],"tree_param":{"num_deleted":"0","num_feature":"31","num_nodes":"13","size_leaf_vector":"1"}},{"base_weights":[-2.9063882E-2,-3.1323665E-1,5.6669647E-1,3.8079505E-3,-5.595012E-1,-0E0,8.1239855E-1,-8.1333435E-1,-0E0,-0E0,5.647723E-3,-5.283245E-3,-0E0,-1.9285616E-3,2.3208342E-3],"categories":[],"categories_nodes":[],"categories_segments":[],"categories_sizes":[],"default_left":[0,0,0,0,1,0,0,0,0,0,0,0,0,0,0],"id":76,"left_children":[1,3,5,-1,7,-1,9,11,13,-1,-1,-1,-1,-1,-1],"loss_changes":[8.061131E0,9.067135E0,2.8451262E0,0E0,4.6571674E0,0E0,1.026216E0,2.1273088E0,1.8151602E0,0E0,0E0,0E0,0E0,0E0,0E0],"parents":[2147483647,0,0,1,1,2,2,4,4,6,6,7,7,8,8],"right_children":[2,4,6,-1,8,-1,10,12,14,-1,-1,-1,-1,-1,-1],"split_conditions":[7.2E1,2.9E1,9.3E0,3.8079505E-3,8.512691E-1,-0E0,8.139019E1,1.21E1,9.94E1,-0E0,5.647723E-3,-5.283245E-3,-0E0,-1.9285616E-3,2.3208342E-3],"split_indices":[0,12,8,0,18,0,25,5,1,0,0,0,0,0,0],"split_type":[0,0,0,0,0,0,0,0,0,0,0,0,0,0,0],"sum_hessian":[4.5662823E1,3.2786846E1,1.2875977E1,4.9240217E0,2.7862825E1,3.217253E0,9.658723E0,1.9284107E1,8.578717E0,3.2081857E0,6.4505377E0,1.5838881E1,3.4452279E0,4.1356907E0,4.443026E0],"tree_param":{"num_deleted":"0","num_feature":"31","num_nodes":"15","size_leaf_vector":"1"}},{"base_weights":[-1.3865462E-1,3.4228906E-1,-6.239847E-1,6.547511E-1,-3.368083E-3,8.9064444E-5,-8.517669E-1,5.668487E-3,-4.813327E-4,-2.3720388E-1,-6.2545366E-3,-2.8803842E-3,-0E0],"categories":[],"categories_nodes":[],"categories_segments":[],"categories_sizes":[],"default_left":[0,1,0,1,0,0,0,0,0,0,0,0,0],"id":77,"left_children":[1,3,5,7,-1,-1,9,-1,-1,11,-1,-1,-1],"loss_changes":[1.18993845E1,7.915205E0,4.7235966E0,6.678238E0,0E0,0E0,1.4335833E0,0E0,0E0,1.2497835E0,0E0,0E0,0E0],"parents":[2147483647,0,0,1,1,2,2,3,3,6,6,9,9],"right_children":[2,4,6,8,-1,-1,10,-1,-1,12,-1,-1,-1],"split_conditions":[-5.9E0,1.2803078E1,5.8512235E0,-5.485279E-1,-3.368083E-3,8.9064444E-5,3.3E1,5.668487E-3,-4.813327E-4,3.1E1,-6.2545366E-3,-2.8803842E-3,-0E0],"split_indices":[7,20,20,17,0,0,12,0,0,12,0,0,0],"split_type":[0,0,0,0,0,0,0,0,0,0,0,0,0],"sum_hessian":[4.6179794E1,2.2278135E1,2.3901659E1,1.8090576E1,4.187559E0,5.3941483E0,1.8507511E1,1.2646702E1,5.4438744E0,8.081123E0,1.0426387E1,4.8753047E0,3.205819E0],"tree_param":{"num_deleted":"0","num_feature":"31","num_nodes":"13","size_leaf_vector":"1"}},{"base_weights":[-0E0,-3.587465E-1,8.9611536E-1,2.5153935E-1,-6.503429E-1,6.0887914E-3,4.5640772E-4,4.812544E-3,-1.0704857E-3,-0E0,-7.6683444E-1,-1.0240368E-3,-6.3472055E-3],"categories":[],"categories_nodes":[],"categories_segments":[],"categories_sizes":[],"default_left":[0,0,1,0,0,0,0,0,0,0,0,0,0],"id":78,"left_children":[1,3,5,7,9,-1,-1,-1,-1,-1,11,-1,-1],"loss_changes":[1.4914377E1,6.464345E0,7.1813774E-1,3.9356894E0,2.0106945E0,0E0,0E0,0E0,0E0,0E0,2.5954218E0,0E0,0E0],"parents":[2147483647,0,0,1,1,2,2,3,3,4,4,10,10],"right_children":[2,4,6,8,10,-1,-1,-1,-1,-1,12,-1,-1],"split_conditions":[5.1E0,6.0702868E0,2.4609184E-1,3.2E1,1.7E-1,6.0887914E-3,4.5640772E-4,4.812544E-3,-1.0704857E-3,-0E0,3.4E1,-1.0240368E-3,-6.3472055E-3],"split_indices":[6,20,21,12,2,0,0,0,0,0,13,0,0],"split_type":[0,0,0,0,0,0,0,0,0,0,0,0,0],"sum_hessian":[4.197528E1,3.0338068E1,1.1637213E1,8.6228285E0,2.1715239E1,7.6781225E0,3.9590905E0,3.9689162E0,4.653913E0,3.1788316E0,1.8536407E1,9.562019E0,8.974388E0],"tree_param":{"num_deleted":"0","num_feature":"31","num_nodes":"13","size_leaf_vector":"1"}},{"base_weights":[-5.9249487E-2,7.6820785E-1,-3.2326493E-1,-0E0,6.0776854E-3,2.6197636E-1,-5.5662066E-1,-4.940618E-4,3.367904E-3,-1.7798102E-2,-9.3348247E-1,-3.6205484E-3,1.1463049E-3,-2.963451E-4,-6.2969574E-3],"categories":[],"categories_nodes":[],"categories_segments":[],"categories_sizes":[],"default_left":[0,0,0,0,0,0,1,0,0,0,0,0,0,0,0],"id":79,"left_children":[1,3,5,-1,-1,7,9,-1,-1,11,13,-1,-1,-1,-1],"loss_changes":[1.0255257E1,2.847731E0,5.802002E0,0E0,0E0,1.9908828E0,4.817028E0,0E0,0E0,2.9131627E0,1.3933067E0,0E0,0E0,0E0,0E0],"parents":[2147483647,0,0,1,1,2,2,5,5,6,6,9,9,10,10],"right_children":[2,4,6,-1,-1,8,10,-1,-1,12,14,-1,-1,-1,-1],"split_conditions":[2.4E1,3.4E0,5.7115507E0,-0E0,6.0776854E-3,7.1666664E1,-1.2821889E-4,-4.940618E-4,3.367904E-3,5.2E1,1.22E2,-3.6205484E-3,1.1463049E-3,-2.963451E-4,-6.2969574E-3],"split_indices":[13,6,20,0,0,3,15,0,0,0,4,0,0,0,0],"split_type":[0,0,0,0,0,0,0,0,0,0,0,0,0,0,0],"sum_hessian":[4.5449257E1,9.12259E0,3.6326664E1,3.2113333E0,5.911257E0,8.898904E0,2.7427761E1,3.4436073E0,5.455297E0,1.3304794E1,1.4122967E1,3.9086401E0,9.396154E0,4.1402087E0,9.982758E0],"tree_param":{"num_deleted":"0","num_feature":"31","num_nodes":"15","size_leaf_vector":"1"}},{"base_weights":[-6.6343814E-2,-5.3690964E-1,4.7772467E-1,-7.404911E-1,1.1874226E-4,5.62782E-3,-0E0,-5.6093547E-2,-9.6094936E-1,2.8917461E-3,-4.003314E-3,8.095265E-4,-2.6536162E-3,-6.499426E-3,-0E0],"categories":[],"categories_nodes":[],"categories_segments":[],"categories_sizes":[],"default_left":[0,0,0,0,0,0,1,0,1,0,0,0,0,0,0],"id":80,"left_children":[1,3,5,7,-1,-1,9,11,13,-1,-1,-1,-1,-1,-1],"loss_changes":[1.2548564E1,3.9349027E0,6.646704E0,1.9781351E0,0E0,0E0,5.4991846E0,1.2240794E0,2.4123726E0,0E0,0E0,0E0,0E0,0E0,0E0],"parents":[2147483647,0,0,1,1,2,2,3,3,6,6,7,7,8,8],"right_children":[2,4,6,8,-1,-1,10,12,14,-1,-1,-1,-1,-1,-1],"split_conditions":[3.3E0,7.2E1,3.3E1,1.366E2,1.1874226E-4,5.62782E-3,8.201541E0,5.7E1,8.670793E-1,2.8917461E-3,-4.003314E-3,8.095265E-4,-2.6536162E-3,-6.499426E-3,-0E0],"split_indices":[6,0,12,4,0,0,20,0,18,0,0,0,0,0,0],"split_type":[0,0,0,0,0,0,0,0,0,0,0,0,0,0,0],"sum_hessian":[4.5172924E1,2.5360106E1,1.981282E1,1.9654972E1,5.7051334E0,9.405557E0,1.0407264E1,6.5961475E0,1.3058824E1,5.4766617E0,4.9306016E0,3.4307647E0,3.165383E0,9.899736E0,3.1590874E0],"tree_param":{"num_deleted":"0","num_feature":"31","num_nodes":"15","size_leaf_vector":"1"}},{"base_weights":[-0E0,4.8821625E-1,-6.3324785E-1,8.508386E-1,-0E0,-8.2582366E-1,-0E0,2.0791091E-1,6.522753E-3,1.5887547E-3,-3.0398967E-3,-6.10317E-4,-5.3658383E-3,-0E0,2.5497556E-3],"categories":[],"categories_nodes":[],"categories_segments":[],"categories_sizes":[],"default_left":[0,1,0,0,0,1,0,0,0,0,0,0,0,0,0],"id":81,"left_children":[1,3,5,7,9,11,-1,13,-1,-1,-1,-1,-1,-1,-1],"loss_changes":[1.45579815E1,5.353891E0,3.217925E0,1.3274565E0,2.3675573E0,3.3182335E-1,0E0,6.871554E-1,0E0,0E0,0E0,0E0,0E0,0E0,0E0],"parents":[2147483647,0,0,1,1,2,2,3,3,4,4,5,5,7,7],"right_children":[2,4,6,8,10,12,-1,14,-1,-1,-1,-1,-1,-1,-1],"split_conditions":[-4.6E0,9.293105E0,1.3E1,3.1026596E-1,3.64E1,2.6919982E-1,-0E0,1.1260594E2,6.522753E-3,1.5887547E-3,-3.0398967E-3,-6.10317E-4,-5.3658383E-3,-0E0,2.5497556E-3],"split_indices":[7,20,9,24,10,24,0,25,0,0,0,0,0,0,0],"split_type":[0,0,0,0,0,0,0,0,0,0,0,0,0,0,0],"sum_hessian":[4.3183838E1,2.39866E1,1.9197235E1,1.40947E1,9.8919E0,1.527009E1,3.9271462E0,6.922161E0,7.1725388E0,5.9453564E0,3.9465442E0,4.412196E0,1.0857893E1,3.6991835E0,3.2229774E0],"tree_param":{"num_deleted":"0","num_feature":"31","num_nodes":"15","size_leaf_vector":"1"}},{"base_weights":[1.0131484E-1,-1.7623322E-1,7.847435E-1,7.468355E-2,-5.1716273E-3,5.378414E-3,4.952336E-5,4.816192E-1,-5.9644127E-1,-6.429507E-4,4.132363E-3,-0E0,-4.4466136E-3],"categories":[],"categories_nodes":[],"categories_segments":[],"categories_sizes":[],"default_left":[0,0,1,1,0,0,0,0,0,0,0,0,0],"id":82,"left_children":[1,3,5,7,-1,-1,-1,9,11,-1,-1,-1,-1],"loss_changes":[9.239124E0,7.0772257E0,9.1972065E-1,6.9649973E0,0E0,0E0,0E0,3.577475E0,5.0841737E-1,0E0,0E0,0E0,0E0],"parents":[2147483647,0,0,1,1,2,2,3,3,7,7,8,8],"right_children":[2,4,6,8,-1,-1,-1,10,12,-1,-1,-1,-1],"split_conditions":[7.2E1,3.6E1,8.1662023E-1,1.2000371E1,-5.1716273E-3,5.378414E-3,4.952336E-5,4.4E1,-1.4777342E0,-6.429507E-4,4.132363E-3,-0E0,-4.4466136E-3],"split_indices":[0,12,18,20,0,0,0,0,17,0,0,0,0],"split_type":[0,0,0,0,0,0,0,0,0,0,0,0,0],"sum_hessian":[4.1956856E1,2.9594452E1,1.2362403E1,2.2316341E1,7.278111E0,8.410292E0,3.9521112E0,1.5265344E1,7.0509977E0,3.6761158E0,1.1589229E1,3.1812098E0,3.8697877E0],"tree_param":{"num_deleted":"0","num_feature":"31","num_nodes":"13","size_leaf_vector":"1"}},{"base_weights":[7.638007E-2,-4.7979704E-1,5.0903887E-1,-6.8512654E-1,1.0160634E-3,8.9375806E-1,-2.1931821E-1,-5.211411E-3,-0E0,1.0915701E0,-0E0,4.1898762E-4,-4.2064814E-3,3.83915E-5,7.0946924E-3],"categories":[],"categories_nodes":[],"categories_segments":[],"categories_sizes":[],"default_left":[0,1,0,1,0,1,1,0,0,0,0,0,0,0,0],"id":83,"left_children":[1,3,5,7,-1,9,11,-1,-1,13,-1,-1,-1,-1,-1],"loss_changes":[1.2020346E1,3.6261144E0,9.251568E0,2.174203E0,0E0,4.1573925E0,2.54975E0,0E0,0E0,2.0551815E0,0E0,0E0,0E0,0E0,0E0],"parents":[2147483647,0,0,1,1,2,2,3,3,5,5,6,6,9,9],"right_children":[2,4,6,8,-1,10,12,-1,-1,14,-1,-1,-1,-1,-1],"split_conditions":[2.2E0,1.5453297E-1,3.5E1,2.892989E-4,1.0160634E-3,2.7104616E-1,8.201541E0,-5.211411E-3,-0E0,-2.072484E0,-0E0,4.1898762E-4,-4.2064814E-3,3.83915E-5,7.0946924E-3],"split_indices":[6,23,13,15,0,21,20,0,0,19,0,0,0,0,0],"split_type":[0,0,0,0,0,0,0,0,0,0,0,0,0,0,0],"sum_hessian":[4.6213276E1,1.8980978E1,2.72323E1,1.5763796E1,3.2171822E0,1.8579632E1,8.652667E0,9.953508E0,5.810287E0,1.535602E1,3.2236123E0,5.22752E0,3.425147E0,3.4658809E0,1.1890139E1],"tree_param":{"num_deleted":"0","num_feature":"31","num_nodes":"15","size_leaf_vector":"1"}},{"base_weights":[-1.4342098E-2,-5.7431346E-1,3.9391026E-1,-0E0,-5.4334505E-3,5.824453E-3,-2.3040134E-2,-2.8984635E-3,3.2029846E-3,-5.0222117E-1,4.054074E-3,-0E0,-4.2363056E-3],"categories":[],"categories_nodes":[],"categories_segments":[],"categories_sizes":[],"default_left":[0,1,0,1,0,0,0,0,0,0,0,0,0],"id":84,"left_children":[1,3,5,7,-1,-1,9,-1,-1,11,-1,-1,-1],"loss_changes":[1.0939359E1,4.096906E0,8.361641E0,3.9296389E0,0E0,0E0,6.411166E0,0E0,0E0,2.0286362E0,0E0,0E0,0E0],"parents":[2147483647,0,0,1,1,2,2,3,3,6,6,9,9],"right_children":[2,4,6,8,-1,-1,10,-1,-1,12,-1,-1,-1],"split_conditions":[2.2E0,9.9381614E-5,3.1E1,7.429927E-1,-5.4334505E-3,5.824453E-3,1.1437749E2,-2.8984635E-3,3.2029846E-3,8.593829E1,4.054074E-3,-0E0,-4.2363056E-3],"split_indices":[6,15,12,18,0,0,25,0,0,25,0,0,0],"split_type":[0,0,0,0,0,0,0,0,0,0,0,0,0],"sum_hessian":[4.3395775E1,1.9170113E1,2.4225664E1,9.537508E0,9.632605E0,9.396334E0,1.482933E1,5.8427114E0,3.6947963E0,1.0365716E1,4.463614E0,3.4608016E0,6.904915E0],"tree_param":{"num_deleted":"0","num_feature":"31","num_nodes":"13","size_leaf_vector":"1"}},{"base_weights":[6.4472735E-2,9.3207526E-1,-1.6188322E-1,4.8508594E-4,6.207942E-3,-5.226237E-1,2.7698925E-1,-7.0090914E-1,2.03816E-4,7.069768E-1,-9.991087E-4,-0E0,-4.9035796E-3,-0E0,5.5249617E-3],"categories":[],"categories_nodes":[],"categories_segments":[],"categories_sizes":[],"default_left":[0,0,0,0,0,1,1,0,0,0,0,0,0,0,0],"id":85,"left_children":[1,3,5,-1,-1,7,9,11,-1,13,-1,-1,-1,-1,-1],"loss_changes":[1.0023992E1,1.5179825E-1,6.2893834E0,0E0,0E0,2.99652E0,4.001608E0,2.1434488E0,0E0,1.5190649E0,0E0,0E0,0E0,0E0,0E0],"parents":[2147483647,0,0,1,1,2,2,5,5,6,6,7,7,9,9],"right_children":[2,4,6,