{"learner":{"attributes":{"scikit_learn":"{\"_estimator_type\": \"classifier\"}"},"feature_names":["WIEK","Interleukina 6","Prokalcytonina","MAP 1sza doba","pao2/fio2 1sza doba","Glukoza (1. gaz. 1sza doba)","Lac (1. gaz. 1sza doba)","BE (1. gaz. 1sza doba)","LA (1. gaz. 1 sza doba)","SOFA - punktacja","temperatura ciała przy przyjęciu (TISS nr 1)","sodium chloride difference tiss 1","sodium chloride difference tiss 2","sodium chloride difference tiss 3","akcja serca przyjęcie (TISS nr 1)","ecg_mean","ecg_std","ecg_min","ecg_max","ecg_skew","ecg_kurtosis","entropy_approx","entropy_sample","qrs_duration_s","qt_interval_s","hr","mean_rr_ms","rr_std","hr_sdnn","hr_rmssd","hr_pnn50"],"feature_types":["int","float","float","float","float","float","float","float","float","int","float","int","int","int","int","float","float","float","float","float","float","float","float","float","float","float","float","float","float","float","float"],"gradient_booster":{"model":{"gbtree_model_param":{"num_parallel_tree":"1","num_trees":"196"},"iteration_indptr":[0,1,2,3,4,5,6,7,8,9,10,11,12,13,14,15,16,17,18,19,20,21,22,23,24,25,26,27,28,29,30,31,32,33,34,35,36,37,38,39,40,41,42,43,44,45,46,47,48,49,50,51,52,53,54,55,56,57,58,59,60,61,62,63,64,65,66,67,68,69,70,71,72,73,74,75,76,77,78,79,80,81,82,83,84,85,86,87,88,89,90,91,92,93,94,95,96,97,98,99,100,101,102,103,104,105,106,107,108,109,110,111,112,113,114,115,116,117,118,119,120,121,122,123,124,125,126,127,128,129,130,131,132,133,134,135,136,137,138,139,140,141,142,143,144,145,146,147,148,149,150,151,152,153,154,155,156,157,158,159,160,161,162,163,164,165,166,167,168,169,170,171,172,173,174,175,176,177,178,179,180,181,182,183,184,185,186,187,188,189,190,191,192,193,194,195,196],"tree_info":[0,0,0,0,0,0,0,0,0,0,0,0,0,0,0,0,0,0,0,0,0,0,0,0,0,0,0,0,0,0,0,0,0,0,0,0,0,0,0,0,0,0,0,0,0,0,0,0,0,0,0,0,0,0,0,0,0,0,0,0,0,0,0,0,0,0,0,0,0,0,0,0,0,0,0,0,0,0,0,0,0,0,0,0,0,0,0,0,0,0,0,0,0,0,0,0,0,0,0,0,0,0,0,0,0,0,0,0,0,0,0,0,0,0,0,0,0,0,0,0,0,0,0,0,0,0,0,0,0,0,0,0,0,0,0,0,0,0,0,0,0,0,0,0,0,0,0,0,0,0,0,0,0,0,0,0,0,0,0,0,0,0,0,0,0,0,0,0,0,0,0,0,0,0,0,0,0,0,0,0,0,0,0,0,0,0,0,0,0,0,0,0,0,0,0,0],"trees":[{"base_weights":[-1.4632511E-1,3.3562055E-1,-6.226438E-1,-7.269072E-4,1.3320957E-2,-0E0,-1.3796183E-2],"categories":[],"categories_nodes":[],"categories_segments":[],"categories_sizes":[],"default_left":[0,0,0,0,0,0,0],"id":0,"left_children":[1,3,5,-1,-1,-1,-1],"loss_changes":[1.082296E1,7.7005234E0,8.057717E0,0E0,0E0,0E0,0E0],"parents":[2147483647,0,0,1,1,2,2],"right_children":[2,4,6,-1,-1,-1,-1],"split_conditions":[3.3E1,3.2E0,8.655683E0,-7.269072E-4,1.3320957E-2,-0E0,-1.3796183E-2],"split_indices":[12,6,20,0,0,0,0],"split_type":[0,0,0,0,0,0,0],"sum_hessian":[4.15581E1,1.941037E1,2.214773E1,1.2442545E1,6.967825E0,9.705185E0,1.2442545E1],"tree_param":{"num_deleted":"0","num_feature":"31","num_nodes":"7","size_leaf_vector":"1"}},{"base_weights":[-2.0629112E-3,-6.3153404E-1,8.1806463E-1,1.4187403E-3,-1.19519355E-2,1.7074496E-2,-0E0],"categories":[],"categories_nodes":[],"categories_segments":[],"categories_sizes":[],"default_left":[0,0,1,0,0,0,0],"id":1,"left_children":[1,3,5,-1,-1,-1,-1],"loss_changes":[2.397498E1,8.033228E0,1.0009238E1,0E0,0E0,0E0,0E0],"parents":[2147483647,0,0,1,1,2,2],"right_children":[2,4,6,-1,-1,-1,-1],"split_conditions":[3.3E0,-1.352566E0,9.371155E0,1.4187403E-3,-1.19519355E-2,1.7074496E-2,-0E0],"split_indices":[6,17,20,0,0,0,0],"split_type":[0,0,0,0,0,0,0],"sum_hessian":[4.304533E1,2.5623383E1,1.7421946E1,6.716352E0,1.8907032E1,1.0455465E1,6.9664807E0],"tree_param":{"num_deleted":"0","num_feature":"31","num_nodes":"7","size_leaf_vector":"1"}},{"base_weights":[-2.3913184E-2,4.6696293E-1,-5.04484E-1,-4.118799E-4,1.1191636E-2,3.6055254E-4,-1.0662264E-2],"categories":[],"categories_nodes":[],"categories_segments":[],"categories_sizes":[],"default_left":[0,0,0,0,0,0,0],"id":2,"left_children":[1,3,5,-1,-1,-1,-1],"loss_changes":[1.1778897E1,6.228418E0,6.144897E0,0E0,0E0,0E0,0E0],"parents":[2147483647,0,0,1,1,2,2],"right_children":[2,4,6,-1,-1,-1,-1],"split_conditions":[-5.9E0,6.3E1,1.366E2,-4.118799E-4,1.1191636E-2,3.6055254E-4,-1.0662264E-2],"split_indices":[7,0,4,0,0,0,0],"split_type":[0,0,0,0,0,0,0],"sum_hessian":[4.5774788E1,2.115807E1,2.4616718E1,8.961259E0,1.2196811E1,8.70307E0,1.591365E1],"tree_param":{"num_deleted":"0","num_feature":"31","num_nodes":"7","size_leaf_vector":"1"}},{"base_weights":[-1.8530191E-1,-5.709197E-1,5.289428E-3,2.099031E-3,-9.7276205E-3],"categories":[],"categories_nodes":[],"categories_segments":[],"categories_sizes":[],"default_left":[0,0,0,0,0],"id":3,"left_children":[1,3,-1,-1,-1],"loss_changes":[1.1974996E1,5.9397917E0,0E0,0E0,0E0],"parents":[2147483647,0,0,1,1],"right_children":[2,4,-1,-1,-1],"split_conditions":[1.3E1,2.9E1,5.289428E-3,2.099031E-3,-9.7276205E-3],"split_indices":[9,12,0,0,0],"split_type":[0,0,0,0,0],"sum_hessian":[4.6261524E1,2.9837694E1,1.642383E1,4.979458E0,2.4858236E1],"tree_param":{"num_deleted":"0","num_feature":"31","num_nodes":"5","size_leaf_vector":"1"}},{"base_weights":[3.3428783E-3,9.769987E-1,-3.6444403E-3,-0E0,1.8646019E-2],"categories":[],"categories_nodes":[],"categories_segments":[],"categories_sizes":[],"default_left":[0,0,0,0,0],"id":4,"left_children":[1,3,-1,-1,-1],"loss_changes":[1.5212338E1,7.642705E0,0E0,0E0,0E0],"parents":[2147483647,0,0,1,1],"right_children":[2,4,-1,-1,-1],"split_conditions":[2.9E1,2.8E0,-3.6444403E-3,-0E0,1.8646019E-2],"split_indices":[13,6,0,0,0],"split_type":[0,0,0,0,0],"sum_hessian":[4.575379E1,1.0705666E1,3.5048126E1,3.7264762E0,6.979189E0],"tree_param":{"num_deleted":"0","num_feature":"31","num_nodes":"5","size_leaf_vector":"1"}},{"base_weights":[-0E0,-6.811757E-3,6.4870113E-1,1.40837E-2,-0E0,8.539798E-3,-1.0025408E-2],"categories":[],"categories_nodes":[],"categories_segments":[],"categories_sizes":[],"default_left":[0,0,0,0,1,0,0],"id":5,"left_children":[1,-1,3,-1,5,-1,-1],"loss_changes":[1.7291952E1,0E0,8.633817E0,0E0,7.019146E0,0E0,0E0],"parents":[2147483647,0,0,2,2,4,4],"right_children":[2,-1,4,-1,6,-1,-1],"split_conditions":[2.6E0,-6.811757E-3,3.5E1,1.40837E-2,2.23748E-1,8.539798E-3,-1.0025408E-2],"split_indices":[6,0,12,0,24,0,0],"split_type":[0,0,0,0,0,0,0],"sum_hessian":[4.4760185E1,2.3345648E1,2.1414537E1,1.2707238E1,8.707298E0,3.9826531E0,4.7246456E0],"tree_param":{"num_deleted":"0","num_feature":"31","num_nodes":"7","size_leaf_vector":"1"}},{"base_weights":[-3.0762002E-2,-9.407871E-3,4.877296E-1,1.4096344E-2,-1.14597894E-1,-8.046581E-3,5.752455E-3],"categories":[],"categories_nodes":[],"categories_segments":[],"categories_sizes":[],"default_left":[0,0,0,0,0,0,0],"id":6,"left_children":[1,-1,3,-1,5,-1,-1],"loss_changes":[1.8977839E1,0E0,1.2399681E1,0E0,5.339091E0,0E0,0E0],"parents":[2147483647,0,0,2,2,4,4],"right_children":[2,-1,4,-1,6,-1,-1],"split_conditions":[2.1E0,-9.407871E-3,3.3E1,1.4096344E-2,3.6272436E-1,-8.046581E-3,5.752455E-3],"split_indices":[6,0,12,0,24,0,0],"split_type":[0,0,0,0,0,0,0],"sum_hessian":[4.5999527E1,2.0098421E1,2.5901106E1,1.2967138E1,1.2933968E1,7.956053E0,4.9779143E0],"tree_param":{"num_deleted":"0","num_feature":"31","num_nodes":"7","size_leaf_vector":"1"}},{"base_weights":[-3.652584E-3,-7.3479903E-3,3.5950336E-1,1.0286653E-2,-1.9653344E-4],"categories":[],"categories_nodes":[],"categories_segments":[],"categories_sizes":[],"default_left":[0,0,0,0,0],"id":7,"left_children":[1,-1,3,-1,-1],"loss_changes":[1.0509716E1,0E0,6.0600367E0,0E0,0E0],"parents":[2147483647,0,0,2,2],"right_children":[2,-1,4,-1,-1],"split_conditions":[1.9E0,-7.3479903E-3,3.62E1,1.0286653E-2,-1.9653344E-4],"split_indices":[6,0,10,0,0],"split_type":[0,0,0,0,0],"sum_hessian":[4.425199E1,1.8101398E1,2.615059E1,1.2462575E1,1.3688016E1],"tree_param":{"num_deleted":"0","num_feature":"31","num_nodes":"5","size_leaf_vector":"1"}},{"base_weights":[-0E0,-8.031894E-3,5.9953463E-1,1.7125396E-2,-1.4576346E-1,6.381165E-3,-1.0871303E-2],"categories":[],"categories_nodes":[],"categories_segments":[],"categories_sizes":[],"default_left":[0,0,0,0,1,0,0],"id":8,"left_children":[1,-1,3,-1,5,-1,-1],"loss_changes":[1.8582146E1,0E0,1.63723E1,0E0,7.7083473E0,0E0,0E0],"parents":[2147483647,0,0,2,2,4,4],"right_children":[2,-1,4,-1,6,-1,-1],"split_conditions":[2.6E0,-8.031894E-3,3.3E1,1.7125396E-2,7.0225596E0,6.381165E-3,-1.0871303E-2],"split_indices":[6,0,12,0,20,0,0],"split_type":[0,0,0,0,0,0,0],"sum_hessian":[4.449386E1,2.1566673E1,2.2927185E1,1.1483899E1,1.1443285E1,5.2299795E0,6.213306E0],"tree_param":{"num_deleted":"0","num_feature":"31","num_nodes":"7","size_leaf_vector":"1"}},{"base_weights":[4.8034776E-2,7.937094E-3,-3.586145E-1,-9.096729E-3,1.6805339E-3],"categories":[],"categories_nodes":[],"categories_segments":[],"categories_sizes":[],"default_left":[0,0,0,0,0],"id":9,"left_children":[1,-1,3,-1,-1],"loss_changes":[1.1531116E1,0E0,5.7985435E0,0E0,0E0],"parents":[2147483647,0,0,2,2],"right_children":[2,-1,4,-1,-1],"split_conditions":[-6E0,7.937094E-3,1.909726E-1,-9.096729E-3,1.6805339E-3],"split_indices":[7,0,16,0,0],"split_type":[0,0,0,0,0],"sum_hessian":[4.2996323E1,1.8680384E1,2.431594E1,1.512895E1,9.186991E0],"tree_param":{"num_deleted":"0","num_feature":"31","num_nodes":"5","size_leaf_vector":"1"}},{"base_weights":[-7.775176E-2,6.15005E-1,-4.9357608E-1,-6.9307256E-4,1.4643676E-2,2.05996E-3,-1.1946924E-2],"categories":[],"categories_nodes":[],"categories_segments":[],"categories_sizes":[],"default_left":[0,0,1,0,0,0,0],"id":10,"left_children":[1,3,5,-1,-1,-1,-1],"loss_changes":[1.3938176E1,8.104002E0,1.1034159E1,0E0,0E0,0E0,0E0],"parents":[2147483647,0,0,1,1,2,2],"right_children":[2,4,6,-1,-1,-1,-1],"split_conditions":[3.1E1,1.02E1,6.15026E0,-6.9307256E-4,1.4643676E-2,2.05996E-3,-1.1946924E-2],"split_indices":[13,8,20,0,0,0,0],"split_type":[0,0,0,0,0,0,0],"sum_hessian":[4.4974407E1,1.5190328E1,2.978408E1,6.4524045E0,8.737923E0,1.1430369E1,1.8353712E1],"tree_param":{"num_deleted":"0","num_feature":"31","num_nodes":"7","size_leaf_vector":"1"}},{"base_weights":[1.8079837E-1,-2.6744032E-1,6.870775E-1,-9.308933E-3,1.7234499E-3,-0E0,1.4800101E-2],"categories":[],"categories_nodes":[],"categories_segments":[],"categories_sizes":[],"default_left":[0,0,0,0,0,0,0],"id":11,"left_children":[1,3,5,-1,-1,-1,-1],"loss_changes":[1.1852075E1,5.9428005E0,7.7659435E0,0E0,0E0,0E0,0E0],"parents":[2147483647,0,0,1,1,2,2],"right_children":[2,4,6,-1,-1,-1,-1],"split_conditions":[6.5E1,1.5432132E1,2.6E0,-9.308933E-3,1.7234499E-3,-0E0,1.4800101E-2],"split_indices":[0,28,6,0,0,0,0],"split_type":[0,0,0,0,0,0,0],"sum_hessian":[4.595517E1,2.3325012E1,2.263016E1,1.1661496E1,1.1663515E1,1.065835E1,1.1971809E1],"tree_param":{"num_deleted":"0","num_feature":"31","num_nodes":"7","size_leaf_vector":"1"}},{"base_weights":[-7.715893E-3,-6.437084E-3,7.840495E-3],"categories":[],"categories_nodes":[],"categories_segments":[],"categories_sizes":[],"default_left":[0,0,0],"id":12,"left_children":[1,-1,-1],"loss_changes":[1.5607919E1,0E0,0E0],"parents":[2147483647,0,0],"right_children":[2,-1,-1],"split_conditions":[1.2E1,-6.437084E-3,7.840495E-3],"split_indices":[9,0,0],"split_type":[0,0,0],"sum_hessian":[4.544106E1,2.6761251E1,1.8679808E1],"tree_param":{"num_deleted":"0","num_feature":"31","num_nodes":"3","size_leaf_vector":"1"}},{"base_weights":[1.55409025E-2,-5.5582486E-3,7.553826E-1,1.7401056E-2,-0E0],"categories":[],"categories_nodes":[],"categories_segments":[],"categories_sizes":[],"default_left":[0,0,0,0,0],"id":13,"left_children":[1,-1,3,-1,-1],"loss_changes":[1.6605019E1,0E0,8.541185E0,0E0,0E0],"parents":[2147483647,0,0,2,2],"right_children":[2,-1,4,-1,-1],"split_conditions":[3.3E0,-5.5582486E-3,3.1E1,1.7401056E-2,-0E0],"split_indices":[6,0,13,0,0],"split_type":[0,0,0,0,0],"sum_hessian":[4.3708553E1,2.6246662E1,1.7461891E1,8.247185E0,9.214707E0],"tree_param":{"num_deleted":"0","num_feature":"31","num_nodes":"5","size_leaf_vector":"1"}},{"base_weights":[-4.676267E-2,2.9404846E-1,-1.0691993E-2,6.192618E-1,-4.321034E-3,-4.955454E-3,1.1697845E-2],"categories":[],"categories_nodes":[],"categories_segments":[],"categories_sizes":[],"default_left":[1,0,0,0,0,0,0],"id":14,"left_children":[1,3,-1,5,-1,-1,-1],"loss_changes":[1.4727534E1,7.99026E0,0E0,9.473223E0,0E0,0E0,0E0],"parents":[2147483647,0,0,1,1,3,3],"right_children":[2,4,-1,6,-1,-1,-1],"split_conditions":[1.18251915E1,3.6E1,-1.0691993E-2,4.8E1,-4.321034E-3,-4.955454E-3,1.1697845E-2],"split_indices":[20,12,0,0,0,0,0],"split_type":[0,0,0,0,0,0,0],"sum_hessian":[4.6928886E1,3.2563534E1,1.4365352E1,2.3137949E1,9.425586E0,4.224013E0,1.8913935E1],"tree_param":{"num_deleted":"0","num_feature":"31","num_nodes":"7","size_leaf_vector":"1"}},{"base_weights":[1.4232318E-1,-5.3447047E-3,6.171155E-1,1.3607604E-2,-1.1255719E-4],"categories":[],"categories_nodes":[],"categories_segments":[],"categories_sizes":[],"default_left":[0,0,0,0,0],"id":15,"left_children":[1,-1,3,-1,-1],"loss_changes":[1.3383303E1,0E0,9.679594E0,0E0,0E0],"parents":[2147483647,0,0,2,2],"right_children":[2,-1,4,-1,-1],"split_conditions":[2.1E0,-5.3447047E-3,3.4E1,1.3607604E-2,-1.1255719E-4],"split_indices":[6,0,13,0,0],"split_type":[0,0,0,0,0],"sum_hessian":[4.4694717E1,1.9028734E1,2.5665983E1,1.5222852E1,1.04431305E1],"tree_param":{"num_deleted":"0","num_feature":"31","num_nodes":"5","size_leaf_vector":"1"}},{"base_weights":[-2.7811097E-2,-6.222204E-3,5.452202E-1,-8.3692465E-4,1.3060449E-2],"categories":[],"categories_nodes":[],"categories_segments":[],"categories_sizes":[],"default_left":[0,0,0,0,0],"id":16,"left_children":[1,-1,3,-1,-1],"loss_changes":[1.3965209E1,0E0,8.2873535E0,0E0,0E0],"parents":[2147483647,0,0,2,2],"right_children":[2,-1,4,-1,-1],"split_conditions":[3.3E0,-6.222204E-3,6.3E1,-8.3692465E-4,1.3060449E-2],"split_indices":[6,0,0,0,0],"split_type":[0,0,0,0,0],"sum_hessian":[4.8411377E1,2.820809E1,2.0203289E1,8.46998E0,1.1733308E1],"tree_param":{"num_deleted":"0","num_feature":"31","num_nodes":"5","size_leaf_vector":"1"}},{"base_weights":[-4.6184912E-2,-7.3460545E-3,5.858978E-1,1.2853748E-2,-6.980927E-4],"categories":[],"categories_nodes":[],"categories_segments":[],"categories_sizes":[],"default_left":[0,0,0,0,0],"id":17,"left_children":[1,-1,3,-1,-1],"loss_changes":[1.6728981E1,0E0,7.5564537E0,0E0,0E0],"parents":[2147483647,0,0,2,2],"right_children":[2,-1,4,-1,-1],"split_conditions":[3.2E0,-7.3460545E-3,2.2E2,1.2853748E-2,-6.980927E-4],"split_indices":[6,0,4,0,0],"split_type":[0,0,0,0,0],"sum_hessian":[4.5157944E1,2.5705706E1,1.945224E1,1.2224179E1,7.2280607E0],"tree_param":{"num_deleted":"0","num_feature":"31","num_nodes":"5","size_leaf_vector":"1"}},{"base_weights":[-4.8871085E-2,8.996104E-3,-4.350221E-1,-9.598372E-3,2.3540596E-3],"categories":[],"categories_nodes":[],"categories_segments":[],"categories_sizes":[],"default_left":[0,0,0,0,0],"id":18,"left_children":[1,-1,3,-1,-1],"loss_changes":[1.3386636E1,0E0,7.730607E0,0E0,0E0],"parents":[2147483647,0,0,2,2],"right_children":[2,-1,4,-1,-1],"split_conditions":[-9.4E0,8.996104E-3,1.3E1,-9.598372E-3,2.3540596E-3],"split_indices":[7,0,9,0,0],"split_type":[0,0,0,0,0],"sum_hessian":[4.264779E1,1.245795E1,3.018984E1,2.0988531E1,9.201309E0],"tree_param":{"num_deleted":"0","num_feature":"31","num_nodes":"5","size_leaf_vector":"1"}},{"base_weights":[-0E0,-5.2797035E-3,8.1016195E-1,1.6924527E-2,-0E0],"categories":[],"categories_nodes":[],"categories_segments":[],"categories_sizes":[],"default_left":[0,0,0,0,0],"id":19,"left_children":[1,-1,3,-1,-1],"loss_changes":[1.6032143E1,0E0,8.516275E0,0E0,0E0],"parents":[2147483647,0,0,2,2],"right_children":[2,-1,4,-1,-1],"split_conditions":[7E1,-5.2797035E-3,-2.3E0,1.6924527E-2,-0E0],"split_indices":[0,0,7,0,0],"split_type":[0,0,0,0,0],"sum_hessian":[4.163353E1,2.6970875E1,1.4662654E1,8.722227E0,5.940426E0],"tree_param":{"num_deleted":"0","num_feature":"31","num_nodes":"5","size_leaf_vector":"1"}},{"base_weights":[-9.2345495E-3,-5.386591E-1,6.52407E-1,-9.730335E-3,4.237611E-4,1.3988813E-2,-0E0],"categories":[],"categories_nodes":[],"categories_segments":[],"categories_sizes":[],"default_left":[0,0,1,0,0,0,0],"id":20,"left_children":[1,3,5,-1,-1,-1,-1],"loss_changes":[1.6494377E1,4.8851633E0,7.6052866E0,0E0,0E0,0E0,0E0],"parents":[2147483647,0,0,1,1,2,2],"right_children":[2,4,6,-1,-1,-1,-1],"split_conditions":[3.4E0,7.2E1,8.474777E0,-9.730335E-3,4.237611E-4,1.3988813E-2,-0E0],"split_indices":[6,0,20,0,0,0,0],"split_type":[0,0,0,0,0,0,0],"sum_hessian":[4.3633553E1,2.5676117E1,1.7957434E1,1.9493088E1,6.1830287E0,1.0985132E1,6.9723024E0],"tree_param":{"num_deleted":"0","num_feature":"31","num_nodes":"7","size_leaf_vector":"1"}},{"base_weights":[2.5955232E-2,7.129564E-1,-4.948017E-1,-3.4340671E-3,1.3048947E-2,-1.2180799E-2,1.4563711E-2,-7.8076147E-3,7.7500707E-3],"categories":[],"categories_nodes":[],"categories_segments":[],"categories_sizes":[],"default_left":[0,0,0,0,0,0,0,0,0],"id":21,"left_children":[1,3,5,-1,-1,-1,7,-1,-1],"loss_changes":[1.6870493E1,8.496583E0,7.5283375E0,0E0,0E0,0E0,5.5785975E0,0E0,0E0],"parents":[2147483647,0,0,1,1,2,2,6,6],"right_children":[2,4,6,-1,-1,-1,8,-1,-1],"split_conditions":[-5.9E0,4.3E1,9.861585E1,-3.4340671E-3,1.3048947E-2,-1.2180799E-2,6.880236E-1,-7.8076147E-3,7.7500707E-3],"split_indices":[7,0,29,0,0,0,18,0,0],"split_type":[0,0,0,0,0,0,0,0,0],"sum_hessian":[4.2360752E1,1.9170397E1,2.3190355E1,3.728486E0,1.5441912E1,1.2565842E1,1.0624513E1,3.950894E0,6.6736183E0],"tree_param":{"num_deleted":"0","num_feature":"31","num_nodes":"9","size_leaf_vector":"1"}},{"base_weights":[-8.1227176E-2,-6.9112664E-1,7.7916616E-1,-1.2114124E-2,-0E0,1.5696445E-2,-0E0],"categories":[],"categories_nodes":[],"categories_segments":[],"categories_sizes":[],"default_left":[0,0,0,0,0,0,0],"id":22,"left_children":[1,3,5,-1,-1,-1,-1],"loss_changes":[2.4964357E1,6.626342E0,8.756596E0,0E0,0E0,0E0,0E0],"parents":[2147483647,0,0,1,1,2,2],"right_children":[2,4,6,-1,-1,-1,-1],"split_conditions":[3.4E0,1.3E1,3.5E1,-1.2114124E-2,-0E0,1.5696445E-2,-0E0],"split_indices":[6,9,12,0,0,0,0],"split_type":[0,0,0,0,0,0,0],"sum_hessian":[4.3843266E1,2.6882729E1,1.6960537E1,1.9940552E1,6.942178E0,1.0981581E1,5.9789567E0],"tree_param":{"num_deleted":"0","num_feature":"31","num_nodes":"7","size_leaf_vector":"1"}},{"base_weights":[-1.18076E-1,3.774476E-1,-6.671061E-3,-0E0,1.1652185E-2],"categories":[],"categories_nodes":[],"categories_segments":[],"categories_sizes":[],"default_left":[0,0,0,0,0],"id":23,"left_children":[1,3,-1,-1,-1],"loss_changes":[1.034955E1,5.3394365E0,0E0,0E0,0E0],"parents":[2147483647,0,0,1,1],"right_children":[2,4,-1,-1,-1],"split_conditions":[-5.9E0,1.2755682E-1,-6.671061E-3,-0E0,1.1652185E-2],"split_indices":[7,23,0,0,0],"split_type":[0,0,0,0,0],"sum_hessian":[4.5527634E1,1.9167576E1,2.636006E1,1.1442481E1,7.7250953E0],"tree_param":{"num_deleted":"0","num_feature":"31","num_nodes":"5","size_leaf_vector":"1"}},{"base_weights":[1.5471259E-1,1.3105497E-2,-1.3916814E-3],"categories":[],"categories_nodes":[],"categories_segments":[],"categories_sizes":[],"default_left":[0,0,0],"id":24,"left_children":[1,-1,-1],"loss_changes":[1.2592519E1,0E0,0E0],"parents":[2147483647,0,0],"right_children":[2,-1,-1],"split_conditions":[2.5E1,1.3105497E-2,-1.3916814E-3],"split_indices":[13,0,0],"split_type":[0,0,0],"sum_hessian":[4.457003E1,1.0198821E1,3.437121E1],"tree_param":{"num_deleted":"0","num_feature":"31","num_nodes":"3","size_leaf_vector":"1"}},{"base_weights":[2.9942954E-2,-3.2659566E-1,1.0423145E-2,4.0183016E-3,-7.1829995E-3],"categories":[],"categories_nodes":[],"categories_segments":[],"categories_sizes":[],"default_left":[0,0,0,0,0],"id":25,"left_children":[1,3,-1,-1,-1],"loss_changes":[1.3637378E1,5.5149574E0,0E0,0E0,0E0],"parents":[2147483647,0,0,1,1],"right_children":[2,4,-1,-1,-1],"split_conditions":[5.1E0,-1.4659747E0,1.0423145E-2,4.0183016E-3,-7.1829995E-3],"split_indices":[6,17,0,0,0],"split_type":[0,0,0,0,0],"sum_hessian":[4.135675E1,2.814566E1,1.3211088E1,5.9370522E0,2.2208609E1],"tree_param":{"num_deleted":"0","num_feature":"31","num_nodes":"5","size_leaf_vector":"1"}},{"base_weights":[2.0333381E-1,1.1426322E-2,-7.69995E-2,-4.9894135E-3,6.170985E-3],"categories":[],"categories_nodes":[],"categories_segments":[],"categories_sizes":[],"default_left":[0,0,0,0,0],"id":26,"left_children":[1,-1,3,-1,-1],"loss_changes":[1.0625432E1,0E0,6.40272E0,0E0,0E0],"parents":[2147483647,0,0,2,2],"right_children":[2,-1,4,-1,-1],"split_conditions":[-8.9E0,1.1426322E-2,1.3E1,-4.9894135E-3,6.170985E-3],"split_indices":[7,0,9,0,0],"split_type":[0,0,0,0,0],"sum_hessian":[4.4766277E1,1.2947016E1,3.1819262E1,2.2381239E1,9.438023E0],"tree_param":{"num_deleted":"0","num_feature":"31","num_nodes":"5","size_leaf_vector":"1"}},{"base_weights":[-0E0,7.901578E-1,-3.5032326E-1,-1.521735E-3,1.4629968E-2,2.7059093E-3,-9.985608E-3],"categories":[],"categories_nodes":[],"categories_segments":[],"categories_sizes":[],"default_left":[0,0,1,0,0,0,0],"id":27,"left_children":[1,3,5,-1,-1,-1,-1],"loss_changes":[1.4386097E1,7.410226E0,9.761565E0,0E0,0E0,0E0,0E0],"parents":[2147483647,0,0,1,1,2,2],"right_children":[2,4,6,-1,-1,-1,-1],"split_conditions":[3.1E1,1.6E0,2.777976E-1,-1.521735E-3,1.4629968E-2,2.7059093E-3,-9.985608E-3],"split_indices":[13,6,24,0,0,0,0],"split_type":[0,0,0,0,0,0,0],"sum_hessian":[4.644683E1,1.4392279E1,3.2054554E1,3.4440687E0,1.094821E1,1.3106367E1,1.8948185E1],"tree_param":{"num_deleted":"0","num_feature":"31","num_nodes":"7","size_leaf_vector":"1"}},{"base_weights":[-3.21955E-2,4.9451888E-1,-5.2064234E-1,-6.159322E-3,1.0423213E-2,-0E0,-1.2139707E-2],"categories":[],"categories_nodes":[],"categories_segments":[],"categories_sizes":[],"default_left":[0,0,0,0,0,0,0],"id":28,"left_children":[1,3,5,-1,-1,-1,-1],"loss_changes":[1.2997464E1,8.86223E0,6.315391E0,0E0,0E0,0E0,0E0],"parents":[2147483647,0,0,1,1,2,2],"right_children":[2,4,6,-1,-1,-1,-1],"split_conditions":[-6E0,4.6E1,1.9E2,-6.159322E-3,1.0423213E-2,-0E0,-1.2139707E-2],"split_indices":[7,0,4,0,0,0,0],"split_type":[0,0,0,0,0,0,0],"sum_hessian":[4.6443924E1,2.0886019E1,2.5557907E1,3.967482E0,1.6918537E1,1.2795731E1,1.27621765E1],"tree_param":{"num_deleted":"0","num_feature":"31","num_nodes":"7","size_leaf_vector":"1"}},{"base_weights":[-9.666532E-2,1.08906105E-2,-4.4397366E-1,3.9130175E-3,-9.204979E-3],"categories":[],"categories_nodes":[],"categories_segments":[],"categories_sizes":[],"default_left":[0,0,1,0,0],"id":29,"left_children":[1,-1,3,-1,-1],"loss_changes":[1.5763336E1,0E0,9.102939E0,0E0,0E0],"parents":[2147483647,0,0,2,2],"right_children":[2,-1,4,-1,-1],"split_conditions":[2.9E1,1.08906105E-2,2.0796876E-1,3.9130175E-3,-9.204979E-3],"split_indices":[13,0,24,0,0],"split_type":[0,0,0,0,0],"sum_hessian":[4.4704704E1,9.937018E0,3.476769E1,8.17858E0,2.6589108E1],"tree_param":{"num_deleted":"0","num_feature":"31","num_nodes":"5","size_leaf_vector":"1"}},{"base_weights":[-0E0,7.6501286E-3,-5.3178155E-1,-0E0,-1.3476203E-2],"categories":[],"categories_nodes":[],"categories_segments":[],"categories_sizes":[],"default_left":[0,0,1,0,0],"id":30,"left_children":[1,-1,3,-1,-1],"loss_changes":[1.5118607E1,0E0,6.252951E0,0E0,0E0],"parents":[2147483647,0,0,2,2],"right_children":[2,-1,4,-1,-1],"split_conditions":[-5.9E0,7.6501286E-3,3.31976E-1,-0E0,-1.3476203E-2],"split_indices":[7,0,24,0,0],"split_type":[0,0,0,0,0],"sum_hessian":[4.2917526E1,1.9135113E1,2.3782413E1,1.4005924E1,9.776489E0],"tree_param":{"num_deleted":"0","num_feature":"31","num_nodes":"5","size_leaf_vector":"1"}},{"base_weights":[2.8286515E-2,2.766071E-1,-1.1440442E-2,-0E0,1.117965E-2,7.799522E-3,-3.6598744E-3],"categories":[],"categories_nodes":[],"categories_segments":[],"categories_sizes":[],"default_left":[1,0,0,0,0,0,0],"id":31,"left_children":[1,3,-1,5,-1,-1,-1],"loss_changes":[1.0564649E1,6.756733E0,0E0,5.7404585E0,0E0,0E0,0E0],"parents":[2147483647,0,0,1,1,3,3],"right_children":[2,4,-1,6,-1,-1,-1],"split_conditions":[1.52738905E1,1.65625E-1,-1.1440442E-2,3.1E1,1.117965E-2,7.799522E-3,-3.6598744E-3],"split_indices":[20,23,0,13,0,0,0],"split_type":[0,0,0,0,0,0,0],"sum_hessian":[4.5188053E1,3.8077076E1,7.1109753E0,2.766237E1,1.0414706E1,8.180833E0,1.9481537E1],"tree_param":{"num_deleted":"0","num_feature":"31","num_nodes":"7","size_leaf_vector":"1"}},{"base_weights":[-0E0,-5.524726E-3,5.470581E-1,1.39273815E-2,-2.6611772E-3],"categories":[],"categories_nodes":[],"categories_segments":[],"categories_sizes":[],"default_left":[0,0,1,0,0],"id":32,"left_children":[1,-1,3,-1,-1],"loss_changes":[1.1858431E1,0E0,1.0692108E1,0E0,0E0],"parents":[2147483647,0,0,2,2],"right_children":[2,-1,4,-1,-1],"split_conditions":[3.3E0,-5.524726E-3,8.474777E0,1.39273815E-2,-2.6611772E-3],"split_indices":[6,0,20,0,0],"split_type":[0,0,0,0,0],"sum_hessian":[4.591513E1,2.701387E1,1.8901258E1,1.1447859E1,7.4534006E0],"tree_param":{"num_deleted":"0","num_feature":"31","num_nodes":"5","size_leaf_vector":"1"}},{"base_weights":[-6.246246E-3,-6.3614476E-1,4.2598662E-1,-0E0,-1.2066115E-2,-4.3267044E-3,1.2293708E-2],"categories":[],"categories_nodes":[],"categories_segments":[],"categories_sizes":[],"default_left":[0,0,0,0,0,0,0],"id":33,"left_children":[1,3,5,-1,-1,-1,-1],"loss_changes":[1.1980184E1,5.254734E0,1.1857805E1,0E0,0E0,0E0,0E0],"parents":[2147483647,0,0,1,1,2,2],"right_children":[2,4,6,-1,-1,-1,-1],"split_conditions":[2.2E0,1.1125E2,6.3E1,-0E0,-1.2066115E-2,-4.3267044E-3,1.2293708E-2],"split_indices":[6,4,0,0,0,0,0],"split_type":[0,0,0,0,0,0,0],"sum_hessian":[3.8950592E1,1.6858824E1,2.2091768E1,4.8945327E0,1.1964292E1,8.432795E0,1.3658974E1],"tree_param":{"num_deleted":"0","num_feature":"31","num_nodes":"7","size_leaf_vector":"1"}},{"base_weights":[6.293744E-2,-4.348673E-3,6.224805E-1,1.5617123E-2,9.184401E-4],"categories":[],"categories_nodes":[],"categories_segments":[],"categories_sizes":[],"default_left":[0,0,0,0,0],"id":34,"left_children":[1,-1,3,-1,-1],"loss_changes":[1.0939904E1,0E0,5.0112276E0,0E0,0E0],"parents":[2147483647,0,0,2,2],"right_children":[2,-1,4,-1,-1],"split_conditions":[3.4E0,-4.348673E-3,3.1E1,1.5617123E-2,9.184401E-4],"split_indices":[6,0,13,0,0],"split_type":[0,0,0,0,0],"sum_hessian":[4.2172176E1,2.3266838E1,1.8905338E1,6.446842E0,1.2458496E1],"tree_param":{"num_deleted":"0","num_feature":"31","num_nodes":"5","size_leaf_vector":"1"}},{"base_weights":[-1.4633303E-2,5.811343E-1,-5.63883E-1,1.0790588E-2,-2.9377013E-3,3.897466E-4,-1.0266705E-2],"categories":[],"categories_nodes":[],"categories_segments":[],"categories_sizes":[],"default_left":[0,0,1,0,0,0,0],"id":35,"left_children":[1,3,5,-1,-1,-1,-1],"loss_changes":[1.4873817E1,5.9891567E0,4.9789677E0,0E0,0E0,0E0,0E0],"parents":[2147483647,0,0,1,1,2,2],"right_children":[2,4,6,-1,-1,-1,-1],"split_conditions":[-6E0,3.5E1,2.2196181E-1,1.0790588E-2,-2.9377013E-3,3.897466E-4,-1.0266705E-2],"split_indices":[7,12,24,0,0,0,0],"split_type":[0,0,0,0,0,0,0],"sum_hessian":[4.1603554E1,1.8617502E1,2.298605E1,1.5140262E1,3.4772413E0,5.662752E0,1.7323298E1],"tree_param":{"num_deleted":"0","num_feature":"31","num_nodes":"7","size_leaf_vector":"1"}},{"base_weights":[4.6056286E-2,-4.1910008E-1,8.896242E-1,-7.018597E-1,2.5681192E-3,1.5336656E-2,-0E0,-0E0,-1.23228E-2],"categories":[],"categories_nodes":[],"categories_segments":[],"categories_sizes":[],"default_left":[0,0,0,0,0,0,0,0,0],"id":36,"left_children":[1,3,5,7,-1,-1,-1,-1,-1],"loss_changes":[1.9763378E1,6.3633657E0,5.818509E0,5.154109E0,0E0,0E0,0E0,0E0,0E0],"parents":[2147483647,0,0,1,1,2,2,3,3],"right_children":[2,4,6,8,-1,-1,-1,-1,-1],"split_conditions":[3.7E0,7.1E1,3.5E1,-1.3192401E-4,2.5681192E-3,1.5336656E-2,-0E0,-0E0,-1.23228E-2],"split_indices":[6,0,12,15,0,0,0,0,0],"split_type":[0,0,0,0,0,0,0,0,0],"sum_hessian":[4.4775116E1,2.837358E1,1.6401533E1,2.0976225E1,7.3973556E0,1.1668147E1,4.733387E0,5.8695307E0,1.5106694E1],"tree_param":{"num_deleted":"0","num_feature":"31","num_nodes":"9","size_leaf_vector":"1"}},{"base_weights":[-5.867732E-2,3.8070464E-1,-8.938571E-3,-1.7843056E-3,9.324817E-3],"categories":[],"categories_nodes":[],"categories_segments":[],"categories_sizes":[],"default_left":[1,0,0,0,0],"id":37,"left_children":[1,3,-1,-1,-1],"loss_changes":[1.4072964E1,6.226964E0,0E0,0E0,0E0],"parents":[2147483647,0,0,1,1],"right_children":[2,4,-1,-1,-1],"split_conditions":[9.371155E0,5.9E1,-8.938571E-3,-1.7843056E-3,9.324817E-3],"split_indices":[20,0,0,0,0],"split_type":[0,0,0,0,0],"sum_hessian":[4.3497864E1,2.5154028E1,1.8343834E1,9.120903E0,1.6033125E1],"tree_param":{"num_deleted":"0","num_feature":"31","num_nodes":"5","size_leaf_vector":"1"}},{"base_weights":[-5.3043142E-2,-4.5189607E-1,6.6652442E-3,-9.014489E-3,1.2194121E-3],"categories":[],"categories_nodes":[],"categories_segments":[],"categories_sizes":[],"default_left":[0,0,0,0,0],"id":38,"left_children":[1,3,-1,-1,-1],"loss_changes":[1.0087775E1,5.0545335E0,0E0,0E0,0E0],"parents":[2147483647,0,0,1,1],"right_children":[2,4,-1,-1,-1],"split_conditions":[3.3E0,7.2E1,6.6652442E-3,-9.014489E-3,1.2194121E-3],"split_indices":[6,0,0,0,0],"split_type":[0,0,0,0,0],"sum_hessian":[3.9816566E1,2.5420313E1,1.4396254E1,1.8513935E1,6.9063787E0],"tree_param":{"num_deleted":"0","num_feature":"31","num_nodes":"5","size_leaf_vector":"1"}},{"base_weights":[1.9862367E-2,5.241661E-1,-3.9369413E-3,1.0522508E-2,-2.3243548E-3],"categories":[],"categories_nodes":[],"categories_segments":[],"categories_sizes":[],"default_left":[0,0,0,0,0],"id":39,"left_children":[1,3,-1,-1,-1],"loss_changes":[7.5270405E0,5.4574633E0,0E0,0E0,0E0],"parents":[2147483647,0,0,1,1],"right_children":[2,4,-1,-1,-1],"split_conditions":[-6.3E0,3.5E1,-3.9369413E-3,1.0522508E-2,-2.3243548E-3],"split_indices":[7,12,0,0,0],"split_type":[0,0,0,0,0],"sum_hessian":[3.9027878E1,1.684545E1,2.2182428E1,1.2863916E1,3.9815328E0],"tree_param":{"num_deleted":"0","num_feature":"31","num_nodes":"5","size_leaf_vector":"1"}},{"base_weights":[-0E0,-2.7977288E-1,8.819058E-3,-7.989015E-3,6.912826E-2,9.788291E-3,-3.0871348E-3],"categories":[],"categories_nodes":[],"categories_segments":[],"categories_sizes":[],"default_left":[0,0,0,0,0,0,0],"id":40,"left_children":[1,3,-1,-1,5,-1,-1],"loss_changes":[9.868975E0,5.1978397E0,0E0,0E0,4.9819245E0,0E0,0E0],"parents":[2147483647,0,0,1,1,4,4],"right_children":[2,4,-1,-1,6,-1,-1],"split_conditions":[7.2E1,1.26E1,8.819058E-3,-7.989015E-3,1.5E1,9.788291E-3,-3.0871348E-3],"split_indices":[0,8,0,0,8,0,0],"split_type":[0,0,0,0,0,0,0],"sum_hessian":[4.497778E1,3.2399063E1,1.2578714E1,1.7303795E1,1.509527E1,5.18108E0,9.91419E0],"tree_param":{"num_deleted":"0","num_feature":"31","num_nodes":"7","size_leaf_vector":"1"}},{"base_weights":[3.951631E-2,9.250037E-3,-1.4625566E-1,-4.5502457E-1,6.4369184E-3,5.23164E-3,-9.210746E-3],"categories":[],"categories_nodes":[],"categories_segments":[],"categories_sizes":[],"default_left":[0,0,0,0,0,0,0],"id":41,"left_children":[1,-1,3,5,-1,-1,-1],"loss_changes":[6.8479033E0,0E0,7.520893E0,7.5033917E0,0E0,0E0,0E0],"parents":[2147483647,0,0,2,2,3,3],"right_children":[2,-1,4,6,-1,-1,-1],"split_conditions":[-2.417537E-4,9.250037E-3,7.2E1,5.759234E0,6.4369184E-3,5.23164E-3,-9.210746E-3],"split_indices":[15,0,0,20,0,0,0],"split_type":[0,0,0,0,0,0,0],"sum_hessian":[4.2549583E1,9.389712E0,3.315987E1,2.4514822E1,8.645049E0,4.4268346E0,2.0087988E1],"tree_param":{"num_deleted":"0","num_feature":"31","num_nodes":"7","size_leaf_vector":"1"}},{"base_weights":[-8.032578E-2,-5.3730262E-3,5.0083303E-1,1.2856874E-2,-0E0],"categories":[],"categories_nodes":[],"categories_segments":[],"categories_sizes":[],"default_left":[0,0,0,0,0],"id":42,"left_children":[1,-1,3,-1,-1],"loss_changes":[1.0174236E1,0E0,5.943828E0,0E0,0E0],"parents":[2147483647,0,0,2,2],"right_children":[2,-1,4,-1,-1],"split_conditions":[3.4E0,-5.3730262E-3,3.3E1,1.2856874E-2,-0E0],"split_indices":[6,0,13,0,0],"split_type":[0,0,0,0,0],"sum_hessian":[4.6825363E1,3.120193E1,1.5623432E1,7.9056463E0,7.7177854E0],"tree_param":{"num_deleted":"0","num_feature":"31","num_nodes":"5","size_leaf_vector":"1"}},{"base_weights":[-0E0,1.3171666E-2,-2.3850763E-1,1.2120589E-1,-8.770218E-3,-1.8673475E-3,1.1116101E-2],"categories":[],"categories_nodes":[],"categories_segments":[],"categories_sizes":[],"default_left":[0,0,1,1,0,0,0],"id":43,"left_children":[1,-1,3,5,-1,-1,-1],"loss_changes":[1.2695963E1,0E0,7.2175684E0,5.6571965E0,0E0,0E0,0E0],"parents":[2147483647,0,0,2,2,3,3],"right_children":[2,-1,4,6,-1,-1,-1],"split_conditions":[2.5E1,1.3171666E-2,5.481349E-5,1.4290065E-1,-8.770218E-3,-1.8673475E-3,1.1116101E-2],"split_indices":[13,0,15,23,0,0,0],"split_type":[0,0,0,0,0,0,0],"sum_hessian":[4.312778E1,7.6302257E0,3.5497555E1,1.894284E1,1.6554714E1,1.3745232E1,5.1976085E0],"tree_param":{"num_deleted":"0","num_feature":"31","num_nodes":"7","size_leaf_vector":"1"}},{"base_weights":[-9.458056E-2,-3.618971E-1,5.544787E-3,8.0472627E-4,-9.286718E-3],"categories":[],"categories_nodes":[],"categories_segments":[],"categories_sizes":[],"default_left":[0,0,0,0,0],"id":44,"left_children":[1,3,-1,-1,-1],"loss_changes":[6.982705E0,6.642547E0,0E0,0E0,0E0],"parents":[2147483647,0,0,1,1],"right_children":[2,4,-1,-1,-1],"split_conditions":[7.2E1,3.3E1,5.544787E-3,8.0472627E-4,-9.286718E-3],"split_indices":[0,12,0,0,0],"split_type":[0,0,0,0,0],"sum_hessian":[4.536974E1,3.2535076E1,1.2834661E1,1.4233368E1,1.8301708E1],"tree_param":{"num_deleted":"0","num_feature":"31","num_nodes":"5","size_leaf_vector":"1"}},{"base_weights":[-1.828069E-2,-5.0687367E-1,8.919371E-3,-8.997389E-3,1.507594E-3],"categories":[],"categories_nodes":[],"categories_segments":[],"categories_sizes":[],"default_left":[0,0,0,0,0],"id":45,"left_children":[1,3,-1,-1,-1],"loss_changes":[1.784813E1,5.2166185E0,0E0,0E0,0E0],"parents":[2147483647,0,0,1,1],"right_children":[2,4,-1,-1,-1],"split_conditions":[1.3E1,7.2E1,8.919371E-3,-8.997389E-3,1.507594E-3],"split_indices":[9,0,0,0,0],"split_type":[0,0,0,0,0],"sum_hessian":[4.700815E1,2.9709623E1,1.7298523E1,2.3802448E1,5.9071755E0],"tree_param":{"num_deleted":"0","num_feature":"31","num_nodes":"5","size_leaf_vector":"1"}},{"base_weights":[-0E0,1.0950134E-2,-3.5516631E-3],"categories":[],"categories_nodes":[],"categories_segments":[],"categories_sizes":[],"default_left":[0,0,0],"id":46,"left_children":[1,-1,-1],"loss_changes":[1.14431715E1,0E0,0E0],"parents":[2147483647,0,0],"right_children":[2,-1,-1],"split_conditions":[2.9E1,1.0950134E-2,-3.5516631E-3],"split_indices":[13,0,0],"split_type":[0,0,0],"sum_hessian":[4.5052E1,9.080437E0,3.597156E1],"tree_param":{"num_deleted":"0","num_feature":"31","num_nodes":"3","size_leaf_vector":"1"}},{"base_weights":[-0E0,1.205138E-2,-3.2492736E-1,2.615332E-3,-5.350205E-1,-1.0122543E-2,2.101683E-3],"categories":[],"categories_nodes":[],"categories_segments":[],"categories_sizes":[],"default_left":[0,0,0,0,0,0,0],"id":47,"left_children":[1,-1,3,-1,5,-1,-1],"loss_changes":[1.4276496E1,0E0,4.8144064E0,0E0,6.712105E0,0E0,0E0],"parents":[2147483647,0,0,2,2,4,4],"right_children":[2,-1,4,-1,6,-1,-1],"split_conditions":[2.5E1,1.205138E-2,1.01882355E2,2.615332E-3,1.4E1,-1.0122543E-2,2.101683E-3],"split_indices":[13,0,4,0,9,0,0],"split_type":[0,0,0,0,0,0,0],"sum_hessian":[4.4081978E1,9.31636E0,3.4765617E1,7.851278E0,2.691434E1,2.0712616E1,6.2017226E0],"tree_param":{"num_deleted":"0","num_feature":"31","num_nodes":"7","size_leaf_vector":"1"}},{"base_weights":[-3.3549517E-2,9.999405E-3,-5.2322567E-1,4.769213E-4,-9.950765E-3],"categories":[],"categories_nodes":[],"categories_segments":[],"categories_sizes":[],"default_left":[0,0,1,0,0],"id":48,"left_children":[1,-1,3,-1,-1],"loss_changes":[1.8813263E1,0E0,5.8238163E0,0E0,0E0],"parents":[2147483647,0,0,2,2],"right_children":[2,-1,4,-1,-1],"split_conditions":[3.1E1,9.999405E-3,2.3291706E-1,4.769213E-4,-9.950765E-3],"split_indices":[13,0,24,0,0],"split_type":[0,0,0,0,0],"sum_hessian":[4.328946E1,1.4489092E1,2.880037E1,8.1222725E0,2.0678097E1],"tree_param":{"num_deleted":"0","num_feature":"31","num_nodes":"5","size_leaf_vector":"1"}},{"base_weights":[-0E0,-3.5361588E-1,5.503201E-1,-9.792461E-3,8.446967E-5,1.4141397E-2,-0E0],"categories":[],"categories_nodes":[],"categories_segments":[],"categories_sizes":[],"default_left":[0,0,0,0,0,0,0],"id":49,"left_children":[1,3,5,-1,-1,-1,-1],"loss_changes":[9.495438E0,5.479162E0,7.4120326E0,0E0,0E0,0E0,0E0],"parents":[2147483647,0,0,1,1,2,2],"right_children":[2,4,6,-1,-1,-1,-1],"split_conditions":[3.3E0,7.180062E-1,3.3E1,-9.792461E-3,8.446967E-5,1.4141397E-2,-0E0],"split_indices":[6,18,12,0,0,0,0],"split_type":[0,0,0,0,0,0,0],"sum_hessian":[4.397039E1,2.6213438E1,1.7756952E1,1.2825219E1,1.3388218E1,8.580468E0,9.176484E0],"tree_param":{"num_deleted":"0","num_feature":"31","num_nodes":"7","size_leaf_vector":"1"}},{"base_weights":[8.216265E-2,-6.143085E-3,4.7661558E-1,1.33349905E-2,-0E0],"categories":[],"categories_nodes":[],"categories_segments":[],"categories_sizes":[],"default_left":[0,0,0,0,0],"id":50,"left_children":[1,-1,3,-1,-1],"loss_changes":[1.07424345E1,0E0,7.115966E0,0E0,0E0],"parents":[2147483647,0,0,2,2],"right_children":[2,-1,4,-1,-1],"split_conditions":[2.1E0,-6.143085E-3,3.1E1,1.33349905E-2,-0E0],"split_indices":[6,0,13,0,0],"split_type":[0,0,0,0,0],"sum_hessian":[4.373439E1,1.6141773E1,2.7592617E1,1.0288981E1,1.7303635E1],"tree_param":{"num_deleted":"0","num_feature":"31","num_nodes":"5","size_leaf_vector":"1"}},{"base_weights":[-0E0,6.314815E-3,-4.282087E-1,-9.376556E-3,2.554456E-3],"categories":[],"categories_nodes":[],"categories_segments":[],"categories_sizes":[],"default_left":[0,0,0,0,0],"id":51,"left_children":[1,-1,3,-1,-1],"loss_changes":[1.0630607E1,0E0,6.1042147E0,0E0,0E0],"parents":[2147483647,0,0,2,2],"right_children":[2,-1,4,-1,-1],"split_conditions":[1.89E2,6.314815E-3,7.2E1,-9.376556E-3,2.554456E-3],"split_indices":[4,0,0,0,0],"split_type":[0,0,0,0,0],"sum_hessian":[4.492056E1,2.2029793E1,2.2890768E1,1.6521563E1,6.3692045E0],"tree_param":{"num_deleted":"0","num_feature":"31","num_nodes":"5","size_leaf_vector":"1"}},{"base_weights":[1.7054422E-2,9.025991E-3,-2.7507627E-1,-9.091697E-3,2.0018978E-1,-4.7570607E-3,8.549158E-3],"categories":[],"categories_nodes":[],"categories_segments":[],"categories_sizes":[],"default_left":[1,0,0,0,0,0,0],"id":52,"left_children":[1,-1,3,-1,5,-1,-1],"loss_changes":[1.05976925E1,0E0,8.068757E0,0E0,5.382414E0,0E0,0E0],"parents":[2147483647,0,0,2,2,4,4],"right_children":[2,-1,4,-1,6,-1,-1],"split_conditions":[2.3291706E-1,9.025991E-3,6.5E1,-9.091697E-3,9.3E0,-4.7570607E-3,8.549158E-3],"split_indices":[24,0,0,0,8,0,0],"split_type":[0,0,0,0,0,0,0],"sum_hessian":[4.4630627E1,1.3750222E1,3.0880404E1,1.6935877E1,1.3944526E1,5.127526E0,8.816999E0],"tree_param":{"num_deleted":"0","num_feature":"31","num_nodes":"7","size_leaf_vector":"1"}},{"base_weights":[5.6187414E-2,-3.274032E-3,5.6982E-1,1.2227704E-2,-5.0603267E-4],"categories":[],"categories_nodes":[],"categories_segments":[],"categories_sizes":[],"default_left":[0,0,1,0,0],"id":53,"left_children":[1,-1,3,-1,-1],"loss_changes":[8.242246E0,0E0,6.3747683E0,0E0,0E0],"parents":[2147483647,0,0,2,2],"right_children":[2,-1,4,-1,-1],"split_conditions":[3.2E0,-3.274032E-3,8.201541E0,1.2227704E-2,-5.0603267E-4],"split_indices":[6,0,20,0,0],"split_type":[0,0,0,0,0],"sum_hessian":[4.4069614E1,2.607631E1,1.7993307E1,1.1566291E1,6.427016E0],"tree_param":{"num_deleted":"0","num_feature":"31","num_nodes":"5","size_leaf_vector":"1"}},{"base_weights":[-2.3246385E-2,-3.201368E-1,4.5008308E-1,-7.17817E-3,2.773619E-3,1.1280663E-2,-5.011115E-3],"categories":[],"categories_nodes":[],"categories_segments":[],"categories_sizes":[],"default_left":[0,1,0,0,0,0,0],"id":54,"left_children":[1,3,5,-1,-1,-1,-1],"loss_changes":[6.766082E0,5.157235E0,7.9991064E0,0E0,0E0,0E0,0E0],"parents":[2147483647,0,0,1,1,2,2],"right_children":[2,4,6,-1,-1,-1,-1],"split_conditions":[3.6E0,1.4290065E-1,3.5E1,-7.17817E-3,2.773619E-3,1.1280663E-2,-5.011115E-3],"split_indices":[6,23,12,0,0,0,0],"split_type":[0,0,0,0,0,0,0],"sum_hessian":[4.5532673E1,3.0281527E1,1.5251146E1,2.2444681E1,7.836845E0,1.10376E1,4.213546E0],"tree_param":{"num_deleted":"0","num_feature":"31","num_nodes":"7","size_leaf_vector":"1"}},{"base_weights":[1.553014E-3,8.900285E-3,-3.0310124E-1,-6.560177E-1,3.1491802E-3,3.6089477E-4,-1.3275139E-2],"categories":[],"categories_nodes":[],"categories_segments":[],"categories_sizes":[],"default_left":[1,0,0,0,0,0,0],"id":55,"left_children":[1,-1,3,5,-1,-1,-1],"loss_changes":[1.1332484E1,0E0,7.442626E0,7.7745657E0,0E0,0E0,0E0],"parents":[2147483647,0,0,2,2,3,3],"right_children":[2,-1,4,6,-1,-1,-1],"split_conditions":[2.34375E-1,8.900285E-3,1.3E1,-6E0,3.1491802E-3,3.6089477E-4,-1.3275139E-2],"split_indices":[24,0,9,7,0,0,0],"split_type":[0,0,0,0,0,0,0],"sum_hessian":[4.5881275E1,1.4477884E1,3.140339E1,2.05842E1,1.0819192E1,6.9300966E0,1.3654103E1],"tree_param":{"num_deleted":"0","num_feature":"31","num_nodes":"7","size_leaf_vector":"1"}},{"base_weights":[5.052146E-2,4.8495814E-1,-3.17042E-1,-3.9275256E-3,9.748761E-3,-8.541713E-3,2.4309112E-3],"categories":[],"categories_nodes":[],"categories_segments":[],"categories_sizes":[],"default_left":[0,0,1,0,0,0,0],"id":56,"left_children":[1,3,5,-1,-1,-1,-1],"loss_changes":[8.208441E0,6.884528E0,5.678664E0,0E0,0E0,0E0,0E0],"parents":[2147483647,0,0,1,1,2,2],"right_children":[2,4,6,-1,-1,-1,-1],"split_conditions":[-6E0,4.6E1,-7.251255E-1,-3.9275256E-3,9.748761E-3,-8.541713E-3,2.4309112E-3],"split_indices":[7,0,17,0,0,0,0],"split_type":[0,0,0,0,0,0,0],"sum_hessian":[4.60053E1,2.2631218E1,2.3374079E1,4.6718607E0,1.7959356E1,1.4956109E1,8.417971E0],"tree_param":{"num_deleted":"0","num_feature":"31","num_nodes":"7","size_leaf_vector":"1"}},{"base_weights":[9.28819E-2,-2.1620242E-1,7.585615E-1,1.8340982E-3,-8.71977E-3,1.369065E-2,-0E0],"categories":[],"categories_nodes":[],"categories_segments":[],"categories_sizes":[],"default_left":[0,0,0,0,0,0,0],"id":57,"left_children":[1,3,5,-1,-1,-1,-1],"loss_changes":[1.0342468E1,6.3171415E0,4.9759474E0,0E0,0E0,0E0,0E0],"parents":[2147483647,0,0,1,1,2,2],"right_children":[2,4,6,-1,-1,-1,-1],"split_conditions":[7.1E1,2.1933333E2,3.4E1,1.8340982E-3,-8.71977E-3,1.369065E-2,-0E0],"split_indices":[0,4,13,0,0,0,0],"split_type":[0,0,0,0,0,0,0],"sum_hessian":[4.286257E1,2.866763E1,1.4194942E1,1.5341459E1,1.3326171E1,1.0033445E1,4.161497E0],"tree_param":{"num_deleted":"0","num_feature":"31","num_nodes":"7","size_leaf_vector":"1"}},{"base_weights":[1.1110572E-1,6.2132156E-1,-3.3582237E-1,1.1978645E-2,-0E0,-9.477734E-3,1.0181711E-3],"categories":[],"categories_nodes":[],"categories_segments":[],"categories_sizes":[],"default_left":[0,0,0,0,0,0,0],"id":58,"left_children":[1,3,5,-1,-1,-1,-1],"loss_changes":[1.1486807E1,4.962763E0,5.4212246E0,0E0,0E0,0E0,0E0],"parents":[2147483647,0,0,1,1,2,2],"right_children":[2,4,6,-1,-1,-1,-1],"split_conditions":[-5.9E0,3.3E1,7.5233644E-1,1.1978645E-2,-0E0,-9.477734E-3,1.0181711E-3],"split_indices":[7,13,18,0,0,0,0],"split_type":[0,0,0,0,0,0,0],"sum_hessian":[4.47739E1,2.2085718E1,2.268818E1,1.3677993E1,8.407724E0,1.2277079E1,1.0411102E1],"tree_param":{"num_deleted":"0","num_feature":"31","num_nodes":"7","size_leaf_vector":"1"}},{"base_weights":[2.1384114E-1,4.8933944E-1,-2.6105416E-1,-4.754874E-3,9.630034E-3,-7.8147305E-3,5.918221E-3],"categories":[],"categories_nodes":[],"categories_segments":[],"categories_sizes":[],"default_left":[0,0,0,0,0,0,0],"id":59,"left_children":[1,3,5,-1,-1,-1,-1],"loss_changes":[6.6361685E0,8.840389E0,5.11513E0,0E0,0E0,0E0,0E0],"parents":[2147483647,0,0,1,1,2,2],"right_children":[2,4,6,-1,-1,-1,-1],"split_conditions":[3.5E1,4.4E1,4.3945312E-1,-4.754874E-3,9.630034E-3,-7.8147305E-3,5.918221E-3],"split_indices":[12,0,24,0,0,0,0],"split_type":[0,0,0,0,0,0,0],"sum_hessian":[4.427694E1,2.9943424E1,1.4333514E1,5.8049946E0,2.413843E1,1.1138313E1,3.195201E0],"tree_param":{"num_deleted":"0","num_feature":"31","num_nodes":"7","size_leaf_vector":"1"}},{"base_weights":[-4.2756744E-2,-7.1344087E-3,3.5428706E-1,1.260604E-2,-3.0217662E-1,-9.20747E-3,4.364157E-3],"categories":[],"categories_nodes":[],"categories_segments":[],"categories_sizes":[],"default_left":[0,0,0,0,0,0,0],"id":60,"left_children":[1,-1,3,-1,5,-1,-1],"loss_changes":[1.1120736E1,0E0,1.3591107E1,0E0,5.0860896E0,0E0,0E0],"parents":[2147483647,0,0,2,2,4,4],"right_children":[2,-1,4,-1,6,-1,-1],"split_conditions":[2.5E0,-7.1344087E-3,3.3E1,1.260604E-2,1.6140874E-1,-9.20747E-3,4.364157E-3],"split_indices":[6,0,12,0,23,0,0],"split_type":[0,0,0,0,0,0,0],"sum_hessian":[4.791648E1,2.1847887E1,2.6068596E1,1.37009735E1,1.2367622E1,8.641442E0,3.7261803E0],"tree_param":{"num_deleted":"0","num_feature":"31","num_nodes":"7","size_leaf_vector":"1"}},{"base_weights":[8.261068E-2,1.0256146E-2,-1.09318465E-1,4.566393E-3,-4.7696806E-3],"categories":[],"categories_nodes":[],"categories_segments":[],"categories_sizes":[],"default_left":[0,0,1,0,0],"id":61,"left_children":[1,-1,3,-1,-1],"loss_changes":[7.5471225E0,0E0,4.873575E0,0E0,0E0],"parents":[2147483647,0,0,2,2],"right_children":[2,-1,4,-1,-1],"split_conditions":[2.8E1,1.0256146E-2,2.2899306E-1,4.566393E-3,-4.7696806E-3],"split_indices":[13,0,24,0,0],"split_type":[0,0,0,0,0],"sum_hessian":[4.2942562E1,9.159051E0,3.3783512E1,1.007157E1,2.371194E1],"tree_param":{"num_deleted":"0","num_feature":"31","num_nodes":"5","size_leaf_vector":"1"}},{"base_weights":[-0E0,-8.00816E-3,5.1994026E-1,1.0755865E-2,-7.331139E-4],"categories":[],"categories_nodes":[],"categories_segments":[],"categories_sizes":[],"default_left":[0,0,1,0,0],"id":62,"left_children":[1,-1,3,-1,-1],"loss_changes":[1.5798208E1,0E0,6.47951E0,0E0,0E0],"parents":[2147483647,0,0,2,2],"right_children":[2,-1,4,-1,-1],"split_conditions":[2.3E0,-8.00816E-3,8.8622055E0,1.0755865E-2,-7.331139E-4],"split_indices":[6,0,20,0,0],"split_type":[0,0,0,0,0],"sum_hessian":[4.385517E1,1.9105286E1,2.4749887E1,1.6646818E1,8.103069E0],"tree_param":{"num_deleted":"0","num_feature":"31","num_nodes":"5","size_leaf_vector":"1"}},{"base_weights":[-1.1562928E-1,6.5987757E-3,-4.5061785E-1,3.564719E-3,-9.010152E-3],"categories":[],"categories_nodes":[],"categories_segments":[],"categories_sizes":[],"default_left":[0,0,1,0,0],"id":63,"left_children":[1,-1,3,-1,-1],"loss_changes":[1.0421774E1,0E0,7.5847807E0,0E0,0E0],"parents":[2147483647,0,0,2,2],"right_children":[2,-1,4,-1,-1],"split_conditions":[-9.4E0,6.5987757E-3,1.7229167E-1,3.564719E-3,-9.010152E-3],"split_indices":[7,0,24,0,0],"split_type":[0,0,0,0,0],"sum_hessian":[4.4893337E1,1.3512863E1,3.1380472E1,6.869978E0,2.4510496E1],"tree_param":{"num_deleted":"0","num_feature":"31","num_nodes":"5","size_leaf_vector":"1"}},{"base_weights":[-6.822142E-2,6.8195364E-3,-2.6244563E-1,3.6475435E-3,-6.96198E-3],"categories":[],"categories_nodes":[],"categories_segments":[],"categories_sizes":[],"default_left":[0,0,1,0,0],"id":64,"left_children":[1,-1,3,-1,-1],"loss_changes":[5.333362E0,0E0,6.859361E0,0E0,0E0],"parents":[2147483647,0,0,2,2],"right_children":[2,-1,4,-1,-1],"split_conditions":[2.5E1,6.8195364E-3,-4.8719146E-4,3.6475435E-3,-6.96198E-3],"split_indices":[13,0,15,0,0],"split_type":[0,0,0,0,0],"sum_hessian":[4.406023E1,7.944462E0,3.611577E1,1.0749975E1,2.5365791E1],"tree_param":{"num_deleted":"0","num_feature":"31","num_nodes":"5","size_leaf_vector":"1"}},{"base_weights":[-0E0,9.776534E-3,-2.5871336E-1,-5.311577E-3,6.6262125E-3],"categories":[],"categories_nodes":[],"categories_segments":[],"categories_sizes":[],"default_left":[0,0,1,0,0],"id":65,"left_children":[1,-1,3,-1,-1],"loss_changes":[9.239545E0,0E0,4.8272533E0,0E0,0E0],"parents":[2147483647,0,0,2,2],"right_children":[2,-1,4,-1,-1],"split_conditions":[2.9E1,9.776534E-3,2.5875255E-1,-5.311577E-3,6.6262125E-3],"split_indices":[13,0,16,0,0],"split_type":[0,0,0,0,0],"sum_hessian":[4.2538944E1,9.392284E0,3.314666E1,2.9710936E1,3.4357243E0],"tree_param":{"num_deleted":"0","num_feature":"31","num_nodes":"5","size_leaf_vector":"1"}},{"base_weights":[2.55141E-2,-3.0874953E-1,6.850255E-1,3.2107914E-3,-8.05482E-3,-8.525112E-4,1.2887642E-2],"categories":[],"categories_nodes":[],"categories_segments":[],"categories_sizes":[],"default_left":[0,0,0,0,0,0,0],"id":66,"left_children":[1,3,5,-1,-1,-1,-1],"loss_changes":[1.10132475E1,6.551012E0,6.0290833E0,0E0,0E0,0E0,0E0],"parents":[2147483647,0,0,1,1,2,2],"right_children":[2,4,6,-1,-1,-1,-1],"split_conditions":[3.4E0,-1.2821889E-4,5.2E1,3.2107914E-3,-8.05482E-3,-8.525112E-4,1.2887642E-2],"split_indices":[6,15,0,0,0,0,0],"split_type":[0,0,0,0,0,0,0],"sum_hessian":[4.3601566E1,2.8148628E1,1.5452936E1,8.97361E0,1.9175018E1,3.9720268E0,1.1480909E1],"tree_param":{"num_deleted":"0","num_feature":"31","num_nodes":"7","size_leaf_vector":"1"}},{"base_weights":[1.3639897E-1,-1.6665775E-3,6.279834E-1,1.2128762E-2,-0E0],"categories":[],"categories_nodes":[],"categories_segments":[],"categories_sizes":[],"default_left":[0,0,0,0,0],"id":67,"left_children":[1,-1,3,-1,-1],"loss_changes":[6.906642E0,0E0,5.0466967E0,0E0,0E0],"parents":[2147483647,0,0,2,2],"right_children":[2,-1,4,-1,-1],"split_conditions":[3.4E0,-1.6665775E-3,3.5E1,1.2128762E-2,-0E0],"split_indices":[6,0,12,0,0],"split_type":[0,0,0,0,0],"sum_hessian":[4.349052E1,2.7094679E1,1.6395842E1,1.1194549E1,5.2012944E0],"tree_param":{"num_deleted":"0","num_feature":"31","num_nodes":"5","size_leaf_vector":"1"}},{"base_weights":[-0E0,5.591763E-3,-4.4600754E-3],"categories":[],"categories_nodes":[],"categories_segments":[],"categories_sizes":[],"default_left":[0,0,0],"id":68,"left_children":[1,-1,-1],"loss_changes":[7.3389473E0,0E0,0E0],"parents":[2147483647,0,0],"right_children":[2,-1,-1],"split_conditions":[-5.9E0,5.591763E-3,-4.4600754E-3],"split_indices":[7,0,0],"split_type":[0,0,0],"sum_hessian":[4.2474598E1,1.8529366E1,2.3945232E1],"tree_param":{"num_deleted":"0","num_feature":"31","num_nodes":"3","size_leaf_vector":"1"}},{"base_weights":[-7.408683E-2,6.9389117E-1,-5.2252086E-3,-4.793691E-4,1.5853694E-2],"categories":[],"categories_nodes":[],"categories_segments":[],"categories_sizes":[],"default_left":[1,1,0,0,0],"id":69,"left_children":[1,3,-1,-1,-1],"loss_changes":[1.2497668E1,7.6818147E0,0E0,0E0,0E0],"parents":[2147483647,0,0,1,1],"right_children":[2,4,-1,-1,-1],"split_conditions":[2.2899306E-1,8.1553116E1,-5.2252086E-3,-4.793691E-4,1.5853694E-2],"split_indices":[24,25,0,0,0],"split_type":[0,0,0,0,0],"sum_hessian":[4.4985E1,1.1920346E1,3.3064655E1,4.8850513E0,7.035295E0],"tree_param":{"num_deleted":"0","num_feature":"31","num_nodes":"5","size_leaf_vector":"1"}},{"base_weights":[-8.097396E-2,-5.147312E-3,3.496429E-1,1.17560895E-2,-2.498809E-3],"categories":[],"categories_nodes":[],"categories_segments":[],"categories_sizes":[],"default_left":[0,0,0,0,0],"id":70,"left_children":[1,-1,3,-1,-1],"loss_changes":[6.38058E0,0E0,7.085986E0,0E0,0E0],"parents":[2147483647,0,0,2,2],"right_children":[2,-1,4,-1,-1],"split_conditions":[3.3E0,-5.147312E-3,3.3E1,1.17560895E-2,-2.498809E-3],"split_indices":[6,0,12,0,0],"split_type":[0,0,0,0,0],"sum_hessian":[4.0443176E1,2.4911573E1,1.5531601E1,8.128667E0,7.402934E0],"tree_param":{"num_deleted":"0","num_feature":"31","num_nodes":"5","size_leaf_vector":"1"}},{"base_weights":[-0E0,-4.197767E-1,8.581083E-3,-9.284716E-3,4.359686E-3],"categories":[],"categories_nodes":[],"categories_segments":[],"categories_sizes":[],"default_left":[0,1,0,0,0],"id":71,"left_children":[1,3,-1,-1,-1],"loss_changes":[1.4739315E1,8.443279E0,0E0,0E0,0E0],"parents":[2147483647,0,0,1,1],"right_children":[2,4,-1,-1,-1],"split_conditions":[3.7E0,1.4290065E-1,8.581083E-3,-9.284716E-3,4.359686E-3],"split_indices":[6,23,0,0,0],"split_type":[0,0,0,0,0],"sum_hessian":[4.629242E1,2.8028877E1,1.8263544E1,2.1181355E1,6.8475223E0],"tree_param":{"num_deleted":"0","num_feature":"31","num_nodes":"5","size_leaf_vector":"1"}},{"base_weights":[5.270669E-3,-3.5889358E-3,5.3841573E-1,1.1159392E-2,-2.2776856E-3],"categories":[],"categories_nodes":[],"categories_segments":[],"categories_sizes":[],"default_left":[0,0,1,0,0],"id":72,"left_children":[1,-1,3,-1,-1],"loss_changes":[7.823147E0,0E0,6.086751E0,0E0,0E0],"parents":[2147483647,0,0,2,2],"right_children":[2,-1,4,-1,-1],"split_conditions":[3.4E0,-3.5889358E-3,9.371155E0,1.1159392E-2,-2.2776856E-3],"split_indices":[6,0,20,0,0],"split_type":[0,0,0,0,0],"sum_hessian":[4.4086582E1,2.731687E1,1.6769714E1,1.2339935E1,4.4297786E0],"tree_param":{"num_deleted":"0","num_feature":"31","num_nodes":"5","size_leaf_vector":"1"}},{"base_weights":[-0E0,-2.3025829E-1,7.188985E-3,-5.057536E-1,4.0598456E-3,-1.1677823E-2,-0E0],"categories":[],"categories_nodes":[],"categories_segments":[],"categories_sizes":[],"default_left":[0,0,0,1,0,0,0],"id":73,"left_children":[1,3,-1,5,-1,-1,-1],"loss_changes":[6.752535E0,5.8083677E0,0E0,5.7439504E0,0E0,0E0,0E0],"parents":[2147483647,0,0,1,1,3,3],"right_children":[2,4,-1,6,-1,-1,-1],"split_conditions":[5.1E0,7.2E1,7.188985E-3,7.077903E-1,4.0598456E-3,-1.1677823E-2,-0E0],"split_indices":[6,0,0,18,0,0,0],"split_type":[0,0,0,0,0,0,0],"sum_hessian":[4.5341076E1,3.2250473E1,1.3090606E1,2.3422989E1,8.827484E0,1.2173278E1,1.124971E1],"tree_param":{"num_deleted":"0","num_feature":"31","num_nodes":"7","size_leaf_vector":"1"}},{"base_weights":[-0E0,8.1699025E-3,-3.6083707E-1,6.2233433E-3,-7.34625E-3],"categories":[],"categories_nodes":[],"categories_segments":[],"categories_sizes":[],"default_left":[1,0,0,0,0],"id":74,"left_children":[1,-1,3,-1,-1],"loss_changes":[1.0825381E1,0E0,6.360194E0,0E0,0E0],"parents":[2147483647,0,0,2,2],"right_children":[2,-1,4,-1,-1],"split_conditions":[2.3291706E-1,8.1699025E-3,2.8E1,6.2233433E-3,-7.34625E-3],"split_indices":[24,0,12,0,0],"split_type":[0,0,0,0,0],"sum_hessian":[4.2008785E1,1.4543156E1,2.7465628E1,3.849368E0,2.361626E1],"tree_param":{"num_deleted":"0","num_feature":"31","num_nodes":"5","size_leaf_vector":"1"}},{"base_weights":[-0E0],"categories":[],"categories_nodes":[],"categories_segments":[],"categories_sizes":[],"default_left":[0],"id":75,"left_children":[-1],"loss_changes":[0E0],"parents":[2147483647],"right_children":[-1],"split_conditions":[-0E0],"split_indices":[0],"split_type":[0],"sum_hessian":[3.9448505E1],"tree_param":{"num_deleted":"0","num_feature":"31","num_nodes":"1","size_leaf_vector":"1"}},{"base_weights":[-3.8139315E-3,-2.629347E-1,6.2891557E-3,6.7521096E-3,-4.8008612E-1,-9.386865E-3,1.4283114E-4],"categories":[],"categories_nodes":[],"categories_segments":[],"categories_sizes":[],"default_left":[0,0,0,0,1,0,0],"id":76,"left_children":[1,3,-1,-1,5,-1,-1],"loss_changes":[6.0018744E0,6.3336E0,0E0,0E0,4.9462337E0,0E0,0E0],"parents":[2147483647,0,0,1,1,4,4],"right_children":[2,4,-1,-1,6,-1,-1],"split_conditions":[7.2E1,2.9E1,6.2891557E-3,6.7521096E-3,8.512691E-1,-9.386865E-3,1.4283114E-4],"split_indices":[0,12,0,0,18,0,0],"split_type":[0,0,0,0,0,0,0],"sum_hessian":[4.461356E1,3.2029297E1,1.2584261E1,4.7686296E0,2.7260668E1,1.8919756E1,8.340913E0],"tree_param":{"num_deleted":"0","num_feature":"31","num_nodes":"7","size_leaf_vector":"1"}},{"base_weights":[-1.2479953E-1,2.9153994E-1,-5.49511E-1,-0E0,1.059976E-2,-0E0,-1.1518831E-2],"categories":[],"categories_nodes":[],"categories_segments":[],"categories_sizes":[],"default_left":[0,0,0,0,0,0,0],"id":77,"left_children":[1,3,5,-1,-1,-1,-1],"loss_changes":[9.02189E0,4.892998E0,6.3491135E0,0E0,0E0,0E0,0E0],"parents":[2147483647,0,0,1,1,2,2],"right_children":[2,4,6,-1,-1,-1,-1],"split_conditions":[3.3E1,1.26E1,8.138304E0,-0E0,1.059976E-2,-0E0,-1.1518831E-2],"split_indices":[12,8,20,0,0,0,0],"split_type":[0,0,0,0,0,0,0],"sum_hessian":[4.513498E1,2.135416E1,2.3780819E1,1.36778345E1,7.6763268E0,8.976112E0,1.4804707E1],"tree_param":{"num_deleted":"0","num_feature":"31","num_nodes":"7","size_leaf_vector":"1"}},{"base_weights":[-0E0,-2.805358E-1,8.954565E-3,3.1522908E-3,-7.016005E-3],"categories":[],"categories_nodes":[],"categories_segments":[],"categories_sizes":[],"default_left":[0,0,0,0,0],"id":78,"left_children":[1,3,-1,-1,-1],"loss_changes":[9.218049E0,5.4086742E0,0E0,0E0,0E0],"parents":[2147483647,0,0,1,1],"right_children":[2,4,-1,-1,-1],"split_conditions":[5.1E0,6.0702868E0,8.954565E-3,3.1522908E-3,-7.016005E-3],"split_indices":[6,20,0,0,0],"split_type":[0,0,0,0,0],"sum_hessian":[4.090911E1,2.9649765E1,1.1259346E1,8.441647E0,2.1208118E1],"tree_param":{"num_deleted":"0","num_feature":"31","num_nodes":"5","size_leaf_vector":"1"}},{"base_weights":[-4.642635E-2,7.3261214E-3,-2.626461E-1,1.3794951E-3,-7.330051E-3],"categories":[],"categories_nodes":[],"categories_segments":[],"categories_sizes":[],"default_left":[0,0,0,0,0],"id":79,"left_children":[1,-1,3,-1,-1],"loss_changes":[6.1366267E0,0E0,5.320461E0,0E0,0E0],"parents":[2147483647,0,0,2,2],"right_children":[2,-1,4,-1,-1],"split_conditions":[2.4E1,7.3261214E-3,1.74E2,1.3794951E-3,-7.330051E-3],"split_indices":[13,0,4,0,0],"split_type":[0,0,0,0,0],"sum_hessian":[4.433525E1,8.736456E0,3.5598797E1,1.4965001E1,2.0633793E1],"tree_param":{"num_deleted":"0","num_feature":"31","num_nodes":"5","size_leaf_vector":"1"}},{"base_weights":[-5.598709E-2,-3.4912986E-1,6.78188E-3,-7.838954E-3,2.0217975E-3],"categories":[],"categories_nodes":[],"categories_segments":[],"categories_sizes":[],"default_left":[0,0,0,0,0],"id":80,"left_children":[1,3,-1,-1,-1],"loss_changes":[8.14909E0,5.623112E0,0E0,0E0,0E0],"parents":[2147483647,0,0,1,1],"right_children":[2,4,-1,-1,-1],"split_conditions":[7.2E1,5E0,6.78188E-3,-7.838954E-3,2.0217975E-3],"split_indices":[0,6,0,0,0],"split_type":[0,0,0,0,0],"sum_hessian":[4.4144978E1,3.1795149E1,1.2349828E1,2.2234844E1,9.560305E0],"tree_param":{"num_deleted":"0","num_feature":"31","num_nodes":"5","size_leaf_vector":"1"}},{"base_weights":[-0E0,5.004376E-3,-6.3351174E-3],"categories":[],"categories_nodes":[],"categories_segments":[],"categories_sizes":[],"default_left":[0,0,0],"id":81,"left_children":[1,-1,-1],"loss_changes":[9.2749E0,0E0,0E0],"parents":[2147483647,0,0],"right_children":[2,-1,-1],"split_conditions":[-4.6E0,5.004376E-3,-6.3351174E-3],"split_indices":[7,0,0],"split_type":[0,0,0],"sum_hessian":[4.2019825E1,2.34099E1,1.8609924E1],"tree_param":{"num_deleted":"0","num_feature":"31","num_nodes":"3","size_leaf_vector":"1"}},{"base_weights":[1.21777266E-1,-1.1055285E-1,8.737113E-3,1.3170684E-3,-1.0158754E-2],"categories":[],"categories_nodes":[],"categories_segments":[],"categories_sizes":[],"default_left":[0,0,0,0,0],"id":82,"left_children":[1,3,-1,-1,-1],"loss_changes":[6.7638617E0,5.8048043E0,0E0,0E0,0E0],"parents":[2147483647,0,0,1,1],"right_children":[2,4,-1,-1,-1],"split_conditions":[7.1E1,3.6E1,8.737113E-3,1.3170684E-3,-1.0158754E-2],"split_indices":[0,12,0,0,0],"split_type":[0,0,0,0,0],"sum_hessian":[4.114031E1,2.8596691E1,1.254362E1,2.1523306E1,7.073384E0],"tree_param":{"num_deleted":"0","num_feature":"31","num_nodes":"5","size_leaf_vector":"1"}},{"base_weights":[5.752622E-2,1.0521442E-2,-1.3344905E-3],"categories":[],"categories_nodes":[],"categories_segments":[],"categories_sizes":[],"default_left":[0,0,0],"id":83,"left_children":[1,-1,-1],"loss_changes":[7.3106217E0,0E0,0E0],"parents":[2147483647,0,0],"right_children":[2,-1,-1],"split_conditions":[2.4E1,1.0521442E-2,-1.3344905E-3],"split_indices":[13,0,0],"split_type":[0,0,0],"sum_hessian":[4.5400806E1,8.030796E0,3.737001E1],"tree_param":{"num_deleted":"0","num_feature":"31","num_nodes":"3","size_leaf_vector":"1"}},{"base_weights":[-0E0,5.112254E-1,-3.3685043E-1,-8.310764E-4,1.0984678E-2,-8.216828E-3,3.0502863E-3],"categories":[],"categories_nodes":[],"categories_segments":[],"categories_sizes":[],"default_left":[0,0,0,0,0,0,0],"id":84,"left_children":[1,3,5,-1,-1,-1,-1],"loss_changes":[7.737453E0,4.8387527E0,6.344806E0,0E0,0E0,0E0,0E0],"parents":[2147483647,0,0,1,1,2,2],"right_children":[2,4,6,-1,-1,-1,-1],"split_conditions":[3.61E1,5.671187E-1,1.3E1,-8.310764E-4,1.0984678E-2,-8.216828E-3,3.0502863E-3],"split_indices":[10,18,9,0,0,0,0],"split_type":[0,0,0,0,0,0,0],"sum_hessian":[4.2342716E1,1.4857751E1,2.7484964E1,4.802775E0,1.0054976E1,1.9229174E1,8.255792E0],"tree_param":{"num_deleted":"0","num_feature":"31","num_nodes":"7","size_leaf_vector":"1"}},{"base_weights":[7.526237E-2,-1.8045917E-1,7.752719E-3,1.0506064E-3,-8.473778E-3],"categories":[],"categories_nodes":[],"categories_segments":[],"categories_sizes":[],"default_left":[0,0,0,0,0],"id":85,"left_children":[1,3,-1,-1,-1],"loss_changes":[7.008976E0,4.8741765E0,0E0,0E0,0E0],"parents":[2147483647,0,0,1,1],"right_children":[2,4,-1,-1,-1],"split_conditions":[7.2E1,1.1621946E1,7.752719E-3,1.0506064E-3,-8.473778E-3],"split_indices":[0,20,0,0,0],"split_type":[0,0,0,0,0],"sum_hessian":[4.2353363E1,2.783102E1,1.4522342E1,1.7267443E1,1.0563579E1],"tree_param":{"num_deleted":"0","num_feature":"31","num_nodes":"5","size_leaf_vector":"1"}},{"base_weights":[5.43262E-2,8.810434E-3,-2.4535428E-3],"categories":[],"categories_nodes":[],"categories_segments":[],"categories_sizes":[],"default_left":[1,0,0],"id":86,"left_children":[1,-1,-1],"loss_changes":[8.0841255E0,0E0,0E0],"parents":[2147483647,0,0],"right_children":[2,-1,-1],"split_conditions":[2.2899306E-1,8.810434E-3,-2.4535428E-3],"split_indices":[24,0,0],"split_type":[0,0,0],"sum_hessian":[4.173611E1,1.2267486E1,2.9468626E1],"tree_param":{"num_deleted":"0","num_feature":"31","num_nodes":"3","size_leaf_vector":"1"}},{"base_weights":[2.2637282E-1,9.884409E-3,-1.3802566E-4],"categories":[],"categories_nodes":[],"categories_segments":[],"categories_sizes":[],"default_left":[1,0,0],"id":87,"left_children":[1,-1,-1],"loss_changes":[7.531047E0,0E0,0E0],"parents":[2147483647,0,0],"right_children":[2,-1,-1],"split_conditions":[2.2899306E-1,9.884409E-3,-1.3802566E-4],"split_indices":[24,0,0],"split_type":[0,0,0],"sum_hessian":[4.5873825E1,1.412602E1,3.1747805E1],"tree_param":{"num_deleted":"0","num_feature":"31","num_nodes":"3","size_leaf_vector":"1"}},{"base_weights":[4.384367E-2,5.3244466E-3,-5.1971525E-3],"categories":[],"categories_nodes":[],"categories_segments":[],"categories_sizes":[],"default_left":[0,0,0],"id":88,"left_children":[1,-1,-1],"loss_changes":[8.07971E0,0E0,0E0],"parents":[2147483647,0,0],"right_children":[2,-1,-1],"split_conditions":[2.2E2,5.3244466E-3,-5.1971525E-3],"split_indices":[4,0,0],"split_type":[0,0,0],"sum_hessian":[4.2358604E1,2.4971869E1,1.7386738E1],"tree_param":{"num_deleted":"0","num_feature":"31","num_nodes":"3","size_leaf_vector":"1"}},{"base_weights":[3.1387653E-2,6.6372957E-3,-5.4477453E-3],"categories":[],"categories_nodes":[],"categories_segments":[],"categories_sizes":[],"default_left":[1,0,0],"id":89,"left_children":[1,-1,-1],"loss_changes":[1.0610218E1,0E0,0E0],"parents":[2147483647,0,0],"right_children":[2,-1,-1],"split_conditions":[9.10463E0,6.6372957E-3,-5.4477453E-3],"split_indices":[20,0,0],"split_type":[0,0,0],"sum_hessian":[4.1317623E1,2.1370516E1,1.9947105E1],"tree_param":{"num_deleted":"0","num_feature":"31","num_nodes":"3","size_leaf_vector":"1"}},{"base_weights":[-2.1947421E-2,-3.780524E-1,7.3013855E-3,-6.824995E-3,5.231483E-3],"categories":[],"categories_nodes":[],"categories_segments":[],"categories_sizes":[],"default_left":[0,1,0,0,0],"id":90,"left_children":[1,3,-1,-1,-1],"loss_changes":[1.0198165E1,4.869741E0,0E0,0E0,0E0],"parents":[2147483647,0,0,1,1],"right_children":[2,4,-1,-1,-1],"split_conditions":[7.1E1,1.5413621E-1,7.3013855E-3,-6.824995E-3,5.231483E-3],"split_indices":[0,23,0,0,0],"split_type":[0,0,0,0,0],"sum_hessian":[4.486208E1,3.021089E1,1.465119E1,2.7043055E1,3.167836E0],"tree_param":{"num_deleted":"0","num_feature":"31","num_nodes":"5","size_leaf_vector":"1"}},{"base_weights":[-1.86043E-1,-8.981444E-3,3.9959714E-1,1.2267488E-2,-2.3305456E-3],"categories":[],"categories_nodes":[],"categories_segments":[],"categories_sizes":[],"default_left":[0,0,0,0,0],"id":91,"left_children":[1,-1,3,-1,-1],"loss_changes":[1.4768318E1,0E0,8.616419E0,0E0,0E0],"parents":[2147483647,0,0,2,2],"right_children":[2,-1,4,-1,-1],"split_conditions":[2.9E0,-8.981444E-3,3.3E1,1.2267488E-2,-2.3305456E-3],"split_indices":[6,0,12,0,0],"split_type":[0,0,0,0,0],"sum_hessian":[4.2349735E1,2.3330164E1,1.9019573E1,1.017377E1,8.845803E0],"tree_param":{"num_deleted":"0","num_feature":"31","num_nodes":"5","size_leaf_vector":"1"}},{"base_weights":[6.542228E-2,8.813857E-3,-1.206874E-3],"categories":[],"categories_nodes":[],"categories_segments":[],"categories_sizes":[],"default_left":[1,0,0],"id":92,"left_children":[1,-1,-1],"loss_changes":[5.5294256E0,0E0,0E0],"parents":[2147483647,0,0],"right_children":[2,-1,-1],"split_conditions":[1.8854167E-1,8.813857E-3,-1.206874E-3],"split_indices":[24,0,0],"split_type":[0,0,0],"sum_hessian":[4.1824123E1,8.977414E0,3.2846706E1],"tree_param":{"num_deleted":"0","num_feature":"31","num_nodes":"3","size_leaf_vector":"1"}},{"base_weights":[6.495793E-2,5.1365435E-1,-4.443644E-3,-2.4275025E-4,1.1372283E-2],"categories":[],"categories_nodes":[],"categories_segments":[],"categories_sizes":[],"default_left":[0,0,0,0,0],"id":93,"left_children":[1,3,-1,-1,-1],"loss_changes":[9.188026E0,6.4787874E0,0E0,0E0,0E0],"parents":[2147483647,0,0,1,1],"right_children":[2,4,-1,-1,-1],"split_conditions":[3.3E1,9.6E0,-4.443644E-3,-2.4275025E-4,1.1372283E-2],"split_indices":[12,8,0,0,0],"split_type":[0,0,0,0,0],"sum_hessian":[4.376135E1,2.2612785E1,2.1148563E1,8.790867E0,1.3821918E1],"tree_param":{"num_deleted":"0","num_feature":"31","num_nodes":"5","size_leaf_vector":"1"}},{"base_weights":[-1.0988424E-1,6.1595985E-3,-4.3328983E-1,-8.629293E-3,2.7825325E-4],"categories":[],"categories_nodes":[],"categories_segments":[],"categories_sizes":[],"default_left":[1,0,0,0,0],"id":94,"left_children":[1,-1,3,-1,-1],"loss_changes":[9.367673E0,0E0,4.814379E0,0E0,0E0],"parents":[2147483647,0,0,2,2],"right_children":[2,-1,4,-1,-1],"split_conditions":[2.2899306E-1,6.1595985E-3,7.2E1,-8.629293E-3,2.7825325E-4],"split_indices":[24,0,0,0,0],"split_type":[0,0,0,0,0],"sum_hessian":[4.454818E1,1.3644133E1,3.0904047E1,2.1263678E1,9.64037E0],"tree_param":{"num_deleted":"0","num_feature":"31","num_nodes":"5","size_leaf_vector":"1"}},{"base_weights":[7.125994E-2,1.0347434E-2,-1.7251658E-1,-4.401812E-3,7.942539E-3],"categories":[],"categories_nodes":[],"categories_segments":[],"categories_sizes":[],"default_left":[0,0,1,0,0],"id":95,"left_children":[1,-1,3,-1,-1],"loss_changes":[9.771242E0,0E0,5.08063E0,0E0,0E0],"parents":[2147483647,0,0,2,2],"right_children":[2,-1,4,-1,-1],"split_conditions":[3E1,1.0347434E-2,2.6004055E-1,-4.401812E-3,7.942539E-3],"split_indices":[13,0,16,0,0],"split_type":[0,0,0,0,0],"sum_hessian":[4.451391E1,1.1216907E1,3.3297005E1,2.9667006E1,3.6299982E0],"tree_param":{"num_deleted":"0","num_feature":"31","num_nodes":"5","size_leaf_vector":"1"}},{"base_weights":[4.9037607E-3,-5.059688E-3,4.3230974E-3],"categories":[],"categories_nodes":[],"categories_segments":[],"categories_sizes":[],"default_left":[1,0,0],"id":96,"left_children":[1,-1,-1],"loss_changes":[6.6961613E0,0E0,0E0],"parents":[2147483647,0,0],"right_children":[2,-1,-1],"split_conditions":[1.55533905E1,-5.059688E-3,4.3230974E-3],"split_indices":[28,0,0],"split_type":[0,0,0],"sum_hessian":[4.5026802E1,1.8316227E1,2.6710575E1],"tree_param":{"num_deleted":"0","num_feature":"31","num_nodes":"3","size_leaf_vector":"1"}},{"base_weights":[5.160695E-2,-2.5926402E-3,6.6738105E-3],"categories":[],"categories_nodes":[],"categories_segments":[],"categories_sizes":[],"default_left":[0,0,0],"id":97,"left_children":[1,-1,-1],"loss_changes":[5.9468155E0,0E0,0E0],"parents":[2147483647,0,0],"right_children":[2,-1,-1],"split_conditions":[1.3323985E-1,-2.5926402E-3,6.6738105E-3],"split_indices":[23,0,0],"split_type":[0,0,0],"sum_hessian":[4.0415493E1,2.501779E1,1.5397704E1],"tree_param":{"num_deleted":"0","num_feature":"31","num_nodes":"3","size_leaf_vector":"1"}},{"base_weights":[-1.1932406E-2],"categories":[],"categories_nodes":[],"categories_segments":[],"categories_sizes":[],"default_left":[0],"id":98,"left_children":[-1],"loss_changes":[0E0],"parents":[2147483647],"right_children":[-1],"split_conditions":[-1.4976537E-4],"split_indices":[0],"split_type":[0],"sum_hessian":[3.7979145E1],"tree_param":{"num_deleted":"0","num_feature":"31","num_nodes":"1","size_leaf_vector":"1"}},{"base_weights":[1.05165295E-1,-1.8061069E-3,4.7564143E-1,-9.038894E-6,1.0540348E-2],"categories":[],"categories_nodes":[],"categories_segments":[],"categories_sizes":[],"default_left":[0,0,0,0,0],"id":99,"left_children":[1,-1,3,-1,-1],"loss_changes":[4.998146E0,0E0,5.03332E0,0E0,0E0],"parents":[2147483647,0,0,2,2],"right_children":[2,-1,4,-1,-1],"split_conditions":[1.2E1,-1.8061069E-3,2.8854167E-1,-9.038894E-6,1.0540348E-2],"split_indices":[9,0,24,0,0],"split_type":[0,0,0,0,0],"sum_hessian":[4.546059E1,2.5528551E1,1.9932037E1,7.734329E0,1.2197708E1],"tree_param":{"num_deleted":"0","num_feature":"31","num_nodes":"5","size_leaf_vector":"1"}},{"base_weights":[-0E0,5.5239874E-1,-3.977017E-1,-2.1230106E-3,1.0567845E-2,1.5821648E-3,-8.299893E-3],"categories":[],"categories_nodes":[],"categories_segments":[],"categories_sizes":[],"default_left":[0,0,1,0,0,0,0],"id":100,"left_children":[1,3,5,-1,-1,-1,-1],"loss_changes":[1.0640146E1,5.462519E0,4.892769E0,0E0,0E0,0E0,0E0],"parents":[2147483647,0,0,1,1,2,2],"right_children":[2,4,6,-1,-1,-1,-1],"split_conditions":[8.1089525E0,7E-1,-4.8719146E-4,-2.1230106E-3,1.0567845E-2,1.5821648E-3,-8.299893E-3],"split_indices":[20,2,15,0,0,0,0],"split_type":[0,0,0,0,0,0,0],"sum_hessian":[4.469692E1,1.810619E1,2.6590727E1,3.9647188E0,1.4141471E1,7.3767457E0,1.9213982E1],"tree_param":{"num_deleted":"0","num_feature":"31","num_nodes":"7","size_leaf_vector":"1"}},{"base_weights":[-1.5821515E-2,8.659168E-3,-3.0793536E-1,3.3331902E-3,-7.7620763E-3],"categories":[],"categories_nodes":[],"categories_segments":[],"categories_sizes":[],"default_left":[0,0,1,0,0],"id":101,"left_children":[1,-1,3,-1,-1],"loss_changes":[8.376963E0,0E0,6.5515947E0,0E0,0E0],"parents":[2147483647,0,0,2,2],"right_children":[2,-1,4,-1,-1],"split_conditions":[-9.5E0,8.659168E-3,2.2899306E-1,3.3331902E-3,-7.7620763E-3],"split_indices":[7,0,24,0,0],"split_type":[0,0,0,0,0],"sum_hessian":[3.9374165E1,9.270125E0,3.010404E1,9.009809E0,2.109423E1],"tree_param":{"num_deleted":"0","num_feature":"31","num_nodes":"5","size_leaf_vector":"1"}},{"base_weights":[-0E0,-4.6522167E-1,5.1140726E-1,-9.2472965E-3,2.227778E-3,9.52839E-3,-2.5544076E-3],"categories":[],"categories_nodes":[],"categories_segments":[],"categories_sizes":[],"default_left":[0,0,0,0,0,0,0],"id":102,"left_children":[1,3,5,-1,-1,-1,-1],"loss_changes":[1.1165539E1,5.3644233E0,5.0835085E0,0E0,0E0,0E0,0E0],"parents":[2147483647,0,0,1,1,2,2],"right_children":[2,4,6,-1,-1,-1,-1],"split_conditions":[1.25E1,1.3E1,1.5227E4,-9.2472965E-3,2.227778E-3,9.52839E-3,-2.5544076E-3],"split_indices":[8,9,1,0,0,0,0],"split_type":[0,0,0,0,0,0,0],"sum_hessian":[4.3000896E1,2.2590063E1,2.0410831E1,1.7287354E1,5.3027096E0,1.6595488E1,3.8153453E0],"tree_param":{"num_deleted":"0","num_feature":"31","num_nodes":"7","size_leaf_vector":"1"}},{"base_weights":[7.097785E-2,-5.844037E-3,3.2813576E-1,6.806613E-3,-4.285784E-3],"categories":[],"categories_nodes":[],"categories_segments":[],"categories_sizes":[],"default_left":[0,0,1,0,0],"id":103,"left_children":[1,-1,3,-1,-1],"loss_changes":[6.49246E0,0E0,5.582596E0,0E0,0E0],"parents":[2147483647,0,0,2,2],"right_children":[2,-1,4,-1,-1],"split_conditions":[5.2E1,-5.844037E-3,1.4179657E1,6.806613E-3,-4.285784E-3],"split_indices":[0,0,20,0,0],"split_type":[0,0,0,0,0],"sum_hessian":[4.4379646E1,1.2009548E1,3.23701E1,2.6472443E1,5.897655E0],"tree_param":{"num_deleted":"0","num_feature":"31","num_nodes":"5","size_leaf_vector":"1"}},{"base_weights":[-0E0,8.869143E-3,-2.1196352E-3],"categories":[],"categories_nodes":[],"categories_segments":[],"categories_sizes":[],"default_left":[0,0,0],"id":104,"left_children":[1,-1,-1],"loss_changes":[5.7265816E0,0E0,0E0],"parents":[2147483647,0,0],"right_children":[2,-1,-1],"split_conditions":[2.5E1,8.869143E-3,-2.1196352E-3],"split_indices":[13,0,0],"split_type":[0,0,0],"sum_hessian":[4.1557457E1,7.4450383E0,3.411242E1],"tree_param":{"num_deleted":"0","num_feature":"31","num_nodes":"3","size_leaf_vector":"1"}},{"base_weights":[-1.1283039E-2,7.0766076E-3,-3.6237812E-1,-9.795579E-3,-0E0],"categories":[],"categories_nodes":[],"categories_segments":[],"categories_sizes":[],"default_left":[0,0,1,0,0],"id":105,"left_children":[1,-1,3,-1,-1],"loss_changes":[9.200727E0,0E0,5.1089516E0,0E0,0E0],"parents":[2147483647,0,0,2,2],"right_children":[2,-1,4,-1,-1],"split_conditions":[1.458E2,7.0766076E-3,6.187232E-1,-9.795579E-3,-0E0],"split_indices":[4,0,18,0,0],"split_type":[0,0,0,0,0],"sum_hessian":[4.308547E1,1.429364E1,2.8791828E1,1.3055246E1,1.5736583E1],"tree_param":{"num_deleted":"0","num_feature":"31","num_nodes":"5","size_leaf_vector":"1"}},{"base_weights":[1.1969114E-1,7.7931047E-3,-1.0593791E-3],"categories":[],"categories_nodes":[],"categories_segments":[],"categories_sizes":[],"default_left":[0,0,0],"id":106,"left_children":[1,-1,-1],"loss_changes":[5.095432E0,0E0,0E0],"parents":[2147483647,0,0],"right_children":[2,-1,-1],"split_conditions":[3.1E1,7.7931047E-3,-1.0593791E-3],"split_indices":[13,0,0],"split_type":[0,0,0],"sum_hessian":[3.9128437E1,1.2247964E1,2.6880472E1],"tree_param":{"num_deleted":"0","num_feature":"31","num_nodes":"3","size_leaf_vector":"1"}},{"base_weights":[-1.1197652E-1,1.8991324E-1,-8.529326E-3,-2.7564133E-3,1.2069363E-2],"categories":[],"categories_nodes":[],"categories_segments":[],"categories_sizes":[],"default_left":[0,0,0,0,0],"id":107,"left_children":[1,3,-1,-1,-1],"loss_changes":[9.05917E0,1.1191183E1,0E0,0E0,0E0],"parents":[2147483647,0,0,1,1],"right_children":[2,4,-1,-1,-1],"split_conditions":[3.5E1,3.2E0,-8.529326E-3,-2.7564133E-3,1.2069363E-2],"split_indices":[12,6,0,0,0],"split_type":[0,0,0,0,0],"sum_hessian":[4.522549E1,2.8683842E1,1.6541649E1,1.8411491E1,1.027235E1],"tree_param":{"num_deleted":"0","num_feature":"31","num_nodes":"5","size_leaf_vector":"1"}},{"base_weights":[-6.682949E-3,-3.318052E-1,3.6047262E-1,-1.1893333E-2,-0E0,1.2061231E-2,-2.139672E-3],"categories":[],"categories_nodes":[],"categories_segments":[],"categories_sizes":[],"default_left":[0,0,0,0,0,0,0],"id":108,"left_children":[1,3,5,-1,-1,-1,-1],"loss_changes":[5.8073235E0,6.862859E0,8.14978E0,0E0,0E0,0E0,0E0],"parents":[2147483647,0,0,1,1,2,2],"right_children":[2,4,6,-1,-1,-1,-1],"split_conditions":[3.2E0,3.1050348E-1,3.3E1,-1.1893333E-2,-0E0,1.2061231E-2,-2.139672E-3],"split_indices":[6,24,12,0,0,0,0],"split_type":[0,0,0,0,0,0,0],"sum_hessian":[4.5073364E1,2.6129848E1,1.8943514E1,9.124672E0,1.7005177E1,9.443518E0,9.499995E0],"tree_param":{"num_deleted":"0","num_feature":"31","num_nodes":"7","size_leaf_vector":"1"}},{"base_weights":[-8.069967E-3,4.922777E-1,-6.8605375E-3,-3.06583E-3,1.3750383E-2],"categories":[],"categories_nodes":[],"categories_segments":[],"categories_sizes":[],"default_left":[0,0,0,0,0],"id":109,"left_children":[1,3,-1,-1,-1],"loss_changes":[1.1451792E1,1.0876501E1,0E0,0E0,0E0],"parents":[2147483647,0,0,1,1],"right_children":[2,4,-1,-1,-1],"split_conditions":[3.3E1,2.3E0,-6.8605375E-3,-3.06583E-3,1.3750383E-2],"split_indices":[12,6,0,0,0],"split_type":[0,0,0,0,0],"sum_hessian":[3.828036E1,1.8515417E1,1.9764946E1,7.7649913E0,1.0750425E1],"tree_param":{"num_deleted":"0","num_feature":"31","num_nodes":"5","size_leaf_vector":"1"}},{"base_weights":[9.0643875E-2,-4.1843876E-3,4.556753E-1,9.93756E-3,-0E0],"categories":[],"categories_nodes":[],"categories_segments":[],"categories_sizes":[],"default_left":[0,0,0,0,0],"id":110,"left_children":[1,-1,3,-1,-1],"loss_changes":[7.868747E0,0E0,5.250669E0,0E0,0E0],"parents":[2147483647,0,0,2,2],"right_children":[2,-1,4,-1,-1],"split_conditions":[6.3E1,-4.1843876E-3,3.3E1,9.93756E-3,-0E0],"split_indices":[0,0,12,0,0],"split_type":[0,0,0,0,0],"sum_hessian":[4.5785572E1,1.9395798E1,2.6389774E1,1.5803904E1,1.0585871E1],"tree_param":{"num_deleted":"0","num_feature":"31","num_nodes":"5","size_leaf_vector":"1"}},{"base_weights":[-4.625338E-3,-3.4921225E-3,6.216355E-3],"categories":[],"categories_nodes":[],"categories_segments":[],"categories_sizes":[],"default_left":[0,0,0],"id":111,"left_children":[1,-1,-1],"loss_changes":[5.664534E0,0E0,0E0],"parents":[2147483647,0,0],"right_children":[2,-1,-1],"split_conditions":[5E0,-3.4921225E-3,6.216355E-3],"split_indices":[6,0,0],"split_type":[0,0,0],"sum_hessian":[3.980789E1,2.8191046E1,1.1616845E1],"tree_param":{"num_deleted":"0","num_feature":"31","num_nodes":"3","size_leaf_vector":"1"}},{"base_weights":[-2.736319E-2,5.059513E-3,-5.3397244E-1,-1.0335149E-2,6.9846906E-4],"categories":[],"categories_nodes":[],"categories_segments":[],"categories_sizes":[],"default_left":[0,0,0,0,0],"id":112,"left_children":[1,-1,3,-1,-1],"loss_changes":[1.0647418E1,0E0,5.238101E0,0E0,0E0],"parents":[2147483647,0,0,2,2],"right_children":[2,-1,4,-1,-1],"split_conditions":[3.3E1,5.059513E-3,4.684E2,-1.0335149E-2,6.9846906E-4],"split_indices":[12,0,1,0,0],"split_type":[0,0,0,0,0],"sum_hessian":[4.404026E1,2.2456419E1,2.158384E1,1.5627671E1,5.956168E0],"tree_param":{"num_deleted":"0","num_feature":"31","num_nodes":"5","size_leaf_vector":"1"}},{"base_weights":[-6.641879E-2,-3.4539604E-1,6.6832504E-3,-7.0167757E-3,3.5243551E-3],"categories":[],"categories_nodes":[],"categories_segments":[],"categories_sizes":[],"default_left":[0,0,0,0,0],"id":113,"left_children":[1,3,-1,-1,-1],"loss_changes":[7.4474134E0,5.122418E0,0E0,0E0,0E0],"parents":[2147483647,0,0,1,1],"right_children":[2,4,-1,-1,-1],"split_conditions":[7.1E1,1.68E1,6.6832504E-3,-7.0167757E-3,3.5243551E-3],"split_indices":[0,2,0,0,0],"split_type":[0,0,0,0,0],"sum_hessian":[4.209761E1,3.0961761E1,1.1135848E1,2.4993265E1,5.968497E0],"tree_param":{"num_deleted":"0","num_feature":"31","num_nodes":"5","size_leaf_vector":"1"}},{"base_weights":[-0E0,-4.8143403E-3,3.830884E-1,1.1184911E-2,-6.087085E-3],"categories":[],"categories_nodes":[],"categories_segments":[],"categories_sizes":[],"default_left":[0,0,0,0,0],"id":114,"left_children":[1,-1,3,-1,-1],"loss_changes":[6.929591E0,0E0,1.2300895E1,0E0,0E0],"parents":[2147483647,0,0,2,2],"right_children":[2,-1,4,-1,-1],"split_conditions":[2.3E0,-4.8143403E-3,3.5E1,1.1184911E-2,-6.087085E-3],"split_indices":[6,0,13,0,0],"split_type":[0,0,0,0,0],"sum_hessian":[4.3235016E1,2.058449E1,2.2650524E1,1.5323972E1,7.326553E0],"tree_param":{"num_deleted":"0","num_feature":"31","num_nodes":"5","size_leaf_vector":"1"}},{"base_weights":[1.7048659E-2,-2.040748E-1,7.3875254E-3,4.066843E-3,-6.887047E-3],"categories":[],"categories_nodes":[],"categories_segments":[],"categories_sizes":[],"default_left":[0,0,0,0,0],"id":115,"left_children":[1,3,-1,-1,-1],"loss_changes":[6.069756E0,6.0776725E0,0E0,0E0,0E0],"parents":[2147483647,0,0,1,1],"right_children":[2,4,-1,-1,-1],"split_conditions":[7.2E1,6.9898343E0,7.3875254E-3,4.066843E-3,-6.887047E-3],"split_indices":[0,20,0,0,0],"split_type":[0,0,0,0,0],"sum_hessian":[3.9723877E1,2.7696894E1,1.2026985E1,9.298579E0,1.8398314E1],"tree_param":{"num_deleted":"0","num_feature":"31","num_nodes":"5","size_leaf_vector":"1"}},{"base_weights":[4.098859E-2,4.0019736E-1,-3.8911873E-3,-4.249665E-3,8.996661E-3],"categories":[],"categories_nodes":[],"categories_segments":[],"categories_sizes":[],"default_left":[0,0,0,0,0],"id":116,"left_children":[1,3,-1,-1,-1],"loss_changes":[6.110879E0,6.97522E0,0E0,0E0,0E0],"parents":[2147483647,0,0,1,1],"right_children":[2,4,-1,-1,-1],"split_conditions":[3.3E1,1.2E0,-3.8911873E-3,-4.249665E-3,8.996661E-3],"split_indices":[12,6,0,0,0],"split_type":[0,0,0,0,0],"sum_hessian":[4.3519302E1,2.3443583E1,2.0075722E1,5.598276E0,1.7845304E1],"tree_param":{"num_deleted":"0","num_feature":"31","num_nodes":"5","size_leaf_vector":"1"}},{"base_weights":[1.2382555E-1,4.4781786E-1,-5.4688454E-3,-3.5919184E-3,8.337927E-3],"categories":[],"categories_nodes":[],"categories_segments":[],"categories_sizes":[],"default_left":[0,1,0,0,0],"id":117,"left_children":[1,3,-1,-1,-1],"loss_changes":[8.523107E0,5.8565426E0,0E0,0E0,0E0],"parents":[2147483647,0,0,1,1],"right_children":[2,4,-1,-1,-1],"split_conditions":[3.5E1,-2.768375E0,-5.4688454E-3,-3.5919184E-3,8.337927E-3],"split_indices":[12,19,0,0,0],"split_type":[0,0,0,0,0],"sum_hessian":[4.284019E1,2.9043697E1,1.3796495E1,4.9240875E0,2.411961E1],"tree_param":{"num_deleted":"0","num_feature":"31","num_nodes":"5","size_leaf_vector":"1"}},{"base_weights":[4.947348E-2,-1.8752061E-3,8.227548E-3],"categories":[],"categories_nodes":[],"categories_segments":[],"categories_sizes":[],"default_left":[0,0,0],"id":118,"left_children":[1,-1,-1],"loss_changes":[6.341036E0,0E0,0E0],"parents":[2147483647,0,0],"right_children":[2,-1,-1],"split_conditions":[7.1E1,-1.8752061E-3,8.227548E-3],"split_indices":[0,0,0],"split_type":[0,0,0],"sum_hessian":[4.287594E1,3.1568558E1,1.130738E1],"tree_param":{"num_deleted":"0","num_feature":"31","num_nodes":"3","size_leaf_vector":"1"}},{"base_weights":[-7.656282E-2,2.327145E-1,-9.1886725E-3,-9.54082E-2,9.692264E-3,-6.1739534E-3,1.0683758E-2],"categories":[],"categories_nodes":[],"categories_segments":[],"categories_sizes":[],"default_left":[0,0,0,0,0,0,0],"id":119,"left_children":[1,3,-1,5,-1,-1,-1],"loss_changes":[9.865556E0,6.3525286E0,0E0,7.184893E0,0E0,0E0,0E0],"parents":[2147483647,0,0,1,1,3,3],"right_children":[2,4,-1,6,-1,-1,-1],"split_conditions":[3.5E1,3.2E0,-9.1886725E-3,3.4E1,9.692264E-3,-6.1739534E-3,1.0683758E-2],"split_indices":[12,6,0,11,0,0,0],"split_type":[0,0,0,0,0,0,0],"sum_hessian":[4.1425644E1,2.7482107E1,1.3943535E1,1.6398312E1,1.1083796E1,1.3317027E1,3.0812848E0],"tree_param":{"num_deleted":"0","num_feature":"31","num_nodes":"7","size_leaf_vector":"1"}},{"base_weights":[-3.1133492E-2,-4.539363E-3,5.1859156E-3],"categories":[],"categories_nodes":[],"categories_segments":[],"categories_sizes":[],"default_left":[0,0,0],"id":120,"left_children":[1,-1,-1],"loss_changes":[6.2155237E0,0E0,0E0],"parents":[2147483647,0,0],"right_children":[2,-1,-1],"split_conditions":[3.4E0,-4.539363E-3,5.1859156E-3],"split_indices":[6,0,0],"split_type":[0,0,0],"sum_hessian":[3.8878056E1,2.4401E1,1.44770565E1],"tree_param":{"num_deleted":"0","num_feature":"31","num_nodes":"3","size_leaf_vector":"1"}},{"base_weights":[1.5404763E-2,7.5128796E-3,-2.2543354E-3],"categories":[],"categories_nodes":[],"categories_segments":[],"categories_sizes":[],"default_left":[0,0,0],"id":121,"left_children":[1,-1,-1],"loss_changes":[6.0232067E0,0E0,0E0],"parents":[2147483647,0,0],"right_children":[2,-1,-1],"split_conditions":[3E1,7.5128796E-3,-2.2543354E-3],"split_indices":[13,0,0],"split_type":[0,0,0],"sum_hessian":[4.3724426E1,1.1829555E1,3.1894873E1],"tree_param":{"num_deleted":"0","num_feature":"31","num_nodes":"3","size_leaf_vector":"1"}},{"base_weights":[2.5876073E-2,1.0508754E-2,-1.2510848E-1,-5.1485817E-3,4.487622E-3],"categories":[],"categories_nodes":[],"categories_segments":[],"categories_sizes":[],"default_left":[0,0,1,0,0],"id":122,"left_children":[1,-1,3,-1,-1],"loss_changes":[6.4164624E0,0E0,5.2797966E0,0E0,0E0],"parents":[2147483647,0,0,2,2],"right_children":[2,-1,4,-1,-1],"split_conditions":[2.8E1,1.0508754E-2,8.512691E-1,-5.1485817E-3,4.487622E-3],"split_indices":[12,0,18,0,0],"split_type":[0,0,0,0,0],"sum_hessian":[4.0184544E1,6.4329925E0,3.3751553E1,2.3319105E1,1.04324465E1],"tree_param":{"num_deleted":"0","num_feature":"31","num_nodes":"5","size_leaf_vector":"1"}},{"base_weights":[2.8765373E-2],"categories":[],"categories_nodes":[],"categories_segments":[],"categories_sizes":[],"default_left":[0],"id":123,"left_children":[-1],"loss_changes":[0E0],"parents":[2147483647],"right_children":[-1],"split_conditions":[3.610384E-4],"split_indices":[0],"split_type":[0],"sum_hessian":[4.3434868E1],"tree_param":{"num_deleted":"0","num_feature":"31","num_nodes":"1","size_leaf_vector":"1"}},{"base_weights":[-0E0,3.545131E-1,-6.07814E-3,-3.7846554E-3,9.110319E-3],"categories":[],"categories_nodes":[],"categories_segments":[],"categories_sizes":[],"default_left":[0,0,0,0,0],"id":124,"left_children":[1,3,-1,-1,-1],"loss_changes":[8.330845E0,8.432156E0,0E0,0E0,0E0],"parents":[2147483647,0,0,1,1],"right_children":[2,4,-1,-1,-1],"split_conditions":[3.5E1,1.6E0,-6.07814E-3,-3.7846554E-3,9.110319E-3],"split_indices":[13,6,0,0,0],"split_type":[0,0,0,0,0],"sum_hessian":[4.5653713E1,2.832404E1,1.7329674E1,8.939251E0,1.9384789E1],"tree_param":{"num_deleted":"0","num_feature":"31","num_nodes":"5","size_leaf_vector":"1"}},{"base_weights":[4.326587E-2,1.0589655E-2,-7.214045E-2,5.21642E-3,-4.390009E-3],"categories":[],"categories_nodes":[],"categories_segments":[],"categories_sizes":[],"default_left":[0,0,1,0,0],"id":125,"left_children":[1,-1,3,-1,-1],"loss_changes":[5.1763315E0,0E0,5.2406573E0,0E0,0E0],"parents":[2147483647,0,0,2,2],"right_children":[2,-1,4,-1,-1],"split_conditions":[2.8E1,1.0589655E-2,2.2899306E-1,5.21642E-3,-4.390009E-3],"split_indices":[12,0,24,0,0],"split_type":[0,0,0,0,0],"sum_hessian":[4.049377E1,5.1476283E0,3.534614E1,1.0545694E1,2.4800446E1],"tree_param":{"num_deleted":"0","num_feature":"31","num_nodes":"5","size_leaf_vector":"1"}},{"base_weights":[4.796114E-2,-8.656613E-3,2.4879879E-1,7.4334634E-3,-1.4660136E-1,-9.7464705E-3,3.75684E-3],"categories":[],"categories_nodes":[],"categories_segments":[],"categories_sizes":[],"default_left":[0,0,0,0,0,0,0],"id":126,"left_children":[1,-1,3,-1,5,-1,-1],"loss_changes":[6.0223403E0,0E0,5.798153E0,0E0,5.821876E0,0E0,0E0],"parents":[2147483647,0,0,2,2,4,4],"right_children":[2,-1,4,-1,6,-1,-1],"split_conditions":[4.4E1,-8.656613E-3,3.0710957E1,7.4334634E-3,2.4E0,-9.7464705E-3,3.75684E-3],"split_indices":[0,0,30,0,6,0,0],"split_type":[0,0,0,0,0,0,0],"sum_hessian":[4.0790848E1,6.139547E0,3.4651302E1,2.0011425E1,1.4639876E1,6.831853E0,7.8080235E0],"tree_param":{"num_deleted":"0","num_feature":"31","num_nodes":"7","size_leaf_vector":"1"}},{"base_weights":[5.3618506E-2,-3.6517112E-3,5.771771E-1,1.2649438E-2,-1.0259873E-3],"categories":[],"categories_nodes":[],"categories_segments":[],"categories_sizes":[],"default_left":[0,0,0,0,0],"id":127,"left_children":[1,-1,3,-1,-1],"loss_changes":[8.624555E0,0E0,7.107186E0,0E0,0E0],"parents":[2147483647,0,0,2,2],"right_children":[2,-1,4,-1,-1],"split_conditions":[2.6E0,-3.6517112E-3,3.5E1,1.2649438E-2,-1.0259873E-3],"split_indices":[6,0,12,0,0],"split_type":[0,0,0,0,0],"sum_hessian":[4.168448E1,2.3971289E1,1.771319E1,1.1433406E1,6.2797837E0],"tree_param":{"num_deleted":"0","num_feature":"31","num_nodes":"5","size_leaf_vector":"1"}},{"base_weights":[-0E0,-2.6492923E-1,6.813711E-3,3.3642463E-3,-6.8972015E-1,7.650309E-4,-1.1917498E-2],"categories":[],"categories_nodes":[],"categories_segments":[],"categories_sizes":[],"default_left":[0,0,0,0,0,0,0],"id":128,"left_children":[1,3,-1,-1,5,-1,-1],"loss_changes":[6.280891E0,7.3865623E0,0E0,0E0,4.896579E0,0E0,0E0],"parents":[2147483647,0,0,1,1,4,4],"right_children":[2,4,-1,-1,6,-1,-1],"split_conditions":[7.1E1,1.76E2,6.813711E-3,3.3642463E-3,2.9E1,7.650309E-4,-1.1917498E-2],"split_indices":[0,4,0,0,12,0,0],"split_type":[0,0,0,0,0,0,0],"sum_hessian":[3.893411E1,2.6320978E1,1.261313E1,1.045956E1,1.5861419E1,3.0087032E0,1.28527155E1],"tree_param":{"num_deleted":"0","num_feature":"31","num_nodes":"7","size_leaf_vector":"1"}},{"base_weights":[-1.0609537E-1,8.367388E-3,-3.2720837E-1,2.5543065E-3,-6.689154E-3],"categories":[],"categories_nodes":[],"categories_segments":[],"categories_sizes":[],"default_left":[0,0,1,0,0],"id":129,"left_children":[1,-1,3,-1,-1],"loss_changes":[7.7637854E0,0E0,4.8957376E0,0E0,0E0],"parents":[2147483647,0,0,2,2],"right_children":[2,-1,4,-1,-1],"split_conditions":[2.4E1,8.367388E-3,2.2196181E-1,2.5543065E-3,-6.689154E-3],"split_indices":[13,0,24,0,0],"split_type":[0,0,0,0,0],"sum_hessian":[4.389101E1,7.4049406E0,3.648607E1,8.201833E0,2.8284235E1],"tree_param":{"num_deleted":"0","num_feature":"31","num_nodes":"5","size_leaf_vector":"1"}},{"base_weights":[4.6665E-2,5.2509764E-3,-3.5306707E-3],"categories":[],"categories_nodes":[],"categories_segments":[],"categories_sizes":[],"default_left":[0,0,0],"id":130,"left_children":[1,-1,-1],"loss_changes":[5.7475414E0,0E0,0E0],"parents":[2147483647,0,0],"right_children":[2,-1,-1],"split_conditions":[-4.6E0,5.2509764E-3,-3.5306707E-3],"split_indices":[7,0,0],"split_type":[0,0,0],"sum_hessian":[4.163601E1,2.1365284E1,2.0270725E1],"tree_param":{"num_deleted":"0","num_feature":"31","num_nodes":"3","size_leaf_vector":"1"}},{"base_weights":[-8.129001E-2,8.1539415E-3,-3.407246E-1,-5.2470547E-1,5.026561E-3,-1.0063393E-2,4.2656873E-4],"categories":[],"categories_nodes":[],"categories_segments":[],"categories_sizes":[],"default_left":[0,0,0,0,0,0,0],"id":131,"left_children":[1,-1,3,5,-1,-1,-1],"loss_changes":[8.321927E0,0E0,5.4006157E0,5.930745E0,0E0,0E0,0E0],"parents":[2147483647,0,0,2,2,3,3],"right_children":[2,-1,4,6,-1,-1,-1],"split_conditions":[2.4E1,8.1539415E-3,1.5E1,1.0173051E0,5.026561E-3,-1.0063393E-2,4.2656873E-4],"split_indices":[13,0,9,19,0,0,0],"split_type":[0,0,0,0,0,0,0],"sum_hessian":[4.2026577E1,8.750597E0,3.3275978E1,2.8707848E1,4.568131E0,2.037922E1,8.328629E0],"tree_param":{"num_deleted":"0","num_feature":"31","num_nodes":"7","size_leaf_vector":"1"}},{"base_weights":[-5.5988036E-2],"categories":[],"categories_nodes":[],"categories_segments":[],"categories_sizes":[],"default_left":[0],"id":132,"left_children":[-1],"loss_changes":[0E0],"parents":[2147483647],"right_children":[-1],"split_conditions":[-7.02714E-4],"split_indices":[0],"split_type":[0],"sum_hessian":[4.0586662E1],"tree_param":{"num_deleted":"0","num_feature":"31","num_nodes":"1","size_leaf_vector":"1"}},{"base_weights":[-0E0,3.6682573E-1,-3.5865107E-1,1.2201542E-2,-0E0,-0E0,-1.0692754E-2],"categories":[],"categories_nodes":[],"categories_segments":[],"categories_sizes":[],"default_left":[0,1,0,0,0,0,0],"id":133,"left_children":[1,3,5,-1,-1,-1,-1],"loss_changes":[5.8427835E0,6.1285563E0,5.001703E0,0E0,0E0,0E0,0E0],"parents":[2147483647,0,0,1,1,2,2],"right_children":[2,4,6,-1,-1,-1,-1],"split_conditions":[1.9355556E2,-1.7701661E-4,3.5E1,1.2201542E-2,-0E0,-0E0,-1.0692754E-2],"split_indices":[4,15,12,0,0,0,0],"split_type":[0,0,0,0,0,0,0],"sum_hessian":[4.050038E1,1.9662226E1,2.0838156E1,7.601027E0,1.2061199E1,1.1868608E1,8.969548E0],"tree_param":{"num_deleted":"0","num_feature":"31","num_nodes":"7","size_leaf_vector":"1"}},{"base_weights":[-0E0],"categories":[],"categories_nodes":[],"categories_segments":[],"categories_sizes":[],"default_left":[0],"id":134,"left_children":[-1],"loss_changes":[0E0],"parents":[2147483647],"right_children":[-1],"split_conditions":[-0E0],"split_indices":[0],"split_type":[0],"sum_hessian":[4.053807E1],"tree_param":{"num_deleted":"0","num_feature":"31","num_nodes":"1","size_leaf_vector":"1"}},{"base_weights":[6.1331857E-3,2.6916747E-3,-7.6637594E-3],"categories":[],"categories_nodes":[],"categories_segments":[],"categories_sizes":[],"default_left":[1,0,0],"id":135,"left_children":[1,-1,-1],"loss_changes":[5.612761E0,0E0,0E0],"parents":[2147483647,0,0],"right_children":[2,-1,-1],"split_conditions":[1.5141373E1,2.6916747E-3,-7.6637594E-3],"split_indices":[20,0,0],"split_type":[0,0,0],"sum_hessian":[4.4257416E1,3.5822292E1,8.435121E0],"tree_param":{"num_deleted":"0","num_feature":"31","num_nodes":"3","size_leaf_vector":"1"}},{"base_weights":[-1.1083414E-1,-4.966673E-3,5.6159906E-3],"categories":[],"categories_nodes":[],"categories_segments":[],"categories_sizes":[],"default_left":[0,0,0],"id":136,"left_children":[1,-1,-1],"loss_changes":[7.549721E0,0E0,0E0],"parents":[2147483647,0,0],"right_children":[2,-1,-1],"split_conditions":[5.1E0,-4.966673E-3,5.6159906E-3],"split_indices":[6,0,0],"split_type":[0,0,0],"sum_hessian":[4.379993E1,3.112401E1,1.267592E1],"tree_param":{"num_deleted":"0","num_feature":"31","num_nodes":"3","size_leaf_vector":"1"}},{"base_weights":[-1.8189942E-2,-5.174034E-3,3.2093313E-1,9.768374E-3,-2.9742098E-3],"categories":[],"categories_nodes":[],"categories_segments":[],"categories_sizes":[],"default_left":[0,0,0,0,0],"id":137,"left_children":[1,-1,3,-1,-1],"loss_changes":[6.2098665E0,0E0,6.8963594E0,0E0,0E0],"parents":[2147483647,0,0,2,2],"right_children":[2,-1,4,-1,-1],"split_conditions":[2.9E0,-5.174034E-3,3.5E1,9.768374E-3,-2.9742098E-3],"split_indices":[6,0,12,0,0],"split_type":[0,0,0,0,0],"sum_hessian":[4.155962E1,2.1033504E1,2.0526114E1,1.2302113E1,8.224002E0],"tree_param":{"num_deleted":"0","num_feature":"31","num_nodes":"5","size_leaf_vector":"1"}},{"base_weights":[-8.9946665E-2],"categories":[],"categories_nodes":[],"categories_segments":[],"categories_sizes":[],"default_left":[0],"id":138,"left_children":[-1],"loss_changes":[0E0],"parents":[2147483647],"right_children":[-1],"split_conditions":[-1.1289337E-3],"split_indices":[0],"split_type":[0],"sum_hessian":[4.4542755E1],"tree_param":{"num_deleted":"0","num_feature":"31","num_nodes":"1","size_leaf_vector":"1"}},{"base_weights":[-0E0,6.862087E-3,-3.7344724E-3],"categories":[],"categories_nodes":[],"categories_segments":[],"categories_sizes":[],"default_left":[1,0,0],"id":139,"left_children":[1,-1,-1],"loss_changes":[7.153701E0,0E0,0E0],"parents":[2147483647,0,0],"right_children":[2,-1,-1],"split_conditions":[2.34375E-1,6.862087E-3,-3.7344724E-3],"split_indices":[24,0,0],"split_type":[0,0,0],"sum_hessian":[4.1714165E1,1.2834988E1,2.8879177E1],"tree_param":{"num_deleted":"0","num_feature":"31","num_nodes":"3","size_leaf_vector":"1"}},{"base_weights":[-1.1830695E-2],"categories":[],"categories_nodes":[],"categories_segments":[],"categories_sizes":[],"default_left":[0],"id":140,"left_children":[-1],"loss_changes":[0E0],"parents":[2147483647],"right_children":[-1],"split_conditions":[-1.4848879E-4],"split_indices":[0],"split_type":[0],"sum_hessian":[3.9534363E1],"tree_param":{"num_deleted":"0","num_feature":"31","num_nodes":"1","size_leaf_vector":"1"}},{"base_weights":[-0E0,-2.2787197E-1,7.6733553E-3,-1.1654533E-2,3.557012E-4],"categories":[],"categories_nodes":[],"categories_segments":[],"categories_sizes":[],"default_left":[0,0,0,0,0],"id":141,"left_children":[1,3,-1,-1,-1],"loss_changes":[7.1752744E0,7.3262897E0,0E0,0E0,0E0],"parents":[2147483647,0,0,1,1],"right_children":[2,4,-1,-1,-1],"split_conditions":[7.2E1,1.4E0,7.6733553E-3,-1.1654533E-2,3.557012E-4],"split_indices":[0,6,0,0,0],"split_type":[0,0,0,0,0],"sum_hessian":[4.38129E1,3.1183437E1,1.2629463E1,8.507326E0,2.2676111E1],"tree_param":{"num_deleted":"0","num_feature":"31","num_nodes":"5","size_leaf_vector":"1"}},{"base_weights":[-6.769239E-2,4.589127E-3,-3.684728E-1,-1.07111605E-2,-0E0],"categories":[],"categories_nodes":[],"categories_segments":[],"categories_sizes":[],"default_left":[0,0,1,0,0],"id":142,"left_children":[1,-1,3,-1,-1],"loss_changes":[6.4086084E0,0E0,5.48299E0,0E0,0E0],"parents":[2147483647,0,0,2,2],"right_children":[2,-1,4,-1,-1],"split_conditions":[1.366E2,4.589127E-3,1.6345861E1,-1.07111605E-2,-0E0],"split_indices":[4,0,27,0,0],"split_type":[0,0,0,0,0],"sum_hessian":[4.514615E1,1.6320498E1,2.8825651E1,1.1305506E1,1.7520145E1],"tree_param":{"num_deleted":"0","num_feature":"31","num_nodes":"5","size_leaf_vector":"1"}},{"base_weights":[-4.5970578E-2,-3.0031127E-1,5.5755484E-3,-8.054772E-3,5.068869E-3],"categories":[],"categories_nodes":[],"categories_segments":[],"categories_sizes":[],"default_left":[0,0,0,0,0],"id":143,"left_children":[1,3,-1,-1,-1],"loss_changes":[5.2158356E0,8.17388E0,0E0,0E0,0E0],"parents":[2147483647,0,0,1,1],"right_children":[2,4,-1,-1,-1],"split_conditions":[2.1539074E-1,9.66E2,5.5755484E-3,-8.054772E-3,5.068869E-3],"split_indices":[16,1,0,0,0],"split_type":[0,0,0,0,0],"sum_hessian":[3.9469543E1,2.8462423E1,1.1007119E1,2.0691816E1,7.7706056E0],"tree_param":{"num_deleted":"0","num_feature":"31","num_nodes":"5","size_leaf_vector":"1"}},{"base_weights":[6.9352607E-3,6.0611274E-3,-3.794089E-3],"categories":[],"categories_nodes":[],"categories_segments":[],"categories_sizes":[],"default_left":[0,0,0],"id":144,"left_children":[1,-1,-1],"loss_changes":[6.7186737E0,0E0,0E0],"parents":[2147483647,0,0],"right_children":[2,-1,-1],"split_conditions":[-5.9E0,6.0611274E-3,-3.794089E-3],"split_indices":[7,0,0],"split_type":[0,0,0],"sum_hessian":[3.9933422E1,1.7165354E1,2.2768068E1],"tree_param":{"num_deleted":"0","num_feature":"31","num_nodes":"3","size_leaf_vector":"1"}},{"base_weights":[-0E0,1.108848E-2,-2.1751912E-3],"categories":[],"categories_nodes":[],"categories_segments":[],"categories_sizes":[],"default_left":[0,0,0],"id":145,"left_children":[1,-1,-1],"loss_changes":[7.3061566E0,0E0,0E0],"parents":[2147483647,0,0],"right_children":[2,-1,-1],"split_conditions":[2.8E1,1.108848E-2,-2.1751912E-3],"split_indices":[12,0,0],"split_type":[0,0,0],"sum_hessian":[4.3588722E1,5.871031E0,3.7717693E1],"tree_param":{"num_deleted":"0","num_feature":"31","num_nodes":"3","size_leaf_vector":"1"}},{"base_weights":[8.737045E-2],"categories":[],"categories_nodes":[],"categories_segments":[],"categories_sizes":[],"default_left":[0],"id":146,"left_children":[-1],"loss_changes":[0E0],"parents":[2147483647],"right_children":[-1],"split_conditions":[1.0965993E-3],"split_indices":[0],"split_type":[0],"sum_hessian":[4.018573E1],"tree_param":{"num_deleted":"0","num_feature":"31","num_nodes":"1","size_leaf_vector":"1"}},{"base_weights":[4.1102722E-2,6.1714086E-3,-3.8694667E-3],"categories":[],"categories_nodes":[],"categories_segments":[],"categories_sizes":[],"default_left":[0,0,0],"id":147,"left_children":[1,-1,-1],"loss_changes":[7.234407E0,0E0,0E0],"parents":[2147483647,0,0],"right_children":[2,-1,-1],"split_conditions":[2.0175E2,6.1714086E-3,-3.8694667E-3],"split_indices":[4,0,0],"split_type":[0,0,0],"sum_hessian":[4.0384712E1,1.9127388E1,2.1257322E1],"tree_param":{"num_deleted":"0","num_feature":"31","num_nodes":"3","size_leaf_vector":"1"}},{"base_weights":[-0E0,-2.1328709E-1,7.2106305E-3,2.7239914E-3,-7.127117E-3],"categories":[],"categories_nodes":[],"categories_segments":[],"categories_sizes":[],"default_left":[0,0,0,0,0],"id":148,"left_children":[1,3,-1,-1,-1],"loss_changes":[6.004614E0,5.6929903E0,0E0,0E0,0E0],"parents":[2147483647,0,0,1,1],"right_children":[2,4,-1,-1,-1],"split_conditions":[7.1E1,1.72E2,7.2106305E-3,2.7239914E-3,-7.127117E-3],"split_indices":[0,4,0,0,0],"split_type":[0,0,0,0,0],"sum_hessian":[4.2155113E1,3.0383146E1,1.1771966E1,1.2195226E1,1.8187922E1],"tree_param":{"num_deleted":"0","num_feature":"31","num_nodes":"5","size_leaf_vector":"1"}},{"base_weights":[9.6929364E-2,-7.3350226E-3,3.526709E-3],"categories":[],"categories_nodes":[],"categories_segments":[],"categories_sizes":[],"default_left":[0,0,0],"id":149,"left_children":[1,-1,-1],"loss_changes":[5.5463724E0,0E0,0E0],"parents":[2147483647,0,0],"right_children":[2,-1,-1],"split_conditions":[4E1,-7.3350226E-3,3.526709E-3],"split_indices":[0,0,0],"split_type":[0,0,0],"sum_hessian":[4.3253098E1,6.591725E0,3.6661373E1],"tree_param":{"num_deleted":"0","num_feature":"31","num_nodes":"3","size_leaf_vector":"1"}},{"base_weights":[-2.6053397E-2,1.1596485E-2,-4.1261178E-1,-8.192133E-3,1.6323655E-3],"categories":[],"categories_nodes":[],"categories_segments":[],"categories_sizes":[],"default_left":[1,0,0,0,0],"id":150,"left_children":[1,-1,3,-1,-1],"loss_changes":[1.6757017E1,0E0,5.48216E0,0E0,0E0],"parents":[2147483647,0,0,2,2],"right_children":[2,-1,4,-1,-1],"split_conditions":[2.2899306E-1,1.1596485E-2,7.2E1,-8.192133E-3,1.6323655E-3],"split_indices":[24,0,0,0,0],"split_type":[0,0,0,0,0],"sum_hessian":[4.3678726E1,1.0743199E1,3.2935528E1,2.443659E1,8.498938E0],"tree_param":{"num_deleted":"0","num_feature":"31","num_nodes":"5","size_leaf_vector":"1"}},{"base_weights":[-0E0,-4.71165E-3,3.2633433E-1,9.10772E-3,-2.6848586E-3],"categories":[],"categories_nodes":[],"categories_segments":[],"categories_sizes":[],"default_left":[0,0,0,0,0],"id":151,"left_children":[1,-1,3,-1,-1],"loss_changes":[5.517335E0,0E0,5.9089212E0,0E0,0E0],"parents":[2147483647,0,0,2,2],"right_children":[2,-1,4,-1,-1],"split_conditions":[2.3E0,-4.71165E-3,3.5E1,9.10772E-3,-2.6848586E-3],"split_indices":[6,0,13,0,0],"split_type":[0,0,0,0,0],"sum_hessian":[4.0720352E1,2.0193815E1,2.0526539E1,1.2980847E1,7.5456924E0],"tree_param":{"num_deleted":"0","num_feature":"31","num_nodes":"5","size_leaf_vector":"1"}},{"base_weights":[8.397427E-2,-9.030035E-3,2.4764428E-1,-0E0,8.381687E-3],"categories":[],"categories_nodes":[],"categories_segments":[],"categories_sizes":[],"default_left":[0,0,0,0,0],