{"learner":{"attributes":{"scikit_learn":"{\"_estimator_type\": \"classifier\"}"},"feature_names":["WIEK","Interleukina 6","Prokalcytonina","MAP 1sza doba","pao2/fio2 1sza doba","Glukoza (1. gaz. 1sza doba)","Lac (1. gaz. 1sza doba)","BE (1. gaz. 1sza doba)","LA (1. gaz. 1 sza doba)","SOFA - punktacja","Sepsa (0/1)","temperatura ciała przy przyjęciu (TISS nr 1)","sodium chloride difference tiss 1","sodium chloride difference tiss 2","sodium chloride difference tiss 3","akcja serca przyjęcie (TISS nr 1)","Wentylacja mechaniczna TAK=1, NIE =0 (TISS nr 1)","WIEK2","infection","organs","LA+"],"feature_types":["int","float","float","float","float","float","float","float","float","int","i","float","int","int","int","int","int","int","float","float","float"],"gradient_booster":{"model":{"gbtree_model_param":{"num_parallel_tree":"1","num_trees":"59"},"iteration_indptr":[0,1,2,3,4,5,6,7,8,9,10,11,12,13,14,15,16,17,18,19,20,21,22,23,24,25,26,27,28,29,30,31,32,33,34,35,36,37,38,39,40,41,42,43,44,45,46,47,48,49,50,51,52,53,54,55,56,57,58,59],"tree_info":[0,0,0,0,0,0,0,0,0,0,0,0,0,0,0,0,0,0,0,0,0,0,0,0,0,0,0,0,0,0,0,0,0,0,0,0,0,0,0,0,0,0,0,0,0,0,0,0,0,0,0,0,0,0,0,0,0,0,0],"trees":[{"base_weights":[8.111512E-3,-6.89317E-1,7.964864E-1,-9.892924E-1,6.1240816E-1,1.7297115E0,-1.8438084E-1,3.5050705E-1,-1.1226418E0,1.2740641E0,-5.078774E-1,2.336639E-2,7.591556E-1,-6.085972E-1,5.1317316E-1,2.7903542E-1,-6.7054994E-2,-1.5121765E0,-6.319024E-1,5.9696156E-1,1.059902E-1,-6.7054994E-2,-2.4010019E-1,-1.0633768E0,6.5807796E-1,-6.31368E-1,-6.7054994E-2,3.17983E-1,-9.1987514E-1,-1.3730866E0,-2.8455824E-1,5.1792264E-1,-1.347278E-1,3.3253634E-1,-1.347278E-1,-4.6504906E-1,-2.6225774E-2,-1.9010556E-1,-6.087746E-1,2.3471136E-1,-4.4623727E-1],"categories":[],"categories_nodes":[],"categories_segments":[],"categories_sizes":[],"default_left":[0,0,0,0,0,0,0,0,0,0,0,0,0,0,0,0,0,0,0,0,0,0,0,0,0,0,0,0,0,0,0,0,0,0,0,0,0,0,0,0,0],"id":0,"left_children":[1,3,5,7,9,11,13,15,17,19,21,-1,-1,23,-1,-1,-1,25,27,-1,-1,-1,-1,29,31,-1,-1,33,35,37,39,-1,-1,-1,-1,-1,-1,-1,-1,-1,-1],"loss_changes":[3.80004E1,1.4927925E1,3.001006E1,5.787422E0,6.196638E0,6.0871964E0,1.1468741E1,7.943667E-1,4.338787E0,8.859787E-1,2.1917582E-2,0E0,0E0,8.605707E0,0E0,0E0,0E0,1.9141617E0,4.1148787E0,0E0,0E0,0E0,0E0,2.1373177E0,3.3327227E0,0E0,0E0,1.7213236E0,2.5015764E0,4.651146E-1,3.9439893E0,0E0,0E0,0E0,0E0,0E0,0E0,0E0,0E0,0E0,0E0],"parents":[2147483647,0,0,1,1,2,2,3,3,4,4,5,5,6,6,7,7,8,8,9,9,10,10,13,13,17,17,18,18,23,23,24,24,27,27,28,28,29,29,30,30],"right_children":[2,4,6,8,10,12,14,16,18,20,22,-1,-1,24,-1,-1,-1,26,28,-1,-1,-1,-1,30,32,-1,-1,34,36,38,40,-1,-1,-1,-1,-1,-1,-1,-1,-1,-1],"split_conditions":[3.1E0,1.15E2,3.3E1,-9.7E0,5E-1,4E1,7.7E1,9.4E0,7.597E1,9.1666664E1,6E1,2.336639E-2,7.591556E-1,9.9E0,5.1317316E-1,2.7903542E-1,-6.7054994E-2,8.1E1,1.288E2,5.9696156E-1,1.059902E-1,-6.7054994E-2,-2.4010019E-1,6.1E2,1.999E3,-6.31368E-1,-6.7054994E-2,-2E0,1.4E1,3.5E1,3.57E3,5.1792264E-1,-1.347278E-1,3.3253634E-1,-1.347278E-1,-4.6504906E-1,-2.6225774E-2,-1.9010556E-1,-6.087746E-1,2.3471136E-1,-4.4623727E-1],"split_indices":[6,15,13,7,20,0,0,5,1,3,0,0,0,6,0,0,0,0,1,0,0,0,0,1,1,0,0,7,9,13,1,0,0,0,0,0,0,0,0,0,0],"split_type":[0,0,0,0,0,0,0,0,0,0,0,0,0,0,0,0,0,0,0,0,0,0,0,0,0,0,0,0,0,0,0,0,0,0,0,0,0,0,0,0,0],"sum_hessian":[6.711382E1,3.567761E1,3.1436214E1,2.9190771E1,6.486838E0,1.5718107E1,1.5718107E1,2.4949377E0,2.6695833E1,3.9919002E0,2.4949377E0,1.9959501E0,1.3722157E1,1.2724182E1,2.993925E0,1.2474688E0,1.2474688E0,1.3722157E1,1.2973676E1,2.7444315E0,1.2474688E0,1.2474688E0,1.2474688E0,9.480763E0,3.243419E0,1.2474689E1,1.2474688E0,2.993925E0,9.979751E0,6.2373443E0,3.243419E0,1.7464564E0,1.4969625E0,1.4969625E0,1.4969625E0,7.235319E0,2.7444315E0,1.7464564E0,4.4908876E0,1.7464564E0,1.4969625E0],"tree_param":{"num_deleted":"0","num_feature":"21","num_nodes":"41","size_leaf_vector":"1"}},{"base_weights":[-9.211871E-2,8.3333963E-1,-3.1704754E-1,1.2115117E0,-4.5751974E-1,-1.0412782E0,-1.4314489E-1,4.95342E-1,1.4589055E-1,8.270193E-2,-3.6340675E-1,9.4783336E-2,-4.8020443E-1,1.7597193E-2,-9.425623E-1,-1.03605606E-1,4.82796E-1,-1.1647453E0,-3.2723956E-2,-3.3527705E-1,2.6120016E-1,-5.6291944E-1,-1.01718724E-1,-2.0225053E-1,2.721848E-1,-3.6262572E-1,2.470454E-1],"categories":[],"categories_nodes":[],"categories_segments":[],"categories_sizes":[],"default_left":[0,0,0,0,0,0,0,0,0,0,0,0,0,0,0,0,0,0,0,0,0,0,0,0,0,0,0],"id":1,"left_children":[1,3,5,7,9,11,13,-1,-1,-1,-1,-1,-1,15,17,19,-1,21,-1,23,25,-1,-1,-1,-1,-1,-1],"loss_changes":[1.4172507E1,7.0661993E0,6.7118607E0,7.271004E-2,1.3966799E0,2.8833609E0,5.810231E0,0E0,0E0,0E0,0E0,0E0,0E0,5.8422556E0,1.3451052E0,3.1277604E0,0E0,1.136116E0,0E0,4.6554093E0,7.0805597E0,0E0,0E0,0E0,0E0,0E0,0E0],"parents":[2147483647,0,0,1,1,2,2,3,3,4,4,5,5,6,6,13,13,14,14,15,15,17,17,19,19,20,20],"right_children":[2,4,6,8,10,12,14,-1,-1,-1,-1,-1,-1,16,18,20,-1,22,-1,24,26,-1,-1,-1,-1,-1,-1],"split_conditions":[2.3E1,-5.8E0,4E0,3.6E1,4.66E2,5.6666668E1,3.68E1,4.95342E-1,1.4589055E-1,8.270193E-2,-3.6340675E-1,9.4783336E-2,-4.8020443E-1,1.6E1,3.7333334E2,4E-1,4.82796E-1,1.26E1,-3.2723956E-2,1.15E2,-1.18E1,-5.6291944E-1,-1.01718724E-1,-2.0225053E-1,2.721848E-1,-3.6262572E-1,2.470454E-1],"split_indices":[14,7,17,12,4,3,11,0,0,0,0,0,0,9,4,20,0,8,0,15,7,0,0,0,0,0,0],"split_type":[0,0,0,0,0,0,0,0,0,0,0,0,0,0,0,0,0,0,0,0,0,0,0,0,0,0,0],"sum_hessian":[6.5814705E1,1.233951E1,5.3475197E1,9.591143E0,2.7483668E0,9.388474E0,4.408672E1,8.441161E0,1.1499817E0,1.3730099E0,1.3753569E0,1.1944859E0,8.193989E0,3.7520344E1,6.566379E0,3.497211E1,2.548232E0,4.932789E0,1.6335902E0,2.1438465E1,1.3533645E1,3.298069E0,1.6347198E0,1.8613699E1,2.8247666E0,2.8727849E0,1.066086E1],"tree_param":{"num_deleted":"0","num_feature":"21","num_nodes":"27","size_leaf_vector":"1"}},{"base_weights":[1.0898536E-1,8.460728E-1,-5.428516E-2,-2.2047564E-1,1.0507988E0,-2.2879659E-1,3.9250824E-1,4.987331E-1,4.0991828E-1,-7.165069E-1,1.2204758E-1,8.461743E-1,-6.5028286E-1,-5.5888955E-2,3.3199462E-1,-8.9088213E-1,3.7709004E-1,4.4984096E-1,-9.325207E-1,-1.1840392E-1,1.0501239E0,2.1532038E-1,-5.108545E-1,-1.0295026E0,2.1603714E-1,-3.6069605E-2,7.927565E-1,-8.4039114E-2,-4.8766515E-1,1.252109E0,7.479317E-2,-5.084711E-1,-2.0787472E-1,2.4441604E-1,-2.8263375E-1,3.9372075E-1,-1.3283928E-1,7.2757445E-2,6.119371E-1],"categories":[],"categories_nodes":[],"categories_segments":[],"categories_sizes":[],"default_left":[0,0,0,0,0,0,0,0,0,0,0,0,0,0,0,0,0,0,0,0,0,0,0,0,0,0,0,0,0,0,0,0,0,0,0,0,0,0,0],"id":2,"left_children":[1,3,5,-1,7,9,11,-1,13,15,17,19,21,-1,-1,23,-1,25,27,-1,29,-1,-1,31,-1,33,35,-1,-1,37,-1,-1,-1,-1,-1,-1,-1,-1,-1],"loss_changes":[7.977066E0,4.0702124E0,4.3697886E0,0E0,1.0833578E0,6.949993E0,8.01844E0,0E0,1.1906779E0,5.8401613E0,8.778188E0,3.0031729E0,5.0002913E0,0E0,0E0,3.7518215E0,0E0,3.2146907E0,1.1242309E0,0E0,1.4811363E0,0E0,0E0,1.3404312E0,0E0,4.5266056E0,3.1490703E0,0E0,0E0,2.3965359E0,0E0,0E0,0E0,0E0,0E0,0E0,0E0,0E0,0E0],"parents":[2147483647,0,0,1,1,2,2,4,4,5,5,6,6,8,8,9,9,10,10,11,11,12,12,15,15,17,17,18,18,20,20,23,23,25,25,26,26,29,29],"right_children":[2,4,6,-1,8,10,12,-1,14,16,18,20,22,-1,-1,24,-1,26,28,-1,30,-1,-1,32,-1,34,36,-1,-1,38,-1,-1,-1,-1,-1,-1,-1,-1,-1],"split_conditions":[2.3E1,1.2E0,7.1E1,-2.2047564E-1,2.75E2,1.196E2,-8E-1,4.987331E-1,1.91E0,4E0,1.6E1,2.9E1,2.073E1,-5.5888955E-2,3.3199462E-1,6.333333E2,3.7709004E-1,3.63E1,3.63E1,-1.1840392E-1,3.7E1,2.1532038E-1,-5.108545E-1,4.83E2,2.1603714E-1,3.3E1,1.2E2,-8.4039114E-2,-4.8766515E-1,9.1E-1,7.479317E-2,-5.084711E-1,-2.0787472E-1,2.4441604E-1,-2.8263375E-1,3.9372075E-1,-1.3283928E-1,7.2757445E-2,6.119371E-1],"split_indices":[14,6,0,0,4,18,7,0,2,20,8,13,18,0,0,4,0,11,11,0,14,0,0,19,0,13,15,0,0,2,0,0,0,0,0,0,0,0,0],"split_type":[0,0,0,0,0,0,0,0,0,0,0,0,0,0,0,0,0,0,0,0,0,0,0,0,0,0,0,0,0,0,0,0,0,0,0,0,0,0,0],"sum_hessian":[6.490353E1,1.10112095E1,5.3892315E1,1.1696271E0,9.841582E0,3.9105972E1,1.47863455E1,6.4940596E0,3.3475225E0,1.5925547E1,2.3180424E1,1.0435104E1,4.351241E0,1.7901527E0,1.5573698E0,1.4860339E1,1.0652072E0,1.812121E1,5.059213E0,1.4969589E0,8.938146E0,1.6043452E0,2.7468958E0,1.382369E1,1.036649E0,7.8676224E0,1.0253589E1,2.0846303E0,2.974583E0,6.8625855E0,2.07556E0,7.8020935E0,6.021597E0,4.0555534E0,3.8120687E0,8.680558E0,1.5730302E0,1.9573851E0,4.9052005E0],"tree_param":{"num_deleted":"0","num_feature":"21","num_nodes":"39","size_leaf_vector":"1"}},{"base_weights":[-3.172156E-2,-3.14884E-1,3.4255818E-1,-4.9511242E-1,1.44766895E-2,5.922042E-1,-4.9265E-1,1.94424E-1,-7.0183253E-1,-5.912082E-1,3.9642936E-1,-1.8934576E-1,7.213365E-1,1.6110794E-1,-9.6564066E-1,-5.2342993E-1,9.434685E-1,-3.873699E-1,-1.1589698E0,1.5926656E-1,-3.7252584E-1,-1.8992484E-1,6.3435924E-1,1.0637255E0,4.2297238E-1,-2.0018918E-2,-4.6710378E-1,1.0265068E-1,-3.8176563E-1,1.0873536E-1,4.486818E-1,-6.2266225E-1,2.760478E-1,-7.365732E-2,-5.4632926E-1,3.8740146E-1,2.3464383E-1,8.018771E-2,4.9118572E-1,7.902602E-1,-1.5735267E-1,1.291382E-1,-3.5236916E-1,-2.4076289E-1,4.4384798E-1,-8.7792605E-2,2.5556248E-1,-9.90551E-4,3.7901673E-1,-2.3135078E-1,2.757526E-1],"categories":[],"categories_nodes":[],"categories_segments":[],"categories_sizes":[],"default_left":[0,0,0,0,0,0,0,0,0,0,0,0,0,0,0,0,0,0,0,0,0,0,0,0,0,0,0,0,0,0,0,0,0,0,0,0,0,0,0,0,0,0,0,0,0,0,0,0,0,0,0],"id":3,"left_children":[1,3,5,7,9,11,13,15,17,19,21,-1,23,-1,25,27,29,31,33,-1,-1,-1,35,37,39,-1,-1,-1,-1,-1,-1,41,43,-1,-1,-1,45,-1,-1,47,49,-1,-1,-1,-1,-1,-1,-1,-1,-1,-1],"loss_changes":[6.5636187E0,2.0965862E0,5.86193E0,3.3833165E0,3.3391263E0,3.280323E0,3.271212E0,3.7398992E0,2.1014452E0,2.4439218E0,2.1684198E0,0E0,1.5091753E0,0E0,9.4947433E-1,1.6032324E0,1.3952494E-1,2.0470934E0,1.3374109E0,0E0,0E0,0E0,8.3526444E-1,1.1525631E0,2.6624222E0,0E0,0E0,0E0,0E0,0E0,0E0,2.7830617E0,3.6788645E0,0E0,0E0,0E0,1.0858842E0,0E0,0E0,1.0922132E0,2.4873428E0,0E0,0E0,0E0,0E0,0E0,0E0,0E0,0E0,0E0,0E0],"parents":[2147483647,0,0,1,1,2,2,3,3,4,4,5,5,6,6,7,7,8,8,9,9,10,10,12,12,14,14,15,15,16,16,17,17,18,18,22,22,23,23,24,24,31,31,32,32,36,36,39,39,40,40],"right_children":[2,4,6,8,10,12,14,16,18,20,22,-1,24,-1,26,28,30,32,34,-1,-1,-1,36,38,40,-1,-1,-1,-1,-1,-1,42,44,-1,-1,-1,46,-1,-1,48,50,-1,-1,-1,-1,-1,-1,-1,-1,-1,-1],"split_conditions":[1.2E1,2.5E0,3.6E1,1.105E2,6.5E1,3.8E1,1.5E0,7.24E1,1.7E0,3.2E1,5.1E1,-1.8934576E-1,3.05E0,1.6110794E-1,3.61E1,3E1,3.2E1,1.3E0,3.61E1,1.5926656E-1,-3.7252584E-1,-1.8992484E-1,1.03E0,1.3E1,3.3E1,-2.0018918E-2,-4.6710378E-1,1.0265068E-1,-3.8176563E-1,1.0873536E-1,4.486818E-1,3.61E1,3.64E1,-7.365732E-2,-5.4632926E-1,3.8740146E-1,1E1,8.018771E-2,4.9118572E-1,3.13225E2,3.427E3,1.291382E-1,-3.5236916E-1,-2.4076289E-1,4.4384798E-1,-8.7792605E-2,2.5556248E-1,-9.90551E-4,3.7901673E-1,-2.3135078E-1,2.757526E-1],"split_indices":[9,6,12,4,3,0,1,4,6,13,0,0,2,0,11,12,13,6,11,0,0,0,2,9,13,0,0,0,0,0,0,11,11,0,0,0,9,0,0,19,1,0,0,0,0,0,0,0,0,0,0],"split_type":[0,0,0,0,0,0,0,0,0,0,0,0,0,0,0,0,0,0,0,0,0,0,0,0,0,0,0,0,0,0,0,0,0,0,0,0,0,0,0,0,0,0,0,0,0,0,0,0,0,0,0],"sum_hessian":[5.9913692E1,3.4199017E1,2.5714674E1,2.1778448E1,1.2420569E1,2.0021225E1,5.693449E0,5.036883E0,1.6741566E1,4.591577E0,7.828992E0,1.8437928E0,1.8177433E1,1.994133E0,3.6993163E0,2.7257946E0,2.311088E0,1.1013092E1,5.7284737E0,1.199857E0,3.39172E0,1.4361136E0,6.3928785E0,7.2697763E0,1.0907656E1,1.0070907E0,2.6922255E0,1.1586586E0,1.5671359E0,1.1161463E0,1.1949418E0,8.175091E0,2.8380015E0,1.5165536E0,4.21192E0,2.5725782E0,3.8203E0,1.7542632E0,5.515513E0,6.4583874E0,4.4492683E0,1.8317972E0,6.3432937E0,1.534716E0,1.3032856E0,2.050976E0,1.7693242E0,1.4041305E0,5.054257E0,3.1645932E0,1.2846752E0],"tree_param":{"num_deleted":"0","num_feature":"21","num_nodes":"51","size_leaf_vector":"1"}},{"base_weights":[-1.0722756E-2,6.6023874E-1,-1.966333E-1,-2.3764092E-1,8.7625307E-1,6.39501E-1,-3.3634168E-1,1.0581659E0,-3.0219937E-2,-1.3843255E-1,1.0332761E0,-5.721898E-1,3.3452034E-2,1.4030045E-1,4.6555692E-1,1.00981124E-1,4.8958653E-1,-6.8187606E-1,1.6853367E-1,-4.6115014E-1,5.777169E-1,-8.415834E-1,8.8357E-3,-3.5313132E-1,-5.0584864E-2,-1.2287372E-1,8.2464516E-1,-1.0891913E-1,-4.107172E-1,2.158771E-1,-2.2410803E-1,2.7642527E-1,-3.058667E-1,-1.4299013E-3,4.4757077E-1],"categories":[],"categories_nodes":[],"categories_segments":[],"categories_sizes":[],"default_left":[0,0,0,0,0,0,0,0,0,0,0,0,0,0,0,0,0,0,0,0,0,0,0,0,0,0,0,0,0,0,0,0,0,0,0],"id":4,"left_children":[1,3,5,-1,7,9,11,13,-1,-1,15,17,19,-1,-1,-1,-1,21,-1,23,25,27,29,-1,31,-1,33,-1,-1,-1,-1,-1,-1,-1,-1],"loss_changes":[6.808317E0,3.7884178E0,5.202402E0,0E0,1.9106197E0,2.8988433E0,3.2667766E0,4.3199062E-1,0E0,0E0,5.2529955E-1,2.8092365E0,4.424276E0,0E0,0E0,0E0,0E0,2.3171902E0,0E0,1.540632E0,1.9812071E0,1.7536392E0,1.8928367E0,0E0,3.67739E0,0E0,1.7297082E0,0E0,0E0,0E0,0E0,0E0,0E0,0E0,0E0],"parents":[2147483647,0,0,1,1,2,2,4,4,5,5,6,6,7,7,10,10,11,11,12,12,17,17,19,19,20,20,21,21,22,22,24,24,26,26],"right_children":[2,4,6,-1,8,10,12,14,-1,-1,16,18,20,-1,-1,-1,-1,22,-1,24,26,28,30,-1,32,-1,34,-1,-1,-1,-1,-1,-1,-1,-1],"split_conditions":[2.8E1,3.3E1,6.79E1,-2.3764092E-1,4.6666666E2,6E0,8.3333336E1,5.8E-1,-3.0219937E-2,-1.3843255E-1,1.22E1,1.6E1,6.6E1,1.4030045E-1,4.6555692E-1,1.00981124E-1,4.8958653E-1,1E0,1.6853367E-1,4.76242E1,2.28E2,8.5E0,1.33E1,-3.5313132E-1,1.99E0,-1.2287372E-1,9.7E0,-1.0891913E-1,-4.107172E-1,2.158771E-1,-2.2410803E-1,2.7642527E-1,-3.058667E-1,-1.4299013E-3,4.4757077E-1],"split_indices":[14,0,4,0,4,5,3,2,0,0,8,9,0,0,0,0,0,10,0,18,19,8,8,0,2,0,8,0,0,0,0,0,0,0,0],"split_type":[0,0,0,0,0,0,0,0,0,0,0,0,0,0,0,0,0,0,0,0,0,0,0,0,0,0,0,0,0,0,0,0,0,0,0],"sum_hessian":[5.2539814E1,1.08457E1,4.169411E1,1.3096317E0,9.536068E0,5.4570527E0,3.623706E1,7.917094E0,1.618974E0,1.5740312E0,3.8830214E0,2.1791496E1,1.4445564E1,1.9123893E0,6.004705E0,1.3622432E0,2.5207782E0,1.9938437E1,1.8530585E0,7.6480694E0,6.797495E0,1.6016623E1,3.9218152E0,3.082079E0,4.5659904E0,1.4111001E0,5.3863945E0,5.0641203E0,1.0952501E1,2.0547378E0,1.8670774E0,2.260937E0,2.3050537E0,1.8011466E0,3.585248E0],"tree_param":{"num_deleted":"0","num_feature":"21","num_nodes":"35","size_leaf_vector":"1"}},{"base_weights":[1.0604006E-1,6.625772E-1,-3.7441682E-2,-2.6495293E-1,9.6264946E-1,7.124362E-1,-1.577639E-1,-3.109198E-1,1.4339189E-1,1.1528835E0,-7.52594E-2,1.2342213E0,-1.5461574E-1,3.3522147E-1,-3.4269485E-1,1.0799827E-1,4.9589485E-1,1.1611836E-1,5.760389E-1,5.4427475E-1,-3.2400906E-1,-9.878584E-1,-8.626716E-2,-9.585273E-2,7.1866435E-1,-4.454045E-1,-1.6889652E-2,-6.640568E-1,1.1920823E-1,-5.329985E-2,3.594397E-1,-3.5555077E-1,5.7431743E-2,1.9178255E-1,-9.130112E-2],"categories":[],"categories_nodes":[],"categories_segments":[],"categories_sizes":[],"default_left":[0,0,0,0,0,0,0,0,0,0,0,0,0,0,0,0,0,0,0,0,0,0,0,0,0,0,0,0,0,0,0,0,0,0,0],"id":5,"left_children":[1,3,5,7,9,11,13,-1,-1,15,-1,17,-1,19,21,-1,-1,-1,-1,23,-1,25,27,-1,29,-1,-1,31,33,-1,-1,-1,-1,-1,-1],"loss_changes":[4.184853E0,3.2419372E0,3.93484E0,1.4487998E0,2.0539346E0,3.9883637E0,3.5177975E0,0E0,0E0,4.2572498E-1,0E0,5.6315756E-1,0E0,3.0638533E0,4.4871483E0,0E0,0E0,0E0,0E0,1.5106409E0,0E0,1.1045213E0,2.557232E0,0E0,1.5651832E0,0E0,0E0,1.277797E0,2.265872E0,0E0,0E0,0E0,0E0,0E0,0E0],"parents":[2147483647,0,0,1,1,2,2,3,3,4,4,5,5,6,6,9,9,11,11,13,13,14,14,19,19,21,21,22,22,24,24,27,27,28,28],"right_children":[2,4,6,8,10,12,14,-1,-1,16,-1,18,-1,20,22,-1,-1,-1,-1,24,-1,26,28,-1,30,-1,-1,32,34,-1,-1,-1,-1,-1,-1],"split_conditions":[5.5E1,1.06E1,1.5E-1,7.7E1,1.7766E4,9.5E1,1.0471429E2,-3.109198E-1,1.4339189E-1,1.23E1,-7.52594E-2,3.1E1,-1.5461574E-1,4.1E1,5.1E1,1.0799827E-1,4.9589485E-1,1.1611836E-1,5.760389E-1,-1.09E1,-3.2400906E-1,4.5E0,6.6666664E1,-9.585273E-2,4.5E-1,-4.454045E-1,-1.6889652E-2,1.52E1,3.64E1,-5.329985E-2,3.594397E-1,-3.5555077E-1,5.7431743E-2,1.9178255E-1,-9.130112E-2],"split_indices":[3,8,2,15,1,3,4,0,0,8,0,12,0,14,0,0,0,0,0,7,0,6,3,0,2,0,0,8,11,0,0,0,0,0,0],"split_type":[0,0,0,0,0,0,0,0,0,0,0,0,0,0,0,0,0,0,0,0,0,0,0,0,0,0,0,0,0,0,0,0,0,0,0],"sum_hessian":[5.1096344E1,9.73159E0,4.1364754E1,2.4073749E0,7.324215E0,5.0390534E0,3.6325703E1,1.1639125E0,1.2434623E0,6.291801E0,1.032414E0,3.351613E0,1.6874403E0,9.68771E0,2.663799E1,1.1717663E0,5.1200347E0,1.1611102E0,2.190503E0,8.67043E0,1.017279E0,6.765026E0,1.9872965E1,1.4919899E0,7.1784406E0,5.6163864E0,1.1486396E0,4.627838E0,1.5245127E1,1.454901E0,5.7235394E0,3.441104E0,1.1867343E0,7.2224855E0,8.022641E0],"tree_param":{"num_deleted":"0","num_feature":"21","num_nodes":"35","size_leaf_vector":"1"}},{"base_weights":[-2.096712E-2,7.532992E-1,-1.61616E-1,4.1211185E-1,-3.6601536E-2,7.3762015E-2,-3.7183455E-1,-7.0745784E-1,2.7143285E-1,-4.8883212E-1,4.2981443E-1,-1.3374659E-2,-4.0762526E-1,6.4958066E-1,-2.1948175E-1,-3.0351257E-2,-6.586782E-1,-1.276588E-1,4.0147594E-1,8.262074E-1,-1.5504932E-1,2.3667952E-1,-5.338953E-1,5.586626E-1,-6.905142E-1,-4.4152683E-1,-3.7124202E-1,-3.173929E-2,4.030382E-1,1.0890398E-2,-3.610806E-1,-1.11010164E-1,3.8310853E-1,-3.3872148E-1,-5.455615E-2,4.2879853E-2,-2.3490085E-1],"categories":[],"categories_nodes":[],"categories_segments":[],"categories_sizes":[],"default_left":[0,0,0,0,0,0,0,0,0,0,0,0,0,0,0,0,0,0,0,0,0,0,0,0,0,0,0,0,0,0,0,0,0,0,0,0,0],"id":6,"left_children":[1,3,5,-1,-1,7,9,11,13,15,17,-1,-1,19,21,23,25,-1,-1,27,-1,-1,29,31,33,-1,35,-1,-1,-1,-1,-1,-1,-1,-1,-1,-1],"loss_changes":[5.4015408E0,2.0804777E0,2.0983586E0,0E0,0E0,3.3700042E0,2.29918E0,9.8036504E-1,3.325623E0,1.5300212E0,1.8774786E0,0E0,0E0,2.1694493E0,2.4619288E0,2.8856015E0,1.5616446E0,0E0,0E0,1.7689481E0,0E0,0E0,1.4629879E0,1.7030182E0,2.2317255E-1,0E0,1.2450979E0,0E0,0E0,0E0,0E0,0E0,0E0,0E0,0E0,0E0,0E0],"parents":[2147483647,0,0,1,1,2,2,5,5,6,6,7,7,8,8,9,9,10,10,13,13,14,14,15,15,16,16,19,19,22,22,23,23,24,24,26,26],"right_children":[2,4,6,-1,-1,8,10,12,14,16,18,-1,-1,20,22,24,26,-1,-1,28,-1,-1,30,32,34,-1,36,-1,-1,-1,-1,-1,-1,-1,-1,-1,-1],"split_conditions":[2.3E1,-5.8E0,8.2E0,4.1211185E-1,-3.6601536E-2,-1.01E1,7.5E1,1.1E2,-2E0,-7.4E0,1E1,-1.3374659E-2,-4.0762526E-1,8E1,3.61E1,3.4E1,3.62E1,-1.276588E-1,4.0147594E-1,4.6E1,-1.5504932E-1,2.3667952E-1,5.4E1,-1.09E1,3.2E1,-4.4152683E-1,5.6E1,-3.173929E-2,4.030382E-1,1.0890398E-2,-3.610806E-1,-1.11010164E-1,3.8310853E-1,-3.3872148E-1,-5.455615E-2,4.2879853E-2,-2.3490085E-1],"split_indices":[14,7,5,0,0,7,0,15,7,7,9,0,0,0,11,13,11,0,0,0,0,0,0,7,12,0,0,0,0,0,0,0,0,0,0,0,0],"split_type":[0,0,0,0,0,0,0,0,0,0,0,0,0,0,0,0,0,0,0,0,0,0,0,0,0,0,0,0,0,0,0,0,0,0,0,0,0],"sum_hessian":[4.7483112E1,6.6298995E0,4.085321E1,4.6855597E0,1.9443399E0,1.9579504E1,2.1273706E1,3.4329774E0,1.6146526E1,1.8904837E1,2.3688707E0,1.5235963E0,1.9093813E0,8.938252E0,7.208274E0,5.428876E0,1.3475961E1,1.2505679E0,1.118303E0,7.8306437E0,1.1076087E0,1.7262969E0,5.481977E0,2.9502974E0,2.4785786E0,3.9600427E0,9.515918E0,1.5866857E0,6.243958E0,2.6445966E0,2.8373804E0,1.1011429E0,1.8491546E0,1.4276E0,1.0509787E0,3.2724316E0,6.2434864E0],"tree_param":{"num_deleted":"0","num_feature":"21","num_nodes":"37","size_leaf_vector":"1"}},{"base_weights":[-1.3187184E-3,1.1019956E-1,-6.579171E-1,-5.192937E-2,6.100267E-1,1.9697241E-1,-4.2258084E-1,3.437975E-1,-2.6947215E-1,7.808727E-1,-1.1709281E-1,-1.4953914E-1,2.73376E-1,3.507123E-1,1.3197133E-1,-5.581463E-1,2.0220673E-1,9.661839E-1,3.7441324E-2,-2.629516E-1,5.963802E-1,1.6639316E-2,-1.1179308E0,6.521585E-1,-3.4487012E-1,1.0983046E0,7.251052E-2,1.2747243E-1,-2.7400225E-1,3.7617245E-1,4.056638E-3,-2.64635E-1,2.0285332E-1,-1.8142137E-1,-4.9595156E-1,4.3047336E-1,-6.744582E-2,-2.3286307E-1,4.7544453E-2,1.1725255E-1,4.809014E-1],"categories":[],"categories_nodes":[],"categories_segments":[],"categories_sizes":[],"default_left":[0,0,0,0,0,0,0,0,0,0,0,0,0,0,0,0,0,0,0,0,0,0,0,0,0,0,0,0,0,0,0,0,0,0,0,0,0,0,0,0,0],"id":7,"left_children":[1,3,5,7,9,11,-1,13,15,17,-1,-1,-1,-1,19,21,23,25,-1,27,29,31,33,35,37,39,-1,-1,-1,-1,-1,-1,-1,-1,-1,-1,-1,-1,-1,-1,-1],"loss_changes":[3.393509E0,3.2428768E0,2.6795876E0,2.7478106E0,1.7580562E0,1.1803812E0,0E0,1.2260514E0,2.8990722E0,9.875231E-1,0E0,0E0,0E0,0E0,1.884515E0,4.188469E0,2.317952E0,4.7436E-1,0E0,1.7399073E0,9.97156E-1,2.952457E0,7.9387665E-2,2.0732217E0,6.0584396E-1,2.2553015E-1,0E0,0E0,0E0,0E0,0E0,0E0,0E0,0E0,0E0,0E0,0E0,0E0,0E0,0E0,0E0],"parents":[2147483647,0,0,1,1,2,2,3,3,4,4,5,5,7,7,8,8,9,9,14,14,15,15,16,16,17,17,19,19,20,20,21,21,22,22,23,23,24,24,25,25],"right_children":[2,4,6,8,10,12,-1,14,16,18,-1,-1,-1,-1,20,22,24,26,-1,28,30,32,34,36,38,40,-1,-1,-1,-1,-1,-1,-1,-1,-1,-1,-1,-1,-1,-1,-1],"split_conditions":[1E2,8.5E1,5.1E1,6E1,3.4E0,1.81E2,-4.2258084E-1,1.5E0,3.1E0,3.0933334E2,-1.1709281E-1,-1.4953914E-1,2.73376E-1,3.507123E-1,1.59E1,1.8E0,2.1666667E2,2.3E0,3.7441324E-2,3.61E1,1.8425E2,1.36024E1,7.6E-1,4.89E0,7.44E0,3.2E1,7.251052E-2,1.2747243E-1,-2.7400225E-1,3.7617245E-1,4.056638E-3,-2.64635E-1,2.0285332E-1,-1.8142137E-1,-4.9595156E-1,4.3047336E-1,-6.744582E-2,-2.3286307E-1,4.7544453E-2,1.1725255E-1,4.809014E-1],"split_indices":[3,3,0,3,7,1,0,6,6,4,0,0,0,0,8,6,4,20,0,11,4,18,2,2,2,14,0,0,0,0,0,0,0,0,0,0,0,0,0,0,0],"split_type":[0,0,0,0,0,0,0,0,0,0,0,0,0,0,0,0,0,0,0,0,0,0,0,0,0,0,0,0,0,0,0,0,0,0,0,0,0,0,0,0,0],"sum_hessian":[4.4354866E1,3.86266E1,5.72827E0,2.9842644E1,8.783953E0,2.0935085E0,3.6347618E0,1.03800955E1,1.946255E1,7.517283E0,1.2666695E0,1.0857326E0,1.0077758E0,1.9600186E0,8.420076E0,1.1959716E1,7.502833E0,5.5922394E0,1.925044E0,4.7848983E0,3.6351779E0,6.3795166E0,5.5801992E0,4.0114646E0,3.4913685E0,4.4326158E0,1.1596234E0,2.1570659E0,2.6278327E0,1.8276821E0,1.8074958E0,2.5339024E0,3.8456142E0,1.8565837E0,3.7236154E0,2.367058E0,1.6444063E0,2.0794027E0,1.411966E0,1.1254995E0,3.3071163E0],"tree_param":{"num_deleted":"0","num_feature":"21","num_nodes":"41","size_leaf_vector":"1"}},{"base_weights":[-3.5230923E-2,-1.3627334E-1,3.776807E-1,-2.7480927E-1,3.2274708E-1,3.445106E-1,-3.822077E-1,8.5409665E-1,-1.0532182E-1,-8.9871325E-2,7.3370224E-1,-6.435994E-1,-2.0312004E-1,4.6909994E-1,-5.8347058E-2,-7.3038584E-1,5.0256544E-1,9.511276E-2,3.3496302E-1,-7.781527E-1,2.119584E-2,-4.603105E-1,3.5947746E-1,-4.1020304E-1,-1.8543422E-2,3.3531874E-1,-3.183423E-2,-6.3751645E-2,-3.6855677E-1,-2.2591406E-1,1.16154276E-1,-2.71817E-2,3.306461E-1],"categories":[],"categories_nodes":[],"categories_segments":[],"categories_sizes":[],"default_left":[0,0,0,0,0,0,0,0,0,0,0,0,0,0,0,0,0,0,0,0,0,0,0,0,0,0,0,0,0,0,0,0,0],"id":8,"left_children":[1,3,-1,5,7,9,11,13,15,-1,17,19,21,-1,-1,23,25,-1,-1,27,-1,29,31,-1,-1,-1,-1,-1,-1,-1,-1,-1,-1],"loss_changes":[4.6508164E0,2.712384E0,0E0,2.2756658E0,2.3702416E0,1.3545039E0,1.177391E0,1.8011374E0,2.8149972E0,0E0,1.2431145E-3,1.0662837E0,2.7763228E0,0E0,0E0,7.433388E-1,8.8152736E-1,0E0,0E0,8.029542E-1,0E0,1.3468199E0,1.3704212E0,0E0,0E0,0E0,0E0,0E0,0E0,0E0,0E0,0E0,0E0],"parents":[2147483647,0,0,1,1,3,3,4,4,5,5,6,6,7,7,8,8,10,10,11,11,12,12,15,15,16,16,19,19,21,21,22,22],"right_children":[2,4,-1,6,8,10,12,14,16,-1,18,20,22,-1,-1,24,26,-1,-1,28,-1,30,32,-1,-1,-1,-1,-1,-1,-1,-1,-1,-1],"split_conditions":[1.6E1,7.5E1,3.776807E-1,2.9E1,9E-1,1.1E1,6.8E1,1.4E2,1.13E1,-8.9871325E-2,6.8E1,3.6E1,6.4824E2,4.6909994E-1,-5.8347058E-2,3.2E0,6.082E2,9.511276E-2,3.3496302E-1,5E1,2.119584E-2,3.1E0,6.6E1,-4.1020304E-1,-1.8543422E-2,3.3531874E-1,-3.183423E-2,-6.3751645E-2,-3.6855677E-1,-2.2591406E-1,1.16154276E-1,-2.71817E-2,3.306461E-1],"split_indices":[9,0,0,13,2,9,3,1,8,0,3,12,19,0,0,2,1,0,0,0,0,6,0,0,0,0,0,0,0,0,0,0,0],"split_type":[0,0,0,0,0,0,0,0,0,0,0,0,0,0,0,0,0,0,0,0,0,0,0,0,0,0,0,0,0,0,0,0,0],"sum_hessian":[4.3436558E1,4.0258945E1,3.1776154E0,3.1233688E1,9.025256E0,4.289608E0,2.694408E1,3.5827987E0,5.442457E0,1.8942953E0,2.3953128E0,9.900215E0,1.7043865E1,2.503684E0,1.0791148E0,2.5839639E0,2.858493E0,1.0989156E0,1.2963972E0,8.204238E0,1.6959771E0,1.18215E1,5.2223654E0,1.3822929E0,1.2016711E0,1.4753346E0,1.3831584E0,2.1998258E0,6.004412E0,1.0403407E1,1.4180919E0,3.2426126E0,1.9797527E0],"tree_param":{"num_deleted":"0","num_feature":"21","num_nodes":"33","size_leaf_vector":"1"}},{"base_weights":[-2.5184365E-2,3.3046117E-1,-1.4241548E-1,3.6479506E-1,6.515041E-2,-5.641622E-1,9.209159E-2,4.2655474E-1,-3.200935E-1,-6.8203825E-1,1.3085434E-1,3.5612226E-1,-3.0965668E-1,-1.3301499E-1,8.444058E-1,-2.7429292E-1,2.0016384E-1,-8.7011415E-1,3.2851443E-2,-2.5975986E-3,7.224791E-1,2.0831752E-1,-6.487816E-1,1.0121285E-1,3.8462847E-1,-3.4656563E-1,-4.4275188E-1,2.0256633E-1,-1.8086712E-1,4.3867925E-1,-3.8608962E-1,-5.590341E-2,9.9869627E-1,-1.2983237E-1,2.3715006E-1,-4.0345567E-1,-5.7885107E-2,-3.2146752E-1,1.8279661E-1,1.4389334E-3,2.9074857E-1,1.0553415E-1,-2.480911E-1,1.326794E-1,4.343863E-1,1.3313055E-1,-1.7241114E-1],"categories":[],"categories_nodes":[],"categories_segments":[],"categories_sizes":[],"default_left":[0,0,0,0,0,0,0,0,0,0,0,0,0,0,0,0,0,0,0,0,0,0,0,0,0,0,0,0,0,0,0,0,0,0,0,0,0,0,0,0,0,0,0,0,0,0,0],"id":9,"left_children":[1,3,5,-1,7,9,11,13,15,17,-1,19,21,-1,23,-1,-1,25,27,29,31,33,35,-1,-1,37,-1,-1,-1,39,41,-1,43,-1,-1,-1,45,-1,-1,-1,-1,-1,-1,-1,-1,-1,-1],"loss_changes":[1.7937529E0,1.6614836E0,3.2373242E0,0E0,1.321838E0,1.4661915E0,2.3969998E0,1.8371475E0,1.8716744E0,1.458015E0,0E0,1.7725793E0,1.7308612E0,0E0,3.0745506E-2,0E0,0E0,7.92974E-1,1.0144151E0,1.4900458E0,1.739325E0,1.1506166E0,1.2563915E0,0E0,0E0,2.0747766E0,0E0,0E0,0E0,5.477275E-1,9.524384E-1,0E0,2.1857262E-2,0E0,0E0,0E0,6.6595256E-1,0E0,0E0,0E0,0E0,0E0,0E0,0E0,0E0,0E0,0E0],"parents":[2147483647,0,0,1,1,2,2,4,4,5,5,6,6,7,7,8,8,9,9,11,11,12,12,14,14,17,17,18,18,19,19,20,20,21,21,22,22,25,25,29,29,30,30,32,32,36,36],"right_children":[2,4,6,-1,8,10,12,14,16,18,-1,20,22,-1,24,-1,-1,26,28,30,32,34,36,-1,-1,38,-1,-1,-1,40,42,-1,44,-1,-1,-1,46,-1,-1,-1,-1,-1,-1,-1,-1,-1,-1],"split_conditions":[8.5E0,1.0471429E2,1.13E1,3.6479506E-1,1.6E0,2.13624E4,3.5E1,1.5725E0,8.55E2,3.625E2,1.3085434E-1,7.6666664E1,1.9142857E2,-1.3301499E-1,3.1E1,-2.7429292E-1,2.0016384E-1,1.82886E2,5.238095E2,2.8E0,9E0,-6.8E0,2.9133334E2,1.0121285E-1,3.8462847E-1,4.76242E1,-4.4275188E-1,2.0256633E-1,-1.8086712E-1,1.46E1,-1.63E1,-5.590341E-2,2.59E2,-1.2983237E-1,2.3715006E-1,-4.0345567E-1,1.05E1,-3.2146752E-1,1.8279661E-1,1.4389334E-3,2.9074857E-1,1.0553415E-1,-2.480911E-1,1.326794E-1,4.343863E-1,1.3313055E-1,-1.7241114E-1],"split_indices":[8,4,8,0,6,18,13,18,19,4,0,3,4,0,14,0,0,18,4,6,9,7,4,0,0,18,0,0,0,8,7,0,19,0,0,0,5,0,0,0,0,0,0,0,0,0,0],"split_type":[0,0,0,0,0,0,0,0,0,0,0,0,0,0,0,0,0,0,0,0,0,0,0,0,0,0,0,0,0,0,0,0,0,0,0,0,0,0,0,0,0,0,0,0,0,0,0],"sum_hessian":[4.0894367E1,9.687224E0,3.1207144E1,2.173896E0,7.513328E0,1.0649296E1,2.0557848E1,3.8212814E0,3.6920466E0,9.631413E0,1.0178823E0,1.2473669E1,8.084179E0,1.4097513E0,2.4115303E0,2.632468E0,1.0595787E0,7.4534116E0,2.178002E0,6.804209E0,5.66946E0,3.3512506E0,4.7329283E0,1.0339401E0,1.3775902E0,3.3020325E0,4.151379E0,1.0766748E0,1.1013273E0,3.0968347E0,3.7073746E0,1.4867115E0,4.1827483E0,1.4974542E0,1.8537964E0,2.399348E0,2.3335803E0,2.0718808E0,1.2301518E0,1.7062463E0,1.3905884E0,1.0052598E0,2.7021148E0,1.229605E0,2.9531434E0,1.1997356E0,1.1338447E0],"tree_param":{"num_deleted":"0","num_feature":"21","num_nodes":"47","size_leaf_vector":"1"}},{"base_weights":[5.074486E-2,4.3055084E-1,-7.63345E-2,-1.9918883E-1,6.3608056E-1,2.6812324E-1,-3.1706533E-1,1.3925129E-1,-2.5015566E-1,7.7654964E-1,-1.546247E-2,-1.6489325E-1,5.501408E-1,3.0262274E-1,-4.7852743E-1,7.755347E-2,9.0375787E-1,-7.3521405E-1,4.96058E-1,7.654701E-1,-1.06895216E-1,1.374562E-1,-5.7678056E-1,3.8911283E-1,1.0776444E-1,-8.974549E-2,-3.3101496E-1,-7.1303737E-3,2.85402E-1,3.8266385E-1,3.9823025E-1,-8.362887E-1,-5.4093696E-2,-1.5667114E-1,3.3459356E-1,-3.5435665E-1,-3.4999993E-2,2.4953741E-1,-1.6757171E-1],"categories":[],"categories_nodes":[],"categories_segments":[],"categories_sizes":[],"default_left":[0,0,0,0,0,0,0,0,0,0,0,0,0,0,0,0,0,0,0,0,0,0,0,0,0,0,0,0,0,0,0,0,0,0,0,0,0,0,0],"id":10,"left_children":[1,3,5,7,9,11,13,-1,-1,15,-1,17,19,-1,21,-1,23,25,27,29,-1,-1,31,-1,-1,-1,-1,-1,-1,-1,33,35,37,-1,-1,-1,-1,-1,-1],"loss_changes":[1.9710901E0,1.4492631E0,2.6505406E0,1.0408603E0,7.8488636E-1,1.7111473E0,3.6737652E0,0E0,0E0,3.0612588E-1,0E0,2.6275587E0,1.678885E0,0E0,1.5845132E0,0E0,3.4717083E-2,1.5576124E-2,4.2659593E-1,1.5528607E-1,0E0,0E0,2.055328E0,0E0,0E0,0E0,0E0,0E0,0E0,0E0,1.9100318E0,4.9224472E-1,1.9035063E0,0E0,0E0,0E0,0E0,0E0,0E0],"parents":[2147483647,0,0,1,1,2,2,3,3,4,4,5,5,6,6,9,9,11,11,12,12,14,14,16,16,17,17,18,18,19,19,22,22,30,30,31,31,32,32],"right_children":[2,4,6,8,10,12,14,-1,-1,16,-1,18,20,-1,22,-1,24,26,28,30,-1,-1,32,-1,-1,-1,-1,-1,-1,-1,34,36,38,-1,-1,-1,-1,-1,-1],"split_conditions":[5.6666668E1,1.1E1,1.83E2,3.61E1,3.9E1,7.6666664E1,2.8E1,1.3925129E-1,-2.5015566E-1,3E1,-1.546247E-2,1.3E0,1.3E1,3.0262274E-1,6E-2,7.755347E-2,3.5E1,3.3E1,8.26E1,9.1E0,-1.06895216E-1,1.374562E-1,3.9714285E2,3.8911283E-1,1.0776444E-1,-8.974549E-2,-3.3101496E-1,-7.1303737E-3,2.85402E-1,3.8266385E-1,1.27E1,4.508064E4,4.8666666E2,-1.5667114E-1,3.3459356E-1,-3.5435665E-1,-3.4999993E-2,2.4953741E-1,-1.6757171E-1],"split_indices":[3,9,4,11,13,3,13,0,0,13,0,20,5,0,2,0,13,14,4,8,0,0,4,0,0,0,0,0,0,0,8,18,4,0,0,0,0,0,0],"split_type":[0,0,0,0,0,0,0,0,0,0,0,0,0,0,0,0,0,0,0,0,0,0,0,0,0,0,0,0,0,0,0,0,0,0,0,0,0,0,0],"sum_hessian":[3.9157547E1,9.218347E0,2.9939201E1,2.2758946E0,6.942452E0,1.2269373E1,1.7669828E1,1.0951467E0,1.1807481E0,5.6244307E0,1.3180212E0,5.0029826E0,7.2663903E0,1.7796091E0,1.589022E1,1.4795153E0,4.1449156E0,2.625305E0,2.3776774E0,5.8195934E0,1.4467968E0,1.4040607E0,1.4486159E1,3.0737793E0,1.0711364E0,1.0493443E0,1.5759606E0,1.0434104E0,1.3342669E0,2.5960343E0,3.2235591E0,9.279174E0,5.206985E0,1.226165E0,1.9973941E0,8.23253E0,1.0466444E0,1.5823114E0,3.6246738E0],"tree_param":{"num_deleted":"0","num_feature":"21","num_nodes":"39","size_leaf_vector":"1"}},{"base_weights":[-4.5860995E-2,-3.8607308E-1,9.365096E-2,-5.4749256E-1,1.398075E-1,-5.4761034E-2,7.175783E-1,-7.975033E-2,-6.856639E-1,4.4553334E-1,-2.0257972E-1,8.390129E-1,4.7228172E-2,9.408735E-2,-1.3100126E-1,-8.5597384E-1,3.6456317E-2,6.3149655E-1,-1.2933736E-2,-3.8951803E-2,-7.049119E-1,3.7400144E-1,8.53358E-2,-3.7499207E-1,-1.2979361E-1,6.618927E-2,3.251921E-1,-2.7878907E-1,4.8951206E-1,-1.2047831E-2,-3.570266E-1,3.122282E-3,-3.0659166E-1,3.0922878E-1,2.7099656E-2],"categories":[],"categories_nodes":[],"categories_segments":[],"categories_sizes":[],"default_left":[0,0,0,0,0,0,0,0,0,0,0,0,0,0,0,0,0,0,0,0,0,0,0,0,0,0,0,0,0,0,0,0,0,0,0],"id":11,"left_children":[1,3,5,7,-1,9,11,13,15,17,19,21,-1,-1,-1,23,-1,25,-1,27,29,-1,-1,-1,-1,-1,-1,31,33,-1,-1,-1,-1,-1,-1],"loss_changes":[1.8593938E0,1.5647367E0,2.6363878E0,5.7479215E-1,0E0,1.8345455E0,2.9340148E-1,3.5875148E-1,1.0608134E0,5.2780724E-1,1.5255811E0,1.2084317E-1,0E0,0E0,0E0,2.6454449E-2,0E0,2.4947405E-1,0E0,2.0770073E0,6.298759E-1,0E0,0E0,0E0,0E0,0E0,0E0,1.6385067E0,6.043478E-1,0E0,0E0,0E0,0E0,0E0,0E0],"parents":[2147483647,0,0,1,1,2,2,3,3,5,5,6,6,7,7,8,8,9,9,10,10,11,11,15,15,17,17,19,19,20,20,27,27,28,28],"right_children":[2,4,6,8,-1,10,12,14,16,18,20,22,-1,-1,-1,24,-1,26,-1,28,30,-1,-1,-1,-1,-1,-1,32,34,-1,-1,-1,-1,-1,-1],"split_conditions":[9E0,3.6E1,3.46E2,2E0,1.398075E-1,1.5E0,3.7376E3,9.2E1,1.1E2,3.6E1,3.4E0,1.2E1,4.7228172E-2,9.408735E-2,-1.3100126E-1,8E0,3.6456317E-2,3.2E1,-1.2933736E-2,3.1E0,5.104E2,3.7400144E-1,8.53358E-2,-3.7499207E-1,-1.2979361E-1,6.618927E-2,3.251921E-1,2.2E0,3.3E1,-1.2047831E-2,-3.570266E-1,3.122282E-3,-3.0659166E-1,3.0922878E-1,2.7099656E-2],"split_indices":[9,12,4,9,0,1,19,15,15,13,20,9,0,0,0,9,0,12,0,6,19,0,0,0,0,0,0,6,13,0,0,0,0,0,0],"split_type":[0,0,0,0,0,0,0,0,0,0,0,0,0,0,0,0,0,0,0,0,0,0,0,0,0,0,0,0,0,0,0,0,0,0,0],"sum_hessian":[3.7413345E1,1.0366476E1,2.704687E1,8.739872E0,1.6266038E0,2.2586506E1,4.460363E0,2.3526814E0,6.387191E0,4.692072E0,1.7894434E1,3.3670816E0,1.0932811E0,1.0712732E0,1.2814083E0,5.1611643E0,1.2260268E0,3.149754E0,1.542318E0,1.4310518E1,3.583916E0,2.3498628E0,1.017219E0,3.5741637E0,1.5870006E0,1.5308199E0,1.6189342E0,1.0168235E1,4.1422834E0,1.1361501E0,2.4477658E0,7.135781E0,3.0324545E0,1.8799704E0,2.262313E0],"tree_param":{"num_deleted":"0","num_feature":"21","num_nodes":"35","size_leaf_vector":"1"}},{"base_weights":[2.0222086E-2,8.630693E-2,-6.011261E-1,1.1133182E-2,3.0950072E-1,-4.1026187E-1,9.43132E-2,-1.1755529E-1,4.5713505E-1,-3.063732E-1,1.7325269E-1,7.067021E-1,1.13938175E-1,-3.9563572E-1,1.973036E-1,-2.7175298E-1,3.705463E-1,3.3454978E-1,7.77065E-2,4.4317198E-1,-1.5550676E-1,1.2610818E-1,-1.8537486E-1,2.0446745E-1,-3.030091E-1,-1.6868418E-2,2.4280912E-1,-2.5810138E-4,2.6228184E-1],"categories":[],"categories_nodes":[],"categories_segments":[],"categories_sizes":[],"default_left":[0,0,0,0,0,0,0,0,0,0,0,0,0,0,0,0,0,0,0,0,0,0,0,0,0,0,0,0,0],"id":12,"left_children":[1,3,5,7,-1,-1,-1,9,11,13,15,17,19,21,-1,23,25,-1,-1,27,-1,-1,-1,-1,-1,-1,-1,-1,-1],"loss_changes":[1.5970387E0,1.8518744E0,1.6886904E0,1.9224735E0,0E0,0E0,0E0,1.484228E0,5.614644E-1,1.3747562E0,1.0576329E0,1.5086222E-1,9.1268307E-1,1.0368288E0,0E0,1.997686E0,8.6476505E-1,0E0,0E0,3.210699E-1,0E0,0E0,0E0,0E0,0E0,0E0,0E0,0E0,0E0],"parents":[2147483647,0,0,1,1,2,2,3,3,7,7,8,8,9,9,10,10,11,11,12,12,13,13,15,15,16,16,19,19],"right_children":[2,4,6,8,-1,-1,-1,10,12,14,16,18,20,22,-1,24,26,-1,-1,28,-1,-1,-1,-1,-1,-1,-1,-1,-1],"split_conditions":[1.7766E4,9.9E0,7.9826E4,7.5E1,3.0950072E-1,-4.1026187E-1,9.43132E-2,-2.9E0,4.82E1,4.171E3,7.7E1,1.6E0,-3.5E0,6E-2,1.973036E-1,2.1E-1,1.4E0,3.3454978E-1,7.77065E-2,3.63E1,-1.5550676E-1,1.2610818E-1,-1.8537486E-1,2.0446745E-1,-3.030091E-1,-1.6868418E-2,2.4280912E-1,-2.5810138E-4,2.6228184E-1],"split_indices":[1,6,1,0,0,0,0,7,1,1,15,6,7,2,0,2,6,0,0,11,0,0,0,0,0,0,0,0,0],"split_type":[0,0,0,0,0,0,0,0,0,0,0,0,0,0,0,0,0,0,0,0,0,0,0,0,0,0,0,0,0],"sum_hessian":[3.6630142E1,3.3887104E1,2.7430394E0,3.1559023E1,2.3280795E0,1.6208233E0,1.1222162E0,2.5063637E1,6.4953866E0,1.5164195E1,9.899443E0,3.1474438E0,3.3479428E0,1.4128112E1,1.0360831E0,2.9248629E0,6.9745793E0,1.880819E0,1.2666248E0,2.1242E0,1.2237426E0,1.125354E0,1.3002757E1,1.1231829E0,1.8016801E0,2.9660294E0,4.00855E0,1.0691298E0,1.0550703E0],"tree_param":{"num_deleted":"0","num_feature":"21","num_nodes":"29","size_leaf_vector":"1"}},{"base_weights":[8.815265E-2,1.4169092E-1,-4.8547378E-1,-3.3311958E-3,5.0025177E-1,-3.4568146E-1,4.1057993E-2,1.0900563E-1,-5.683703E-1,6.804054E-1,-8.294391E-2,-1.0271274E-1,5.058511E-1,-2.8307294E-2,-2.7590832E-1,9.240728E-1,1.5193291E-1,-3.781159E-1,1.8021472E-1,3.2304826E-1,1.5861101E-1,8.87951E-2,4.3833253E-1,-1.5692073E-1,2.3206432E-1,1.0031348E-1,-2.1274209E-1,-2.0135666E-1,1.6904062E-1,-8.1531696E-2,2.6981467E-1],"categories":[],"categories_nodes":[],"categories_segments":[],"categories_sizes":[],"default_left":[0,0,0,0,0,0,0,0,0,0,0,0,0,0,0,0,0,0,0,0,0,0,0,0,0,0,0,0,0,0,0],"id":13,"left_children":[1,3,5,7,9,-1,-1,11,13,15,-1,17,19,-1,-1,21,23,25,27,-1,29,-1,-1,-1,-1,-1,-1,-1,-1,-1,-1],"loss_changes":[1.1408132E0,1.7021025E0,8.5811317E-1,1.6029466E0,1.3564951E0,0E0,0E0,1.8239416E0,2.4107742E-1,8.5923314E-1,0E0,1.204526E0,7.1478343E-1,0E0,0E0,4.6527815E-1,1.1415601E0,9.6970415E-1,1.6227987E0,0E0,1.1039249E0,0E0,0E0,0E0,0E0,0E0,0E0,0E0,0E0,0E0,0E0],"parents":[2147483647,0,0,1,1,2,2,3,3,4,4,7,7,8,8,9,9,11,11,12,12,15,15,16,16,17,17,18,18,20,20],"right_children":[2,4,6,8,10,-1,-1,12,14,16,-1,18,20,-1,-1,22,24,26,28,-1,30,-1,-1,-1,-1,-1,-1,-1,-1,-1,-1],"split_conditions":[1.7766E4,7.4E2,5.4288E4,1E2,-2.5E0,-3.4568146E-1,4.1057993E-2,8.3333336E1,5.4E1,2.878E3,-8.294391E-2,2E-1,7.4E0,-2.8307294E-2,-2.7590832E-1,5.5E1,6.026E3,8E0,1E0,3.2304826E-1,1.15E1,8.87951E-2,4.3833253E-1,-1.5692073E-1,2.3206432E-1,1.0031348E-1,-2.1274209E-1,-2.0135666E-1,1.6904062E-1,-8.1531696E-2,2.6981467E-1],"split_indices":[1,1,1,3,7,0,0,3,0,1,0,20,5,0,0,3,1,9,16,0,5,0,0,0,0,0,0,0,0,0,0],"split_type":[0,0,0,0,0,0,0,0,0,0,0,0,0,0,0,0,0,0,0,0,0,0,0,0,0,0,0,0,0,0,0],"sum_hessian":[3.390694E1,3.1701166E1,2.205774E0,2.327725E1,8.423916E0,1.0115726E0,1.1942014E0,2.0090158E1,3.187091E0,6.7628202E0,1.6610959E0,1.3584148E1,6.5060105E0,1.0420661E0,2.145025E0,4.116306E0,2.6465142E0,6.7131195E0,6.871029E0,2.642354E0,3.8636568E0,1.4096259E0,2.70668E0,1.2181367E0,1.4283775E0,1.2979904E0,5.4151287E0,1.5591434E0,5.3118854E0,2.649052E0,1.2146049E0],"tree_param":{"num_deleted":"0","num_feature":"21","num_nodes":"31","size_leaf_vector":"1"}},{"base_weights":[3.0723153E-2,2.4275225E-1,-7.236346E-2,-1.9814506E-1,3.6217847E-1,-7.86205E-1,8.658912E-2,5.15142E-1,-1.0429699E-1,3.1507805E-2,-4.1101062E-1,2.4209644E-1,-2.7206087E-1,7.857919E-2,6.7708474E-1,-1.7027254E-1,3.9202946E-1,1.4127801E-1,-5.197764E-1,-1.160792E-1,1.9645128E-1,3.0989995E-2,7.8211087E-1,-4.4224685E-1,1.3148534E-1,7.424316E-1,1.758615E-1,2.5086364E-1,-1.8622726E-1,-3.058013E-1,4.1558E-2,3.3468187E-1,8.6655244E-2,-2.0082166E-2,-2.6476145E-1,3.3284965E-1,8.788559E-2,-1.4127317E-1,1.6635182E-1],"categories":[],"categories_nodes":[],"categories_segments":[],"categories_sizes":[],"default_left":[0,0,0,0,0,0,0,0,0,0,0,0,0,0,0,0,0,0,0,0,0,0,0,0,0,0,0,0,0,0,0,0,0,0,0,0,0,0,0],"id":14,"left_children":[1,3,5,-1,7,9,11,13,-1,-1,-1,15,17,19,21,23,25,27,29,-1,-1,-1,31,33,-1,35,37,-1,-1,-1,-1,-1,-1,-1,-1,-1,-1,-1,-1],"loss_changes":[7.812381E-1,1.2319753E0,2.8229833E0,0E0,1.1646997E0,1.146595E0,1.2236183E0,5.767069E-1,0E0,0E0,0E0,9.947342E-1,7.6449317E-1,7.2044414E-1,3.3720994E-1,7.9923385E-1,7.2611177E-1,1.3445725E0,8.2451713E-1,0E0,0E0,0E0,4.0886164E-2,2.904442E-1,0E0,4.116845E-2,1.2831128E0,0E0,0E0,0E0,0E0,0E0,0E0,0E0,0E0,0E0,0E0,0E0,0E0],"parents":[2147483647,0,0,1,1,2,2,4,4,5,5,6,6,7,7,11,11,12,12,13,13,14,14,15,15,16,16,17,17,18,18,22,22,23,23,25,25,26,26],"right_children":[2,4,6,-1,8,10,12,14,-1,-1,-1,16,18,20,22,24,26,28,30,-1,-1,-1,32,34,-1,36,38,-1,-1,-1,-1,-1,-1,-1,-1,-1,-1,-1,-1],"split_conditions":[7.1E0,3.3E1,7.6E0,-1.9814506E-1,3.68E1,8.1E1,3.6E1,4.9E0,-1.0429699E-1,3.1507805E-2,-4.1101062E-1,8E1,9E0,3.7E1,9E0,3.4E1,5.3E1,4E-1,1.9E0,-1.160792E-1,1.9645128E-1,3.0989995E-2,1.5E0,3.2E1,1.3148534E-1,1.39E1,6.4E1,2.5086364E-1,-1.8622726E-1,-3.058013E-1,4.1558E-2,3.3468187E-1,8.6655244E-2,-2.0082166E-2,-2.6476145E-1,3.3284965E-1,8.788559E-2,-1.4127317E-1,1.6635182E-1],"split_indices":[5,0,5,0,11,15,14,5,0,0,0,15,5,14,9,14,0,20,20,0,0,0,20,14,0,8,0,0,0,0,0,0,0,0,0,0,0,0,0],"split_type":[0,0,0,0,0,0,0,0,0,0,0,0,0,0,0,0,0,0,0,0,0,0,0,0,0,0,0,0,0,0,0,0,0,0,0,0,0,0,0],"sum_hessian":[3.393888E1,1.0659509E1,2.3279373E1,1.0129703E0,9.646538E0,3.5209496E0,1.9758423E1,7.9098763E0,1.7366619E0,1.0040222E0,2.5169272E0,1.400916E1,5.749264E0,2.542113E0,5.367763E0,3.699251E0,1.0309909E1,2.315421E0,3.4338424E0,1.5087317E0,1.0333815E0,1.0655409E0,4.3022223E0,2.4946434E0,1.2046074E0,3.0047624E0,7.305146E0,1.2553998E0,1.0600214E0,2.2304094E0,1.2034332E0,3.3006494E0,1.0015727E0,1.4070044E0,1.0876391E0,1.9249015E0,1.0798609E0,2.1853654E0,5.119781E0],"tree_param":{"num_deleted":"0","num_feature":"21","num_nodes":"39","size_leaf_vector":"1"}},{"base_weights":[-5.437803E-2,6.1528575E-2,-6.0213614E-1,-1.1446684E-1,3.1982067E-1,-2.8167188E-1,-4.5330107E-2,1.2130979E-1,-3.8730633E-1,5.537892E-1,-2.3232633E-2,-1.2527974E-1,2.5383702E-1,9.216533E-2,-5.926976E-1,1.8300135E-2,7.217013E-1,2.2246097E-1,-1.7416045E-1,-2.138782E-2,6.269886E-1,4.846814E-3,-3.4470788E-1,7.279127E-2,3.1997868E-1,-1.10707015E-1,2.1371502E-1,-1.5934262E-1,1.2427525E-1,2.9177448E-1,7.081903E-2],"categories":[],"categories_nodes":[],"categories_segments":[],"categories_sizes":[],"default_left":[0,0,0,0,0,0,0,0,0,0,0,0,0,0,0,0,0,0,0,0,0,0,0,0,0,0,0,0,0,0,0],"id":15,"left_children":[1,3,5,7,9,-1,-1,11,13,15,17,-1,19,-1,21,-1,23,25,-1,27,29,-1,-1,-1,-1,-1,-1,-1,-1,-1,-1],"loss_changes":[1.9110727E0,1.1853194E0,2.267667E-1,1.0611651E0,8.559637E-1,0E0,0E0,6.2352496E-1,1.1081389E0,5.0082886E-1,6.4403844E-1,0E0,7.9976344E-1,0E0,1.0708721E0,0E0,9.7236395E-2,8.155339E-1,0E0,8.4234536E-1,4.3399572E-2,0E0,0E0,0E0,0E0,0E0,0E0,0E0,0E0,0E0,0E0],"parents":[2147483647,0,0,1,1,2,2,3,3,4,4,7,7,8,8,9,9,10,10,12,12,14,14,16,16,17,17,19,19,20,20],"right_children":[2,4,6,8,10,-1,-1,12,14,16,18,-1,20,-1,22,-1,24,26,-1,28,30,-1,-1,-1,-1,-1,-1,-1,-1,-1,-1],"split_conditions":[3.68E1,6.700571E2,3.1E0,1.472E2,1.590909E3,-2.8167188E-1,-4.5330107E-2,-1.11E1,-6.7E0,4.422E-1,-7.1E0,-1.2527974E-1,1.3E0,9.216533E-2,1.1E0,1.8300135E-2,5.7E-1,3.61E1,-1.7416045E-1,7.6666664E1,6E1,4.846814E-3,-3.4470788E-1,7.279127E-2,3.1997868E-1,-1.10707015E-1,2.1371502E-1,-1.5934262E-1,1.2427525E-1,2.9177448E-1,7.081903E-2],"split_indices":[11,19,6,4,19,0,0,7,7,18,7,0,20,0,6,0,2,11,0,3,0,0,0,0,0,0,0,0,0,0,0],"split_type":[0,0,0,0,0,0,0,0,0,0,0,0,0,0,0,0,0,0,0,0,0,0,0,0,0,0,0,0,0,0,0],"sum_hessian":[2.8517405E1,2.4269588E1,4.2478166E0,1.4765491E1,9.504098E0,3.0014687E0,1.2463478E0,8.218652E0,6.5468388E0,5.2852006E0,4.2188973E0,1.5618937E0,6.6567583E0,1.5826281E0,4.9642105E0,1.6340634E0,3.6511374E0,2.9739773E0,1.24492E0,4.3736067E0,2.2831514E0,1.9346441E0,3.0295665E0,1.0339404E0,2.6171968E0,1.2168427E0,1.7571346E0,1.9503758E0,2.423231E0,1.250452E0,1.0326995E0],"tree_param":{"num_deleted":"0","num_feature":"21","num_nodes":"31","size_leaf_vector":"1"}},{"base_weights":[-5.6693205E-3,1.2124794E-1,-3.1176248E-1,-1.2083227E-1,2.7132195E-1,2.0816983E-1,-4.7999355E-1,-3.88082E-1,2.8510612E-1,8.272598E-2,5.809122E-1,8.847361E-2,-6.15418E-1,5.12631E-2,-5.387676E-1,2.626931E-1,-7.075079E-2,3.162516E-1,-3.621918E-1,3.4085825E-1,1.16981514E-1,-3.3732152E-1,-1.8005496E-1,-2.641539E-1,-4.7710326E-2,5.4340935E-1,-1.0135273E-1,3.9335668E-2,-2.2176717E-1,1.6717683E-1,-1.0279106E-1,9.24312E-2,-1.6672252E-1,2.7592474E-1,4.556218E-2],"categories":[],"categories_nodes":[],"categories_segments":[],"categories_sizes":[],"default_left":[0,0,0,0,0,0,0,0,0,0,0,0,0,0,0,0,0,0,0,0,0,0,0,0,0,0,0,0,0,0,0,0,0,0,0],"id":16,"left_children":[1,3,5,7,9,-1,11,13,15,17,19,-1,21,-1,23,-1,-1,25,27,-1,29,-1,31,-1,-1,33,-1,-1,-1,-1,-1,-1,-1,-1,-1],"loss_changes":[1.2492579E0,8.597965E-1,1.59926E0,1.1307939E0,7.904161E-1,0E0,9.435128E-1,5.484114E-1,9.0851986E-1,1.1629086E0,6.2005067E-1,0E0,6.454685E-1,0E0,2.0424926E-1,0E0,0E0,1.0786511E0,4.373688E-1,0E0,4.9593332E-1,0E0,5.1119953E-1,0E0,0E0,3.0300355E-1,0E0,0E0,0E0,0E0,0E0,0E0,0E0,0E0,0E0],"parents":[2147483647,0,0,1,1,2,2,3,3,4,4,6,6,7,7,8,8,9,9,10,10,12,12,14,14,17,17,18,18,20,20,22,22,25,25],"right_children":[2,4,6,8,10,-1,12,14,16,18,20,-1,22,-1,24,-1,-1,26,28,-1,30,-1,32,-1,-1,34,-1,-1,-1,-1,-1,-1,-1,-1,-1],"split_conditions":[3.672E3,1E1,4.8333332E1,3.4E1,2.05E2,2.0816983E-1,8.6E0,2E0,8.5E0,6.51E1,-6.3E0,8.847361E-2,4.508064E4,5.12631E-2,8.555E2,2.626931E-1,-7.075079E-2,3.6E1,9.3E0,3.4085825E-1,7.139E2,-3.3732152E-1,1.51E1,-2.641539E-1,-4.7710326E-2,7E1,-1.0135273E-1,3.9335668E-2,-2.2176717E-1,1.6717683E-1,-1.0279106E-1,9.24312E-2,-1.6672252E-1,2.7592474E-1,4.556218E-2],"split_indices":[18,9,3,12,1,0,8,9,8,1,7,0,18,0,19,0,0,13,8,0,18,0,8,0,0,0,0,0,0,0,0,0,0,0,0],"split_type":[0,0,0,0,0,0,0,0,0,0,0,0,0,0,0,0,0,0,0,0,0,0,0,0,0,0,0,0,0,0,0,0,0,0,0],"sum_hessian":[3.0184143E1,2.1763922E1,8.420221E0,8.403431E0,1.3360491E1,1.0337461E0,7.386475E0,5.0938683E0,3.3095627E0,9.090163E0,4.2703285E0,1.0775148E0,6.3089604E0,1.1727886E0,3.9210796E0,1.5596728E0,1.7498899E0,6.1509056E0,2.9392571E0,2.0654676E0,2.2048607E0,3.3678873E0,2.941073E0,2.45881E0,1.4622695E0,4.4546924E0,1.696213E0,1.0699737E0,1.8692836E0,1.1411047E0,1.063756E0,1.1138465E0,1.8272264E0,2.7276077E0,1.7270849E0],"tree_param":{"num_deleted":"0","num_feature":"21","num_nodes":"35","size_leaf_vector":"1"}},{"base_weights":[8.867069E-2,1.5600683E-1,-3.6561155E-1,2.2399405E-1,-2.1037823E-1,1.19682895E-2,-2.7067813E-1,-1.4279267E-1,2.791384E-1,6.433559E-2,-3.65674E-1,3.268686E-1,-1.3015504E-1,-2.529488E-1,6.053917E-2,-5.9963148E-2,4.186736E-1,-9.659149E-2,1.2203307E-1,3.306986E-1,1.0090291E-1],"categories":[],"categories_nodes":[],"categories_segments":[],"categories_sizes":[],"default_left":[0,0,0,0,0,0,0,0,0,0,0,0,0,0,0,0,0,0,0,0,0],"id":17,"left_children":[1,3,5,7,9,-1,-1,-1,11,-1,13,15,-1,-1,-1,17,19,-1,-1,-1,-1],"loss_changes":[9.589035E-1,7.041789E-1,5.589932E-1,8.435676E-1,3.3153278E-1,0E0,0E0,0E0,7.3522615E-1,0E0,6.3527954E-1,7.469597E-1,0E0,0E0,0E0,4.1404188E-1,9.170444E-1,0E0,0E0,0E0,0E0],"parents":[2147483647,0,0,1,1,2,2,3,3,4,4,8,8,10,10,11,11,15,15,16,16],"right_children":[2,4,6,8,10,-1,-1,-1,12,-1,14,16,-1,-1,-1,18,20,-1,-1,-1,-1],"split_conditions":[4.8666666E2,3.68E1,3.5E1,9E-1,6.21E1,1.19682895E-2,-2.7067813E-1,-1.4279267E-1,1.83E1,6.433559E-2,1.354E3,5.9E0,-1.3015504E-1,-2.529488E-1,6.053917E-2,3.4E1,7.1E0,-9.659149E-2,1.2203307E-1,3.306986E-1,1.0090291E-1],"split_indices":[4,11,13,6,1,0,0,0,5,0,1,5,0,0,0,13,5,0,0,0,0],"split_type":[0,0,0,0,0,0,0,0,0,0,0,0,0,0,0,0,0,0,0,0,0],"sum_hessian":[2.8482738E1,2.5377705E1,3.1050327E0,2.1733438E1,3.644267E0,1.8237423E0,1.2812905E0,1.3716041E0,2.0361834E1,1.0465328E0,2.5977345E0,1.9326445E1,1.0353884E0,1.5200237E0,1.0777106E0,3.7734387E0,1.5553007E1,2.7318285E0,1.0416102E0,3.0215805E0,1.2531426E1],"tree_param":{"num_deleted":"0","num_feature":"21","num_nodes":"21","size_leaf_vector":"1"}},{"base_weights":[1.4986224E-1,1.2350147E-2,4.9287242E-1,-3.6094168E-1,1.3137406E-1,6.2004113E-1,1.2600447E-2,-7.388644E-2,-2.4687083E-1,4.7474477E-1,8.380949E-3,3.2243434E-1,2.987961E-1,7.12928E-2,-1.3788123E-1,-1.4613537E-2,3.2388687E-1,1.4454667E-1,-3.7395966E-1,1.7751983E-1,-1.1854707E-2,-1.436979E-1,2.8002167E-1,3.6849957E-2,-2.788497E-1,1.895626E-2,2.2231175E-1],"categories":[],"categories_nodes":[],"categories_segments":[],"categories_sizes":[],"default_left":[0,0,0,0,0,0,0,0,0,0,0,0,0,0,0,0,0,0,0,0,0,0,0,0,0,0,0],"id":18,"left_children":[1,3,5,7,9,11,-1,13,-1,15,17,-1,19,-1,-1,-1,-1,21,23,-1,-1,-1,25,-1,-1,-1,-1],"loss_changes":[1.2790613E0,9.571259E-1,4.3498707E-1,3.6316776E-1,6.8262744E-1,1.5747976E-1,0E0,3.3051988E-1,0E0,8.145158E-1,7.3024166E-1,0E0,2.1855995E-1,0E0,0E0,0E0,0E0,8.206403E-1,6.61172E-1,0E0,0E0,0E0,5.601837E-1,0E0,0E0,0E0,0E0],"parents":[2147483647,0,0,1,1,2,2,3,3,4,4,5,5,7,7,9,9,10,10,12,12,17,17,18,18,22,22],"right_children":[2,4,6,8,10,12,-1,14,-1,16,18,-1,20,-1,-1,-1,-1,22,24,-1,-1,-1,26,-1,-1,-1,-1],"split_conditions":[1.0166667E3,5.1E1,5.3E0,6E-1,-9.4E0,1.4928572E3,1.2600447E-2,3.13225E2,-2.4687083E-1,-1.09E1,2.005526E3,3.2243434E-1,-7.1E0,7.12928E-2,-1.3788123E-1,-1.4613537E-2,3.2388687E-1,1.8E-1,1.02E1,1.7751983E-1,-1.1854707E-2,-1.436979E-1,1.1E1,3.6849957E-2,-2.788497E-1,1.895626E-2,2.2231175E-1],"split_indices":[19,0,20,20,7,19,0,19,0,7,18,0,7,0,0,0,0,2,8,0,0,0,5,0,0,0,0],"split_type":[0,0,0,0,0,0,0,0,0,0,0,0,0,0,0,0,0,0,0,0,0,0,0,0,0,0,0],"sum_hessian":[2.6246164E1,1.9474771E1,6.7713923E0,4.216899E0,1.5257874E1,5.034489E0,1.736903E0,2.6786695E0,1.5382295E0,3.2696824E0,1.1988191E1,2.0923123E0,2.942177E0,1.578678E0,1.0999913E0,1.7132885E0,1.5563939E0,9.298567E0,2.6896234E0,1.7284147E0,1.2137625E0,1.5792177E0,7.7193494E0,1.4424748E0,1.2471485E0,4.955833E0,2.7635167E0],"tree_param":{"num_deleted":"0","num_feature":"21","num_nodes":"27","size_leaf_vector":"1"}},{"base_weights":[-3.4366168E-2,2.1854787E-1,-1.4155284E-1,4.1276783E-1,-1.3350251E-1,8.029291E-2,-3.0768174E-1,5.1626064E-2,3.0301952E-1,6.8649694E-2,-1.8833017E-1,2.0471595E-1,-1.6801584E-1,-5.740033E-1,-8.4102325E-2,-1.1085451E-1,1.8699719E-1,-4.2400626E-3,4.580631E-1,-2.8645623E-1,-7.342937E-2,9.93017E-2,-1.8428315E-1,-2.7609318E-1,1.874355E-1,2.7579537E-1,-1.2810037E-2,-9.1698155E-2,1.8573661E-1,-2.0028968E-1,7.0040815E-2,6.882034E-2,-1.4831926E-1],"categories":[],"categories_nodes":[],"categories_segments":[],"categories_sizes":[],"default_left":[0,0,0,0,0,0,0,0,0,0,0,0,0,0,0,0,0,0,0,0,0,0,0,0,0,0,0,0,0,0,0,0,0],"id":19,"left_children":[1,3,5,7,9,11,13,15,-1,-1,-1,17,-1,19,21,-1,-1,23,25,-1,-1,27,-1,29,-1,-1,-1,31,-1,-1,-1,-1,-1],"loss_changes":[7.510556E-1,6.226212E-1,7.346727E-1,6.9986266E-1,4.885218E-1,6.647837E-1,6.1993384E-1,6.9881123E-1,0E0,0E0,0E0,4.2298105E-1,0E0,1.7086446E-1,5.668718E-1,0E0,0E0,8.4009415E-1,4.6766168E-1,0E0,0E0,4.6081707E-1,0E0,5.359594E-1,0E0,0E0,0E0,4.3124083E-1,0E0,0E0,0E0,0E0,0E0],"parents":[2147483647,0,0,1,1,2,2,3,3,4,4,5,5,6,6,7,7,11,11,13,13,14,14,17,17,18,18,21,21,23,23,27,27],"right_children":[2,4,6,8,10,12,14,16,-1,-1,-1,18,-1,20,22,-1,-1,24,26,-1,-1,28,-1,30,-1,-1,-1,32,-1,-1,-1,-1,-1],"split_conditions":[1.0471429E2,3.05E0,7.3416E1,1.6074E2,3.4E1,1E2,5.16E2,3.6E1,3.0301952E-1,6.8649694E-2,-1.8833017E-1,2.562E1,-1.6801584E-1,1.13E1,1.7926E4,-1.1085451E-1,1.8699719E-1,1.49E1,2E0,-2.8645623E-1,-7.342937E-2,1.5E1,-1.8428315E-1,1.91E0,1.874355E-1,2.7579537E-1,-1.2810037E-2,7.5E1,1.8573661E-1,-2.0028968E-1,7.0040815E-2,6.882034E-2,-1.4831926E-1],"split_indices":[4,2,18,18,13,3,1,13,0,0,0,1,0,8,1,0,0,8,6,0,0,9,0,2,0,0,0,3,0,0,0,0,0],"split_type":[0,0,0,0,0,0,0,0,0,0,0,0,0,0,0,0,0,0,0,0,0,0,0,0,0,0,0,0,0,0,0,0,0],"sum_hessian":[2.5563843E1,7.300019E0,1.8263824E1,4.5934343E0,2.7065845E0,8.041724E0,1.02221E1,2.887799E0,1.7056355E0,1.7003767E0,1.0062076E0,6.953372E0,1.0883524E0,3.949834E0,6.272266E0,1.8065817E0,1.0812172E0,4.3493624E0,2.6040096E0,2.1362107E0,1.8136233E0,4.771902E0,1.5003637E0,3.0667183E0,1.282644E0,1.428995E0,1.1750145E0,3.6742723E0,1.09763E0,1.9280705E0,1.1386479E0,2.1081703E0,1.5661021E0],"tree_param":{"num_deleted":"0","num_feature":"21","num_nodes":"33","size_leaf_vector":"1"}},{"base_weights":[8.9099675E-2,1.3469225E-1,-1.7135511E-1,7.01621E-3,3.3878994E-1,-2.2431229E-1,8.611493E-2,-1.21905245E-1,4.7537005E-1,3.5025445E-1,-1.0420344E-1,6.7505085E-1,2.0224611E-1,2.6856318E-1,8.49395E-2,-5.899626E-1,1.3705827E-1,3.200875E-1,6.0583867E-2,-1.2011279E-1,2.304819E-1,-1.5105991E-1,1.60935E-1,-6.641595E-2,-2.7272972E-1,1.4378402E-1,-7.953817E-2],"categories":[],"categories_nodes":[],"categories_segments":[],"categories_sizes":[],"default_left":[0,0,0,0,0,0,0,0,0,0,0,0,0,0,0,0,0,0,0,0,0,0,0,0,0,0,0],"id":20,"left_children":[1,3,-1,5,7,-1,9,-1,11,13,15,17,19,-1,21,23,25,-1,-1,-1,-1,-1,-1,-1,-1,-1,-1],"loss_changes":[6.7202795E-1,6.2627697E-1,0E0,7.821212E-1,9.7416186E-1,0E0,7.824827E-1,0E0,3.0284703E-1,5.231171E-1,1.1819824E0,1.9653296E-1,1.146755E0,0E0,9.01879E-1,3.4505963E-2,6.3896024E-1,0E0,0E0,0E0,0E0,0E0,0E0,0E0,0E0,0E0,0E0],"parents":[2147483647,0,0,1,1,3,3,4,4,6,6,8,8,9,9,10,10,11,11,12,12,14,14,15,15,16,16],"right_children":[2,4,-1,6,8,-1,10,-1,12,14,16,18,20,-1,22,24,26,-1,-1,-1,-1,-1,-1,-1,-1,-1,-1],"split_conditions":[2.22E1,9.2E0,-1.7135511E-1,3.5E1,6.6E1,-2.2431229E-1,1.7E0,-1.21905245E-1,-6.8E0,3.61E1,2.4E0,3.3E1,3.3E1,2.6856318E-1,1.1E0,6.2E1,7.1E0,3.200875E-1,6.0583867E-2,-1.2011279E-1,2.304819E-1,-1.5105991E-1,1.60935E-1,-6.641595E-2,-2.7272972E-1,1.4378402E-1,-7.953817E-2],"split_indices":[5,5,0,0,15,0,6,0,7,11,6,13,13,0,6,0,5,0,0,0,0,0,0,0,0,0,0],"split_type":[0,0,0,0,0,0,0,0,0,0,0,0,0,0,0,0,0,0,0,0,0,0,0,0,0,0,0],"sum_hessian":[2.436952E1,2.3124825E1,1.244695E0,1.4862048E1,8.262776E0,1.0226591E0,1.383939E1,1.2064345E0,7.056342E0,5.443747E0,8.395642E0,3.226129E0,3.8302133E0,1.6827325E0,3.7610147E0,2.306462E0,6.08918E0,2.055426E0,1.170703E0,1.7491345E0,2.0810788E0,1.4675816E0,2.2934332E0,1.0156219E0,1.2908403E0,3.5731194E0,2.5160604E0],"tree_param":{"num_deleted":"0","num_feature":"21","num_nodes":"27","size_leaf_vector":"1"}},{"base_weights":[8.071083E-2,-1.9725697E-1,2.2255644E-1,1.6486974E-1,-4.288079E-1,4.0520287E-1,-8.497832E-2,-8.9094184E-2,2.2537474E-1,2.8059859E-2,-6.492906E-1,-8.4229335E-2,5.1475614E-1,1.8905747E-1,-3.5471514E-1,-3.1549034E-1,-4.9817152E-2,1.9497612E-1,6.584157E-1,-5.0645536E-1,3.537206E-2,-1.1733259E-1,2.1922423E-1,2.9977706E-1,1.0474091E-1,-2.5518858E-1,-3.8647786E-2,1.3543239E-1,-1.9567825E-1],"categories":[],"categories_nodes":[],"categories_segments":[],"categories_sizes":[],"default_left":[0,0,0,0,0,0,0,0,0,0,0,0,0,0,0,0,0,0,0,0,0,0,0,0,0,0,0,0,0],"id":21,"left_children":[1,3,5,7,9,11,13,-1,-1,-1,15,-1,17,-1,19,-1,-1,21,23,25,-1,27,-1,-1,-1,-1,-1,-1,-1],"loss_changes":[9.777015E-1,7.8613096E-1,9.4164634E-1,7.9431605E-1,6.523597E-1,8.1353676E-1,1.2268311E0,0E0,0E0,0E0,2.2578311E-1,0E0,2.8777528E-1,0E0,3.9954722E-1,0E0,0E0,5.530841E-1,4.7356606E-2,1.8170726E-1,0E0,7.351175E-1,0E0,0E0,0E0,0E0,0E0,0E0,0E0],"parents":[2147483647,0,0,1,1,2,2,3,3,4,4,5,5,6,6,10,10,12,12,14,14,17,17,18,18,19,19,21,21],"right_children":[2,4,6,8,10,12,14,-1,-1,-1,16,-1,18,-1,20,-1,-1,22,24,26,-1,28,-1,-1,-1,-1,-1,-1,-1],"split_conditions":[8.7E-1,2.5E-1,3.4E1,2.5E0,1.2983333E2,4E1,6.9E0,-8.9094184E-2,2.2537474E-1,2.8059859E-2,3.1282053E2,-8.4229335E-2,2.142E2,1.8905747E-1,3.8E1,-3.1549034E-1,-4.9817152E-2,1.2E1,8.9E0,1.68E1,3.537206E-2,1.99E0,2.1922423E-1,2.9977706E-1,1.0474091E-1,-2.5518858E-1,-3.8647786E-2,1.3543239E-1,-1.9567825E-1],"split_indices":[2,2,13,6,4,0,5,0,0,0,4,0,19,0,14,0,0,8,5,8,0,2,0,0,0,0,0,0,0],"split_type":[0,0,0,0,0,0,0,0,0,0,0,0,0,0,0,0,0,0,0,0,0,0,0,0,0,0,0,0,0],"sum_hessian":[2.2683386E1,7.5322213E0,1.5151164E1,3.0500968E0,4.4821243E0,9.306439E0,5.844724E0,1.7935086E0,1.2565881E0,1.5754108E0,2.9067137E0,1.2477618E0,8.058678E0,1.617633E0,4.2270913E0,1.7931951E0,1.1135185E0,3.2287745E0,4.829903E0,3.0516615E0,1.1754298E0,2.1172009E0,1.1115738E0,2.9863117E0,1.8435916E0,1.7838165E0,1.2678452E0,1.0035652E0,1.1136357E0],"tree_param":{"num_deleted":"0","num_feature":"21","num_nodes":"29","size_leaf_vector":"1"}},{"base_weights":[-3.910074E-2,2.6474958E-2,-4.06501E-1,-8.89931E-2,4.3531385E-1,-2.3882626E-1,-7.931358E-3,-3.3838293E-1,6.1006576E-2,2.394559E-2,5.3591764E-1,-1.00599624E-1,-2.3268268E-1,-6.352741E-2,1.7300065E-1,2.515844E-1,7.545867E-2,-2.0027812E-1,1.8474606E-1,-2.301496E-1,2.2771773E-1,1.6126998E-1,-6.815168E-2,-1.8817668E-1,6.994108E-2,1.8655682E-1,-4.2405773E-2],"categories":[],"categories_nodes":[],"categories_segments":[],"categories_sizes":[],"default_left":[0,0,0,0,0,0,0,0,0,0,0,0,0,0,0,0,0,0,0,0,0,0,0,0,0,0,0],"id":22,"left_children":[1,3,5,7,9,-1,-1,11,13,-1,15,17,-1,19,-1,-1,-1,-1,21,23,25,-1,-1,-1,-1,-1,-1],"loss_changes":[5.496318E-1,9.790262E-1,2.6388592E-1,6.327099E-1,1.3831931E-1,0E0,0E0,3.2902217E-1,5.571069E-1,0E0,5.7679415E-3,6.261446E-1,0E0,5.002552E-1,0E0,0E0,0E0,0E0,3.537038E-1,7.4933684E-1,3.7991917E-1,0E0,0E0,0E0,0E0,0E0,0E0],"parents":[2147483647,0,0,1,1,2,2,3,3,4,4,7,7,8,8,10,10,11,11,13,13,18,18,19,19,20,20],"right_children":[2,4,6,8,10,-1,-1,12,14,-1,16,18,-1,20,-1,-1,-1,-1,22,24,26,-1,-1,-1,-1,-1,-1],"split_conditions":[3.8E1,3E-1,1.48E1,7.8E-1,7.7E1,-2.3882626E-1,-7.931358E-3,3.64E1,9.1666664E1,2.394559E-2,2.3328E2,7.2E1,-2.3268268E-1,8.92E2,1.7300065E-1,2.515844E-1,7.545867E-2,-2.0027812E-1,9.7E1,3.64E1,1.5703467E3,1.6126998E-1,-6.815168E-2,-1.8817668E-1,6.994108E-2,1.8655682E-1,-4.2405773E-2],"split_indices":[12,7,8,2,15,0,0,11,3,0,19,15,0,19,0,0,0,0,15,11,19,0,0,0,0,0,0],"split_type":[0,0,0,0,0,0,0,0,0,0,0,0,0,0,0,0,0,0,0,0,0,0,0,0,0,0,0],"sum_hessian":[2.1366669E1,1.8918015E1,2.4486554E0,1.5361737E1,3.5562763E0,1.2084818E0,1.2401735E0,5.2977667E0,1.0063971E1,1.0961361E0,2.4601402E0,3.490986E0,1.8067807E0,8.22863E0,1.8353407E0,1.1838145E0,1.2763258E0,1.0954696E0,2.3955166E0,5.36759E0,2.86104E0,1.369134E0,1.0263827E0,3.2044747E0,2.1631153E0,1.3937521E0,1.467288E0],"tree_param":{"num_deleted":"0","num_feature":"21","num_nodes":"27","size_leaf_vector":"1"}},{"base_weights":[-4.007373E-2,4.0092057E-1,-1.2920366E-1,-3.037988E-2,2.4912347E-1,1.996256E-1,-3.0486023E-1,-1.6509613E-1,4.089154E-1,-4.3246153E-1,4.6342146E-2,5.999092E-2,-1.641379E-1,5.699072E-1,4.7383904E-3,-5.115659E-1,-2.8468981E-2,2.0348738E-1,-2.738115E-1,5.594925E-2,2.746547E-1,-6.700416E-1,-1.534796E-1,4.4247176E-2,-2.1741001E-1,-2.95326E-1,-6.695584E-2,9.459144E-2,-1.87076E-1],"categories":[],"categories_nodes":[],"categories_segments":[],"categories_sizes":[],"default_left":[0,0,0,0,0,0,0,0,0,0,0,0,0,0,0,0,0,0,0,0,0,0,0,0,0,0,0,0,0],"id":23,"left_children":[1,3,5,-1,-1,7,9,11,13,15,17,-1,-1,19,-1,21,-1,-1,23,-1,-1,25,27,-1,-1,-1,-1,-1,-1],"loss_changes":[9.584687E-1,5.23229E-1,1.2129042E0,0E0,0E0,6.437409E-1,6.203723E-1,3.4940615E-1,3.1778425E-1,2.4455011E-1,8.26217E-1,0E0,0E0,1.0715449E-1,0E0,3.4917283E-1,0E0,0E0,4.320235E-1,0E0,0E0,1.0160208E-1,6.03053E-1,0E0,0E0,0E0,0E0,0E0,0E0],"parents":[2147483647,0,0,1,1,2,2,5,5,6,6,7,7,8,8,9,9,10,10,13,13,15,15,18,18,21,21,22,22],"right_children":[2,4,6,-1,-1,8,10,12,14,16,18,-1,-1,20,-1,22,-1,-1,24,-1,-1,26,28,-1,-1,-1,-1,-1,-1],"split_conditions":[2.3E1,7.4E0,5.6E1,-3.037988E-2,2.4912347E-1,3.62E1,7.5E1,5.8333332E1,2.3E0,3.6E1,7.1E0,5.999092E-2,-1.641379E-1,7.5E0,4.7383904E-3,1.01E1,-2.8468981E-2,2.0348738E-1,9.2E1,5.594925E-2,2.746547E-1,7.5294E3,6.9E1,4.4247176E-2,-2.1741001E-1,-2.95326E-1,-6.695584E-2,9.459144E-2,-1.87076E-1],"split_indices":[14,5,0,0,0,11,0,3,6,12,5,0,0,5,0,5,0,0,15,0,0,18,0,0,0,0,0,0,0],"split_type":[0,0,0,0,0,0,0,0,0,0,0,0,0,0,0,0,0,0,0,0,0,0,0,0,0,0,0,0,0],"sum_hessian":[2.206704E1,3.1219912E0,1.8945047E1,1.2657794E0,1.8562118E0,6.548951E0,1.2396096E1,2.464798E0,4.0841537E0,8.922821E0,3.4732752E0,1.2771472E0,1.1876507E0,2.5947225E0,1.4894309E0,6.9652267E0,1.9575945E0,1.140376E0,2.3328993E0,1.1271113E0,1.4676113E0,4.224463E0,2.740764E0,1.2437698E0,1.0891296E0,3.1365745E0,1.0878885E0,1.3559548E0,1.3848091E0],"tree_param":{"num_deleted":"0","num_feature":"21","num_nodes":"29","size_leaf_vector":"1"}},{"base_weights":[-7.6928997E-4,3.330463E-1,-1.05643585E-1,-4.8751708E-2,5.197008E-1,1.9605742E-1,-2.4902904E-1,2.9317895E-1,-2.6221849E-2,2.395162E-1,-2.8341925E-1,-4.3939897E-1,4.9509343E-2,-1.7468852E-1,3.0996008E-2,1.5582904E-2,-6.1663705E-1,2.1227323E-1,-1.4372116E-1,-1.2492323E-1,1.443074E-1,-2.8294665E-1,-8.35766E-2,-1.0496347E-1,1.9082987E-1,5.6676406E-2,-1.1857764E-1],"categories":[],"categories_nodes":[],"categories_segments":[],"categories_sizes":[],"default_left":[0,0,0,0,0,0,0,0,0,0,0,0,0,0,0,0,0,0,0,0,0,0,0,0,0,0,0],"id":24,"left_children":[1,3,5,-1,7,9,11,-1,-1,-1,13,15,17,-1,-1,19,21,23,-1,-1,-1,-1,-1,25,-1,-1,-1],"loss_changes":[8.555801E-1,5.650897E-1,8.530641E-1,0E0,6.483501E-1,1.4926934E0,7.6298964E-1,0E0,0E0,0E0,2.61012E-1,6.599914E-1,4.8612773E-1,0E0,0E0,5.066455E-1,1.0333347E-1,4.8781598E-1,0E0,0E0,0E0,0E0,0E0,2.0145398E-1,0E0,0E0,0E0],"parents":[2147483647,0,0,1,1,2,2,4,4,5,5,6,6,10,10,11,11,12,12,15,15,16,16,17,17,23,23],"right_children":[2,4,6,-1,8,10,12,-1,-1,-1,14,16,18,-1,-1,20,22,24,-1,-1,-1,-1,-1,26,-1,-1,-1],"split_conditions":[9.19E1,7.3E0,1.0038E1,-4.8751708E-2,1.11E1,7.7E0,8.8E0,2.9317895E-1,-2.6221849E-2,2.395162E-1,1.43E1,1.7E0,3.6E1,-1.7468852E-1,3.0996008E-2,1.84E2,7E1,3.2E1,-1.4372116E-1,-1.2492323E-1,1.443074E-1,-2.8294665E-1,-8.35766E-2,-5.6E0,1.9082987E-1,5.6676406E-2,-1.1857764E-1],"split_indices":[4,5,18,0,5,5,5,0,0,0,8,6,13,0,0,1,0,13,0,0,0,0,0,7,0,0,0],"split_type":[0,0,0,0,0,0,0,0,0,0,0,0,0,0,0,0,0,0,0,0,0,0,0,0,0,0,0],"sum_hessian":[2.2434074E1,4.8430243E0,1.759105E1,1.4964217E0,3.3466024E0,5.5486493E0,1.20424E1,2.1894965E0,1.157106E0,2.806766E0,2.741883E0,7.0652475E0,4.977153E0,1.7198492E0,1.0220339E0,2.2363832E0,4.828864E0,3.940198E0,1.0369551E0,1.1978468E0,1.0385364E0,3.1487517E0,1.6801125E0,2.132827E0,1.8073708E0,1.0665625E0,1.0662645E0],"tree_param":{"num_deleted":"0","num_feature":"21","num_nodes":"27","size_leaf_vector":"1"}},{"base_weights":[1.5586936E-1,3.139051E-1,-7.255371E-2,-8.449638E-2,4.9703774E-1,1.9020598E-1,-2.1776229E-1,1.7174144E-1,-1.4528093E-1,6.054914E-1,3.169054E-2,-1.638094E-2,-2.312773E-1,1.4975192E-1,-3.742103E-2,5.58746E-2,6.6716653E-1,-2.182528E-1,2.3752752E-1,3.0431974E-1,7.765337E-2,4.137072E-1,-9.074185E-2,-3.461835E-3,2.4486859E-1],"categories":[],"categories_nodes":[],"categories_segments":[],"categories_sizes":[],"default_left":[0,0,0,0,0,0,0,0,0,0,0,0,0,0,0,0,0,0,0,0,0,0,0,0,0],"id":25,"left_children":[1,3,5,7,9,-1,11,13,-1,15,-1,17,-1,-1,-1,-1,19,-1,21,-1,-1,23,-1,-1,-1],"loss_changes":[7.883992E-1,9.70322E-1,8.8005334E-1,4.2424026E-1,3.5006237E-1,0E0,6.1483717E-1,2.2350925E-1,0E0,9.989691E-2,0E0,1.0174315E0,0E0,0E0,0E0,0E0,1.5582347E-1,0E0,5.164604E-1,0E0,0E0,3.7465006E-1,0E0,0E0,0E0],"parents":[2147483647,0,0,1,1,2,2,3,3,4,4,6,6,7,7,9,9,11,11,16,16,18,18,21,21],"right_children":[2,4,6,8,10,-1,12,14,-1,16,-1,18,-1,-1,-1,-1,20,-1,22,-1,-1,24,-1,-1,-1],"split_conditions":[3.06E0,6.8E1,2.5E1,3.5E1,1.4E0,1.9020598E-1,3.65E1,1E-1,-1.4528093E-1,6.6E0,3.169054E-2,7.7E1,-2.312773E-1,1.4975192E-1,-3.742103E-2,5.58746E-2,-8E-1,-2.182528E-1,3.19E1,3.0431974E-1,7.765337E-2,3.2542856E2,-9.074185E-2,-3.461835E-3,2.4486859E-1],"split_indices":[2,3,14,13,20,0,11,20,0,5,0,15,0,0,0,0,7,0,2,0,0,19,0,0,0],"split_type":[0,0,0,0,0,0,0,0,0,0,0,0,0,0,0,0,0,0,0,0,0,0,0,0,0],"sum_hessian":[2.0209007E1,1.1723686E1,8.485322E0,3.8615546E0,7.862131E0,1.2567061E0,7.228616E0,2.262136E0,1.5994188E0,5.872432E0,1.9896989E0,5.3914638E0,1.8371526E0,1.0162103E0,1.2459255E0,1.0841041E0,4.788328E0,1.3292145E0,4.062249E0,3.3004267E0,1.4879014E0,3.0444515E0,1.0177976E0,1.3536788E0,1.6907727E0],"tree_param":{"num_deleted":"0","num_feature":"21","num_nodes":"25","size_leaf_vector":"1"}},{"base_weights":[3.349084E-3,1.435747E-1,-2.4495815E-1,-1.0441316E-4,2.1409763E-1,1.6276319E-2,-5.1264334E-1,-2.4343143E-1,1.3448372E-1,-1.984611E-1,1.3492084E-1,-2.4507038E-1,-3.7990656E-2,6.115937E-2,-4.157291E-1,-8.9030325E-2,3.1976348E-1,-1.6833048E-1,4.581135E-2,-5.5120777E-2,-1.9975643E-1,-1.457116E-1,7.477961E-2,-1.3388117E-2,4.701705E-1,2.2757417E-1,5.6284506E-2],"categories":[],"categories_nodes":[],"categories_segments":[],"categories_sizes":[],"default_left":[0,0,0,0,0,0,0,0,0,0,0,0,0,0,0,0,0,0,0,0,0,0,0,0,0,0,0],"id":26,"left_children":[1,3,5,7,-1,9,11,13,15,17,-1,-1,-1,-1,19,21,23,-1,-1,-1,-1,-1,-1,-1,25,-1,-1],"loss_changes":[7.3901534E-1,7.9224145E-1,5.443548E-1,3.9341587E-1,0E0,4.1309977E-1,1.245296E-1,3.607268E-1,3.4880894E-1,3.1599647E-1,0E0,0E0,0E0,0E0,1.4813662E-2,4.1659516E-1,2.5309774E-1,0E0,0E0,0E0,0E0,0E0,0E0,0E0,3.468132E-2,0E0,0E0],"parents":[2147483647,0,0,1,1,2,2,3,3,5,5,6,6,7,7,8,8,9,9,14,14,15,15,16,16,24,24],"right_children":[2,4,6,8,-1,10,12,14,16,18,-1,-1,-1,-1,20,22,24,-1,-1,-1,-1,-1,-1,-1,26,-1,-1],"split_conditions":[2.8E2,7.4E1,-4.8E0,3.62E1,2.1409763E-1,8.3333336E1,1.1E1,9.3E0,8.85E1,3.2E1,1.3492084E-1,-2.4507038E-1,-3.7990656E-2,6.115937E-2,3.3E1,3.3E1,6.8E1,-1.6833048E-1,4.581135E-2,-5.5120777E-2,-1.9975643E-1,-1.457116E-1,7.477961E-2,-1.3388117E-2,2.23E0,2.2757417E-1,5.6284506E-2],"split_indices":[4,0,7,11,0,3,9,8,18,14,0,0,0,0,13,12,3,0,0,0,0,0,0,0,2,0,0],"split_type":[0,0,0,0,0,0,0,0,0,0,0,0,0,0,0,0,0,0,0,0,0,0,0,0,0,0,0],"sum_hessian":[1.921439E1,1.2549272E1,6.6651177E0,1.0013437E1,2.5358346E0,3.8485281E0,2.8165896E0,3.278108E0,6.7353296E0,2.575571E0,1.2729572E0,1.7909222E0,1.0256675E0,1.0119811E0,2.2661266E0,3.288136E0,3.4471934E0,1.2676132E0,1.3079579E0,1.2408715E0,1.025255E0,1.4668643E0,1.8212717E0,1.2573744E0,2.189819E0,1.0284635E0,1.1613556E0],"tree_param":{"num_deleted":"0","num_feature":"21","num_nodes":"27","size_leaf_vector":"1"}},{"base_weights":[-1.7784135E-2,1.5832709E-1,-7.81223E-2,1.7069945E-1,-1.8330035E-1,3.830282E-1,-8.176094E-2,8.153693E-2,-2.6634133E-1,-3.0070135E-2,2.343674E-1,-3.4840313E-1,6.67895E-2,-9.99186E-2,-5.5155444E-1,-1.0204468E-1,9.851402E-2,-2.52143E-1,-3.0831795E-2],"categories":[],"categories_nodes":[],"categories_segments":[],"categories_sizes":[],"default_left":[0,0,0,0,0,0,0,0,0,0,0,0,0,0,0,0,0,0,0],"id":27,"left_children":[1,-1,3,5,7,9,-1,-1,11,-1,-1,13,-1,15,17,-1,-1,-1,-1],"loss_changes":[5.5148774E-1,0E0,5.177822E-1,5.6912625E-1,4.979396E-1,4.745242E-1,0E0,0E0,4.777494E-1,0E0,0E0,4.558108E-1,0E0,3.978087E-1,1.9299436E-1,0E0,0E0,0E0,0E0],"parents":[2147483647,0,0,2,2,3,3,4,4,5,5,8,8,11,11,13,13,14,14],"right_children":[2,-1,4,6,8,10,-1,-1,12,-1,-1,14,-1,16,18,-1,-1,-1,-1],"split_conditions":[2.8E1,1.5832709E-1,7.1E0,1.38E1,6.68E1,3.1E1,-8.176094E-2,8.153693E-2,1.11E1,-3.0070135E-2,2.343674E-1,7.192E1,6.67895E-2,2.78E1,3.1E0,-1.0204468E-1,9.851402E-2,-2.52143E-1,-3.0831795E-2],"split_indices":[13,0,5,8,4,13,0,0,2,0,0,1,0,1,6,0,0,0,0],"split_type":[0,0,0,0,0,0,0,0,0,0,0,0,0,0,0,0,0,0,0],"sum_hessian":[1.9271038E1,1.6817344E0,1.7589302E1,5.040927E0,1.2548376E1,3.2332227E0,1.8077042E0,1.9231688E0,1.0625207E1,1.2534438E0,1.9797789E0,9.121272E0,1.503935E0,4.773909E0,4.347363E0,3.446067E0,1.3278418E0,3.298683E0,1.0486802E0],"tree_param":{"num_deleted":"0","num_feature":"21","num_nodes":"19","size_leaf_vector":"1"}},{"base_weights":[-3.8563076E-2,2.1981372E-1,-1.302613E-1,3.7906095E-1,-6.2003043E-2,-3.8415334E-1,-6.371329E-3,1.918071E-1,7.3302086E-3,-3.4709238E-2,-1.9983265E-1,-3.2338798E-1,1.2629089E-1,5.427082E-2,-2.1588157E-1,-1.6161958E-2,1.6773011E-1,1.1564118E-1,-1.9332753E-1,-1.4712812E-1,8.915887E-2],"categories":[],"categories_nodes":[],"categories_segments":[],"categories_sizes":[],"default_left":[0,0,0,0,0,0,0,0,0,0,0,0,0,0,0,0,0,0,0,0,0],"id":28,"left_children":[1,3,5,7,-1,9,11,-1,-1,-1,-1,13,15,-1,-1,17,-1,-1,19,-1,-1],"loss_changes":[5.0763774E-1,4.027282E-1,4.866595E-1,1.669715E-1,0E0,1.4849854E-1,5.2310324E-1,0E0,0E0,0E0,0E0,4.704477E-1,3.8944113E-1,0E0,0E0,4.443071E-1,0E0,0E0,4.8192704E-1,0E0,0E0],"parents":[2147483647,0,0,1,1,2,2,3,3,5,5,6,6,11,11,12,12,15,15,18,18],"right_children":[2,4,6,8,-1,10,12,-1,-1,-1,-1,14,16,-1,-1,18,-1,-1,20,-1,-1],"split_conditions":[6E1,1.12E1,1.4E0,5.6E0,-6.2003043E-2,6.1E-1,8.4E-1,1.918071E-1,7.3302086E-3,-3.4709238E-2,-1.9983265E-1,2.5E-1,3.7666666E2,5.427082E-2,-2.1588157E-1,6.9E0,1.6773011E-1,1.1564118E-1,9.3333336E1,-1.4712812E-1,8.915887E-2],"split_indices":[3,5,6,20,0,2,2,0,0,0,0,2,4,0,0,5,0,0,3,0,0],"split_type":[0,0,0,0,0,0,0,0,0,0,0,0,0,0,0,0,0,0,0,0,0],"sum_hessian":[1.9217398E1,4.6678157E0,1.4549582E1,3.2877312E0,1.3800845E0,4.0824704E0,1.0467111E1,2.2163687E0,1.0713625E0,1.7624335E0,2.3200366E0,2.6638217E0,7.803289E0,1.0212083E0,1.6426135E0,5.964441E0,1.8388481E0,1.9086394E0,4.0558014E0,2.8938353E0,1.1619662E0],"tree_param":{"num_deleted":"0","num_feature":"21","num_nodes":"21","size_leaf_vector":"1"}},{"base_weights":[-9.969874E-3,-1.6235118E-1,1.2176724E-1,1.1296228E-1,-3.8164815E-1,2.0691758E-1,-1.3259378E-1,2.9821238E-1,-9.274657E-2,-1.5409114E-2,-4.5300728E-1,-2.7096236E-2,4.7097814E-1,-3.2434102E-2,1.9519648E-1,-2.0373003E-1,-4.9413893E-2,-3.351757E-1,2.6741317E-1,2.3417187E-1,6.019723E-2,-2.0774497E-1,1.2036775E-2,1.7444561E-1,-3.4162007E-2],"categories":[],"categories_nodes":[],"categories_segments":[],"categories_sizes":[],"default_left":[0,0,0,0,0,0,0,0,0,0,0,0,0,0,0,0,0,0,0,0,0,0,0,0,0],"id":29,"left_children":[1,3,5,7,9,11,-1,13,-1,-1,15,17,19,-1,-1,-1,-1,21,23,-1,-1,-1,-1,-1,-1],"loss_changes":[3.9382392E-1,5.906196E-1,4.868032E-1,3.831139E-1,1.1082393E-1,6.026062E-1,0E0,3.2032168E-1,0E0,0E0,3.20217E-2,6.3458645E-1,9.502244E-2,0E0,0E0,0E0,0E0,2.6273015E-1,2.727868E-1,0E0,0E0,0E0,0E0,0E0,0E0],"parents":[2147483647,0,0,1,1,2,2,3,3,4,4,5,5,7,7,10,10,11,11,12,12,17,17,18,18],"right_children":[2,4,6,8,10,12,-1,14,-1,-1,16,18,20,-1,-1,-1,-1,22,24,-1,-1,-1,-1,-1,-1],"split_conditions":[6.4E1,1.05E0,3.19E1,9E-1,7.24E1,1.26E1,-1.3259378E-1,5.34E1,-9.274657E-2,-1.5409114E-2,1.38E1,7.6666664E1,7.3333336E1,-3.2434102E-2,1.9519648E-1,-2.0373003E-1,-4.9413893E-2,2.1384616E2,2.5533333E2,2.3417187E-1,6.019723E-2,-2.0774497E-1,1.2036775E-2,1.7444561E-1,-3.4162007E-2],"split_indices":[0,2,2,20,4,8,0,1,0,0,2,3,3,0,0,0,0,4,4,0,0,0,0,0,0],"split_type":[0,0,0,0,0,0,0,0,0,0,0,0,0,0,0,0,0,0,0,0,0,0,0,0,0],"sum_hessian":[1.7633545E1,8.068391E0,9.565155E0,3.7922945E0,4.2760963E0,8.545365E0,1.0197893E0,2.5824733E0,1.2098212E0,1.0066092E0,3.2694871E0,5.0061965E0,3.5391688E0,1.104249E0,1.4782242E0,2.1870642E0,1.0824229E0,2.3792436E0,2.6269531E0,1.8624644E0,1.6767045E0,1.2440958E0,1.1351478E0,1.5659248E0,1.0610284E0],"tree_param":{"num_deleted":"0","num_feature":"21","num_nodes":"25","size_leaf_vector":"1"}},{"base_weights":[4.698692E-2,1.4320008E-1,-1.6353565E-1,4.0482268E-2,3.952041E-1,3.0843714E-1,-1.2625575E-1,3.4651317E-2,2.1369712E-1,5.1595294E-3,1.9401887E-1,-1.8532462E-1,1.12670764E-1,2.0504552E-1,-2.2830667E-1,-1.5327273E-1,1.763898E-2],"categories":[],"categories_nodes":[],"categories_segments":[],"categories_sizes":[],"default_left":[0,0,0,0,0,0,0,0,0,0,0,0,0,0,0,0,0],"id":30,"left_children":[1,3,-1,5,7,9,11,-1,-1,-1,-1,-1,13,-1,15,-1,-1],"loss_changes":[8.512246E-1,3.8084596E-1,0E0,5.7533157E-1,1.5529346E-1,2.685652E-1,7.323995E-1,0E0,0E0,0E0,0E0,0E0,9.162034E-1,0E0,1.8970017E-1,0E0,0E0],"parents":[2147483647,0,0,1,1,3,3,4,4,5,5,6,6,12,12,14,14],"right_children":[2,4,-1,6,8,10,12,-1,-1,-1,-1,-1,14,-1,16,-1,-1],"split_conditions":[4.904762E2,8.89E2,-1.6353565E-1,4.422E-1,7.04E0,3.3E1,9.11E1,3.4651317E-2,2.1369712E-1,5.1595294E-3,1.9401887E-1,-1.8532462E-1,1.58E2,2.0504552E-1,3.18E2,-1.5327273E-1,1.763898E-2],"split_indices":[4,1,0,18,2,12,1,0,0,0,0,0,1,0,1,0,0],"split_type":[0,0,0,0,0,0,0,0,0,0,0,0,0,0,0,0,0],"sum_hessian":[1.6586687E1,1.4330891E1,2.2557957E0,1.1005605E1,3.3252861E0,3.895517E0,7.1100874E0,1.6429025E0,1.6823837E0,1.9471549E0,1.9483621E0,2.480011E0,4.6300764E0,1.8430736E0,2.7870028E0,1.461457E0,1.3255459E0],"tree_param":{"num_deleted":"0","num_feature":"21","num_nodes":"17","size_leaf_vector":"1"}},{"base_weights":[-7.056448E-2,-1.8105063E-1,1.8291701E-1,3.2155678E-2,-3.599576E-1,-4.8081428E-2,3.576775E-1,-1.6635023E-1,3.001829E-1,-5.397012E-1,-6.796673E-2,6.284109E-2,-8.898896E-2,4.4680085E-2,1.6182117E-1,1.4940821E-2,-1.1871523E-1,1.5910347E-1,2.1340048E-2,-4.168085E-2,-2.531153E-1,1.04907475E-1,-1.8070148E-1],"categories":[],"categories_nodes":[],"categories_segments":[],"categories_sizes":[],"default_left":[0,0,0,0,0,0,0,0,0,0,0,0,0,0,0,0,0,0,0,0,0,0,0],"id":31,"left_children":[1,3,5,7,9,11,13,15,17,19,21,-1,-1,-1,-1,-1,-1,-1,-1,-1,-1,-1,-1],"loss_changes":[5.1497966E-1,4.8781142E-1,2.4812534E-1,4.0186185E-1,3.2391495E-1,1.6373378E-1,6.043911E-5,1.3810863E-1,6.2275022E-2,1.2773228E-1,6.292812E-1,0E0,0E0,0E0,0E0,0E0,0E0,0E0,0E0,0E0,0E0,0E0,0E0],"parents":[2147483647,0,0,1,1,2,2,3,3,4,4,5,5,6,6,7,7,8,8,9,9,10,10],"right_children":[2,4,6,8,10,12,14,16,18,20,22,-1,-1,-1,-1,-1,-1,-1,-1,-1,-1,-1,-1],"split_conditions":[1.1E2,8.1E1,2.91E2,3.64E1,1.2E1,1.5E0,7.5E1,6.5E1,2.7144E1,3.1E1,3.266455E4,6.284109E-2,-8.898896E-2,4.4680085E-2,1.6182117E-1,1.4940821E-2,-1.1871523E-1,1.5910347E-1,2.1340048E-2,-4.168085E-2,-2.531153E-1,1.04907475E-1,-1.8070148E-1],"split_indices":[15,15,1,11,9,1,3,3,18,13,18,0,0,0,0,0,0,0,0,0,0,0,0],"split_type":[0,0,0,0,0,0,0,0,0,0,0,0,0,0,0,0,0,0,0,0,0,0,0],"sum_hessian":[1.6205566E1,1.1485203E1,4.7203646E0,5.614536E0,5.8706665E0,2.3452652E0,2.3750992E0,3.4435399E0,2.170996E0,3.1086783E0,2.7619882E0,1.1347933E0,1.2104719E0,1.0359057E0,1.3391935E0,1.6841458E0,1.7593942E0,1.041104E0,1.1298921E0,1.0369651E0,2.0717132E0,1.6646818E0,1.0973065E0],"tree_param":{"num_deleted":"0","num_feature":"21","num_nodes":"23","size_leaf_vector":"1"}},{"base_weights":[2.3963587E-2,1.7064391E-1,-1.4519793E-1,-1.7063639E-1,3.3489573E-1,-2.3903523E-1,7.80944E-2,-1.578185E-1,9.0229385E-2,4.1249058E-1,-4.032917E-3,2.1668978E-2,-3.4589112E-1,3.645231E-2,4.8417634E-1,7.213645E-2,-6.1265368E-2,-2.0293726E-1,2.1621194E-3,2.2515775E-1,6.6238455E-2],"categories":[],"categories_nodes":[],"categories_segments":[],"categories_sizes":[],"default_left":[0,0,0,0,0,0,0,0,0,0,0,0,0,0,0,0,0,0,0,0,0],"id":32,"left_children":[1,3,5,7,9,11,-1,-1,-1,13,-1,15,17,-1,19,-1,-1,-1,-1,-1,-1],"loss_changes":[4.6251658E-1,6.125734E-1,3.3154866E-1,4.6168867E-1,1.9252723E-1,2.1159878E-1,0E0,0E0,0E0,8.627969E-2,0E0,1.19368754E-1,3.2782996E-1,0E0,3.4163952E-2,0E0,0E0,0E0,0E0,0E0,0E0],"parents":[2147483647,0,0,1,1,2,2,3,3,4,4,5,5,9,9,11,11,12,12,14,14],"right_children":[2,4,6,8,10,12,-1,-1,-1,14,-1,16,18,-1,20,-1,-1,-1,-1,-1,-1],"split_conditions":[1.5E2,7.1666664E1,3.7666666E2,8E-1,1E2,3.61E1,7.80944E-2,-1.578185E-1,9.0229385E-2,3.62E1,-4.032917E-3,2.56956E3,1.148045E4,3.645231E-2,3.0888E1,7.213645E-2,-6.1265368E-2,-2.0293726E-1,2.1621194E-3,2.2515775E-1,6.6238455E-2],"split_indices":[1,3,4,20,3,11,0,0,0,11,0,18,18,0,18,0,0,0,0,0,0],"split_type":[0,0,0,0,0,0,0,0,0,0,0,0,0,0,0,0,0,0,0,0,0],"sum_hessian":[1.6641775E1,8.9084635E0,7.7333117E0,2.8818085E0,6.0266547E0,6.326632E0,1.4066794E0,1.8143371E0,1.0674714E0,4.7617865E0,1.2648679E0,2.071021E0,4.255611E0,1.2979113E0,3.4638753E0,1.0636392E0,1.0073818E0,2.5130265E0,1.7425845E0,2.0118535E0,1.4520218E0],"tree_param":{"num_deleted":"0","num_feature":"21","num_nodes":"21","size_leaf_vector":"1"}},{"base_weights":[1.222133E-1,1.7956796E-1,-1.21099345E-1,-1.5577194E-1,2.478828E-1,6.3388675E-2,-1.4755648E-1,-1.3752818E-1,3.5340235E-1,-1.4036426E-1,7.342667E-2,4.1127545E-1,-3.8577594E-2,-1.925971E-2,4.94635E-1,2.37711E-1,3.7251763E-2],"categories":[],"categories_nodes":[],"categories_segments":[],"categories_sizes":[],"default_left":[0,0,0,0,0,0,0,0,0,0,0,0,0,0,0,0,0],"id":33,"left_children":[1,3,-1,5,7,-1,-1,9,11,-1,-1,13,-1,-1,15,-1,-1],"loss_changes":[4.6770006E-1,3.881618E-1,0E0,2.8969997E-1,5.798099E-1,0E0,0E0,3.2527384E-1,3.1672835E-1,0E0,0E0,3.9073431E-1,0E0,0E0,3.211186E-1,0E0,0E0],"parents":[2147483647,0,0,1,1,3,3,4,4,7,7,8,8,11,11,14,14],"right_children":[2,4,-1,6,8,-1,-1,10,12,-1,-1,14,-1,-1,16,-1,-1],"split_conditions":[1.9117E4,1.2565E2,-1.21099345E-1,-4.4E0,2.9E1,6.3388675E-2,-1.4755648E-1,2.8E0,3.68E1,-1.4036426E-1,7.342667E-2,4E0,-3.8577594E-2,-1.925971E-2,3.6E1,2.37711E-1,3.7251763E-2],"split_indices":[1,19,0,7,12,0,0,6,11,0,0,17,0,0,13,0,0],"split_type":[0,0,0,0,0,0,0,0,0,0,0,0,0,0,0,0,0],"sum_hessian":[1.5558548E1,1.4258342E1,1.3002061E0,2.1964293E0,1.2061913E1,1.017419E0,1.1790103E0,2.5273619E0,9.534551E0,1.4374077E0,1.0899541E0,8.53454E0,1.0000103E0,1.3695924E0,7.164948E0,5.132335E0,2.032613E0],"tree_param":{"num_deleted":"0","num_feature":"21","num_nodes":"17","size_leaf_vector":"1"}},{"base_weights":[3.1248117E-2,2.8303143E-1,-1.4738058E-1,2.132626E-1,1.03352204E-1,-2.2538188E-1,8.018026E-2,-6.6838644E-2,2.1971598E-1,1.1865349E-2,-3.296925E-1,1.7911635E-1,-2.6162384E-2,-1.20547004E-1,1.4388373E-1,5.555335E-2,-4.5913962E-1,-1.4434946E-1,-2.4606916E-1,-6.832291E-3,-7.721205E-2],"categories":[],"categories_nodes":[],"categories_segments":[],"categories_sizes":[],"default_left":[0,0,0,0,0,0,0,0,0,0,0,0,0,0,0,0,0,0,0,0,0],"id":34,"left_children":[1,3,5,-1,7,9,-1,-1,11,13,15,-1,-1,-1,-1,-1,17,19,-1,-1,-1],"loss_changes":[7.4410194E-1,2.6863664E-1,3.1653506E-1,0E0,2.0751634E-1,2.1428713E-1,0E0,0E0,3.1881905E-1,5.2510506E-1,4.288931E-1,0E0,0E0,0E0,0E0,0E0,1.763717E-1,1.7374434E-2,0E0,0E0,0E0],"parents":[2147483647,0,0,1,1,2,2,4,4,5,5,8,8,9,9,10,10,16,16,17,17],"right_children":[2,4,6,-1,8,10,-1,-1,12,14,16,-1,-1,-1,-1,-1,18,20,-1,-1,-1],"split_conditions":[3.2E1,9.19E1,1.5E1,2.132626E-1,5.8E0,2.088E2,8.018026E-2,-6.6838644E-2,-6.3E0,1.2565E2,7.1E0,1.7911635E-1,-2.6162384E-2,-1.20547004E-1,1.4388373E-1,5.555335E-2,1E-1,-3.4E0,-2.4606916E-1,-6.832291E-3,-7.721205E-2],"split_indices":[13,4,9,0,5,19,0,0,7,19,5,0,0,0,0,0,20,7,0,0,0],"split_type":[0,0,0,0,0,0,0,0,0,0,0,0,0,0,0,0,0,0,0,0,0],"sum_hessian":[1.461706E1,5.823777E0,8.793283E0,1.5229952E0,4.3007817E0,7.5008984E0,1.2923849E0,1.1363294E0,3.1644523E0,2.5614069E0,4.9394913E0,1.3917195E0,1.772733E0,1.4198314E0,1.1415755E0,1.0399109E0,3.8995805E0,2.036955E0,1.8626254E0,1.0063794E0,1.0305758E0],"tree_param":{"num_deleted":"0","num_feature":"21","num_nodes":"21","size_leaf_vector":"1"}},{"base_weights":[-1.5929468E-2,-1.9805834E-1,7.630127E-2,-3.026453E-1,4.8504736E-2,1.6819164E-1,-1.23166144E-1,-1.6955772E-1,1.4254096E-2,-6.8340674E-2,3.1156242E-1,-1.23112746E-1,7.1964495E-2,4.6158853E-1,-5.903415E-2,2.1417354E-1,4.7102775E-2],"categories":[],"categories_nodes":[],"categories_segments":[],"categories_sizes":[],"default_left":[0,0,0,0,0,0,0,0,0,0,0,0,0,0,0,0,0],"id":35,"left_children":[1,3,5,7,-1,9,-1,-1,-1,11,13,-1,-1,15,-1,-1,-1],"loss_changes":[2.82355E-1,2.2767957E-1,4.6072167E-1,2.2142085E-1,0E0,3.5355732E-1,0E0,0E0,0E0,3.4270725E-1,5.066349E-1,0E0,0E0,8.474374E-2,0E0,0E0,0E0],"parents":[2147483647,0,0,1,1,2,2,3,3,5,5,9,9,10,10,13,13],"right_children":[2,4,6,8,-1,10,-1,-1,-1,12,14,-1,-1,16,-1,-1,-1],"split_conditions":[2.4125E2,3.67E1,4.904762E2,1.3E0,4.8504736E-2,7.823E1,-1.23166144E-1,-1.6955772E-1,1.4254096E-2,2.4125E2,5E0,-1.23112746E-1,7.1964495E-2,3.65E1,-5.903415E-2,2.1417354E-1,4.7102775E-2],"split_indices":[19,11,4,20,0,1,0,0,0,4,20,0,0,11,0,0,0],"split_type":[0,0,0,0,0,0,0,0,0,0,0,0,0,0,0,0,0],"sum_hessian":[1.4909322E1,4.626301E0,1.0283021E1,3.541232E0,1.085069E0,8.797907E0,1.4851134E0,2.3376606E0,1.2035716E0,3.5177205E0,5.2801867E0,1.6510257E0,1.8666948E0,3.991592E0,1.288595E0,2.6742542E0,1.3173378E0],"tree_param":{"num_deleted":"0","num_feature":"21","num_nodes":"17","size_leaf_vector":"1"}},{"base_weights":[-2.4226503E-2,1.2690862E-1,-1.4557451E-1,2.6940927E-1,-1.7220333E-1,3.0577779E-2,-4.3163303E-1,-6.4724594E-2,4.1490227E-1,5.571051E-3,-1.05509326E-1,1.8804581E-1,-9.445941E-2,-2.1510962E-1,-2.5127057E-2,2.1383348E-1,5.3040773E-2,3.4140247E-1,-6.7452185E-2,-8.411458E-3,2.0002443E-1],"categories":[],"categories_nodes":[],"categories_segments":[],"categories_sizes":[],"default_left":[0,0,0,0,0,0,0,0,0,0,0,0,0,0,0,0,0,0,0,0,0],"id":36,"left_children":[1,3,5,7,9,11,13,-1,15,-1,-1,17,-1,-1,-1,-1,-1,19,-1,-1,-1],"loss_changes":[3.0683312E-1,3.676195E-1,4.7611138E-1,4.1745576E-1,6.0109288E-2,3.3070874E-1,1.23303056E-1,0E0,9.056741E-2,0E0,0E0,3.2331735E-1,0E0,0E0,0E0,0E0,0E0,2.4224836E-1,0E0,0E0,0E0],"parents":[2147483647,0,0,1,1,2,2,3,3,4,4,5,5,6,6,8,8,11,11,17,17],"right_children":[2,4,6,8,10,12,14,-1,16,-1,-1,18,-1,-1,-1,-1,-1,20,-1,-1,-1],"split_conditions":[-6E0,3.5E1,9.1E0,5.1E1,1.974E2,1.288E2,1.3E0,-6.4724594E-2,7.1666664E1,5.571051E-3,-1.05509326E-1,1.1E1,-9.445941E-2,-2.1510962E-1,-2.5127057E-2,2.1383348E-1,5.3040773E-2,3.3E1,-6.7452185E-2,-8.411458E-3,2.0002443E-1],"split_indices":[7,13,5,0,4,1,2,0,3,0,0,9,0,0,0,0,0,12,0,0,0],"split_type":[0,0,0,0,0,0,0,0,0,0,0,0,0,0,0,0,0,0,0,0,0],"sum_hessian":[1.4722971E1,6.5363407E0,8.18663E0,4.4944377E0,2.0419033E0,5.6193757E0,2.567255E0,1.0888516E0,3.405586E0,1.0051734E0,1.0367298E0,3.7641613E0,1.8552142E0,1.5479509E0,1.019304E0,1.6380179E0,1.7675682E0,2.681925E0,1.0822363E0,1.147556E0,1.5343691E0],"tree_param":{"num_deleted":"0","num_feature":"21","num_nodes":"21","size_leaf_vector":"1"}},{"base_weights":[-1.0557068E-2,1.3191877E-1,-6.2460206E-2,-3.6522272E-1,2.7411435E-2,-5.100404E-2,-1.7334183E-1,3.5452342E-1,-8.982076E-2,1.6677442E-1,4.17438E-2,-1.9334818E-1,1.4191118E-1,-3.167284E-1,8.255525E-2,-1.279724E-2,-1.7162755E-1],"categories":[],"categories_nodes":[],"categories_segments":[],"categories_sizes":[],"default_left":[0,0,0,0,0,0,0,0,0,0,0,0,0,0,0,0,0],"id":37,"left_children":[1,-1,3,5,7,-1,-1,9,11,-1,-1,13,-1,15,-1,-1,-1],"loss_changes":[2.967755E-1,0E0,3.926865E-1,3.5108328E-3,4.8338944E-1,0E0,0E0,1.4739841E-2,5.161734E-1,0E0,0E0,4.8582733E-1,0E0,2.2642273E-1,0E0,0E0,0E0],"parents":[2147483647,0,0,2,2,3,3,4,4,7,7,8,8,11,11,13,13],"right_children":[2,-1,4,6,8,-1,-1,10,12,-1,-1,14,-1,16,-1,-1,-1],"split_conditions":[4.3333332E1,1.3191877E-1,-1.07E1,1.590909E3,1.01333336E2,-5.100404E-2,-1.7334183E-1,6.79E1,1.2E1,1.6677442E-1,4.17438E-2,1.0166667E3,1.4191118E-1,7.1E0,8.255525E-2,-1.279724E-2,-1.7162755E-1],"split_indices":[3,0,7,19,4,0,0,4,5,0,0,19,0,5,0,0,0],"split_type":[0,0,0,0,0,0,0,0,0,0,0,0,0,0,0,0,0],"sum_hessian":[1.4181137E1,1.1172448E0,1.3063892E1,2.2889562E0,1.0774937E1,1.2584338E0,1.0305225E0,2.3087468E0,8.466189E0,1.2102047E0,1.098542E0,7.3642983E0,1.1018913E0,5.814737E0,1.5495615E0,2.1592507E0,3.655486E0],"tree_param":{"num_deleted":"0","num_feature":"21","num_nodes":"17","size_leaf_vector":"1"}},{"base_weights":[-1.7999373E-2,1.8094999E-1,-1.15996435E-1,1.5063687E-1,-8.559116E-2,-3.425409E-1,1.0058695E-1,-1.1746746E-1,6.9110624E-2,-1.8553603E-1,2.867982E-2,3.239593E-1,-9.616442E-2,1.5031846E-1,4.0277906E-2,-1.0800109E-1,6.1350346E-2],"categories":[],"categories_nodes":[],"categories_segments":[],"categories_sizes":[],"default_left":[0,0,0,0,0,0,0,0,0,0,0,0,0,0,0,0,0],"id":38,"left_children":[1,3,5,-1,7,9,11,-1,-1,-1,-1,13,15,-1,-1,-1,-1],"loss_changes":[3.0293268E-1,3.171624E-1,5.397431E-1,0E0,2.2875209E-1,3.297544E-1,2.965094E-1,0E0,0E0,0E0,0E0,2.1068752E-3,2.2732131E-1,0E0,0E0,0E0,0E0],"parents":[2147483647,0,0,1,1,2,2,4,4,5,5,6,6,11,11,12,12],"right_children":[2,4,6,-1,8,10,12,-1,-1,-1,-1,14,16,-1,-1,-1,-1],"split_conditions":[3.61E1,8.9E0,7.9E0,1.5063687E-1,2.2E0,7.2E1,2E0,-1.1746746E-1,6.9110624E-2,-1.8553603E-1,2.867982E-2,5.6E1,2.63E2,1.5031846E-1,4.0277906E-2,-1.0800109E-1,6.1350346E-2],"split_indices":[11,5,5,0,6,0,6,0,0,0,0,0,1,0,0,0,0],"split_type":[0,0,0,0,0,0,0,0,0,0,0,0,0,0,0,0,0],"sum_hessian":[1.3461254E1,4.163076E0,9.298179E0,2.090942E0,2.0721338E0,4.260336E0,5.0378423E0,1.0564666E0,1.0156673E0,3.1095054E0,1.1508307E0,2.056524E0,2.9813182E0,1.0148019E0,1.0417222E0,1.683801E0,1.2975173E0],"tree_param":{"num_deleted":"0","num_feature":"21","num_nodes":"17","size_leaf_vector":"1"}},{"base_weights":[-1.0768475E-1,-1.8207173E-1,1.7443454E-1,9.4589815E-2,-3.1746686E-1,1.2792169E-1,-3.926859E-2,-8.3789244E-2,2.6581833E-1,2.394006E-2,-3.8250014E-1,2.1117313E-1,-6.159738E-2,-4.450348E-3,-4.64786E-1,-2.1744601E-1,-5.390454E-2],"categories":[],"categories_nodes":[],"categories_segments":[],"categories_sizes":[],"default_left":[0,0,0,0,0,0,0,0,0,0,0,0,0,0,0,0,0],"id":39,"left_children":[1,3,5,7,9,-1,-1,-1,11,-1,13,-1,-1,-1,15,-1,-1],"loss_changes":[3.26715E-1,4.6498087E-1,1.7971167E-1,3.007141E-1,2.2137219E-1,0E0,0E0,0E0,4.8596966E-1,0E0,2.080735E-1,0E0,0E0,0E0,9.773028E-2,0E0,0E0],"parents":[2147483647,0,0,1,1,2,2,3,3,4,4,8,8,10,10,14,14],"right_children":[2,4,6,8,10,-1,-1,-1,12,-1,14,-1,-1,-1,16,-1,-1],"split_conditions":[4.08E2,1.0471429E2,5.266667E2,7.3E0,3.8E-1,1.2792169E-1,-3.926859E-2,-8.3789244E-2,1.02E1,2.394006E-2,2.9E1,2.1117313E-1,-6.159738E-2,-4.450348E-3,1.4E1,-2.1744601E-1,-5.390454E-2],"split_indices":[4,4,4,5,2,0,0,0,5,0,14,0,0,0,9,0,0],"split_type":[0,0,0,0,0,0,0,0,0,0,0,0,0,0,0,0,0],"sum_hessian":[1.305486E1,1.0611526E1,2.443335E0,3.5858028E0,7.0257225E0,1.4408075E0,1.0025276E0,1.1839187E0,2.401884E0,1.0367669E0,5.9889555E0,1.2833576E0,1.1185265E0,1.2938001E0,4.6951556E0,3.0880537E0,1.6071018E0],"tree_param":{"num_deleted":"0","num_feature":"21","num_nodes":"17","size_leaf_vector":"1"}},{"base_weights":[3.3455912E-2,1.7745884E-1,-1.24686986E-1,-7.0557065E-2,2.969709E-1,1.1662576E-1,-3.9796695E-1,2.131488E-1,1.11816674E-1,-9.5929325E-2,1.4340237E-1,-2.1701485E-2,-1.9823888E-1,-6.830518E-2,1.18259594E-1,5.1079363E-2,-1.1206712E-1,5.3131424E-2,-1.0690047E-1],"categories":[],"categories_nodes":[],"categories_segments":[],"categories_sizes":[],"default_left":[0,0,0,0,0,0,0,0,0,0,0,0,0,0,0,0,0,0,0],"id":40,"left_children":[1,3,5,-1,7,9,11,-1,13,15,-1,-1,-1,17,-1,-1,-1,-1,-1],"loss_changes":[3.5007864E-1,3.948594E-1,5.3776324E-1,0E0,2.3361748E-1,2.8883913E-1,1.13832355E-1,0E0,1.9071105E-1,1.8462923E-1,0E0,0E0,0E0,1.7936255E-1,0E0,0E0,0E0,0E0,0E0],"parents":[2147483647,0,0,1,1,2,2,4,4,5,5,6,6,8,8,9,9,13,13],"right_children":[2,4,6,-1,8,10,12,-1,14,16,-1,-1,-1,18,-1,-1,-1,-1,-1],"split_conditions":[2.0461539E2,7.7E1,3.63E1,-7.0557065E-2,9E0,-1.7E0,5.2E1,2.131488E-1,3.20625E2,3.1E1,1.4340237E-1,-2.1701485E-2,-1.9823888E-1,1.26E2,1.18259594E-1,5.1079363E-2,-1.1206712E-1,5.3131424E-2,-1.0690047E-1],"split_indices":[4,15,11,0,8,7,0,0,19,12,0,0,0,19,0,0,0,0,0],"split_type":[0,0,0,0,0,0,0,0,0,0,0,0,0,0,0,0,0,0,0],"sum_hessian":[1.3400883E1,6.950083E0,6.4507995E0,1.6068625E0,5.34322E0,3.7301898E0,2.7206097E0,1.4359168E0,3.9073033E0,2.359924E0,1.3702657E0,1.0389549E0,1.6816548E0,2.350203E0,1.5571002E0,1.2265348E0,1.1333892E0,1.3497891E0,1.000414E0],"tree_param":{"num_deleted":"0","num_feature":"21","num_nodes":"19","size_leaf_vector":"1"}},{"base_weights":[5.2499313E-2,1.5684645E-1,-1.8752939E-1,-1.4508654E-1,2.6905772E-1,-3.5072225E-1,6.7178965E-2,9.461767E-2,4.284823E-1,-1.5930885E-1,-4.41877E-2,-1.8855788E-1,3.2371268E-1,6.1502226E-2,2.2173591E-1,-1.9430896E-2,-9.0464115E-2,1.679011E-2,1.6642503E-1],"categories":[],"categories_nodes":[],"categories_segments":[],"categories_sizes":[],"default_left":[0,0,0,0,0,0,0,0,0,0,0,0,0,0,0,0,0,0,0],"id":41,"left_children":[1,3,5,-1,7,9,-1,11,13,-1,-1,15,17,-1,-1,-1,-1,-1,-1],"loss_changes":[3.5472995E-1,6.7105424E-1,3.1874287E-1,0E0,1.9588047E-1,2.74688E-4,0E0,4.0765435E-1,6.9093406E-2,0E0,0E0,6.8239346E-3,7.8632176E-2,0E0,0E0,0E0,0E0,0E0,0E0],"parents":[2147483647,0,0,1,1,2,2,4,4,5,5,7,7,8,8,11,11,12,12],"right_children":[2,4,6,-1,8,10,-1,12,14,-1,-1,16,18,-1,-1,-1,-1,-1,-1],"split_conditions":[9.519E2,5E0,1.0143333E3,-1.4508654E-1,-2.4E0,2.02027E4,6.7178965E-2,1.1E1,4.5333334E2,-1.5930885E-1,-4.41877E-2,5.56E2,1.15E1,6.1502226E-2,2.2173591E-1,-1.9430896E-2,-9.0464115E-2,1.679011E-2,1.6642503E-1],"split_indices":[18,9,19,0,7,18,0,9,19,0,0,19,8,0,0,0,0,0,0],"split_type":[0,0,0,0,0,0,0,0,0,0,0,0,0,0,0,0,0,0,0],"sum_hessian":[1.1988606E1,8.59756E0,3.3910468E0,1.0962211E0,7.501339E0,2.3520837E0,1.038963E0,4.342898E0,3.1584408E0,1.3012102E0,1.0508736E0,2.0213408E0,2.3215573E0,1.8136284E0,1.3448125E0,1.0022157E0,1.0191252E0,1.0118536E0,1.3097036E0],"tree_param":{"num_deleted":"0","num_feature":"21","num_nodes":"19","size_leaf_vector":"1"}},{"base_weights":[7.27769E-2,3.1369734E-1,-4.666797E-2,4.194043E-2,1.5303424E-1,6.58335E-2,-2.3154406E-1,-1.1660789E-1,2.6716647E-1,-1.5657598E-1,-5.8073224E-3,6.1573476E-2,-2.6111045E-1,1.7438953E-1,-2.1189127E-2,-2.4719493E-2,-1.3069926E-1],"categories":[],"categories_nodes":[],"categories_segments":[],"categories_sizes":[],"default_left":[0,0,0,0,0,0,0,0,0,0,0,0,0,0,0,0,0],"id":42,"left_children":[1,3,5,-1,-1,7,9,11,13,-1,-1,-1,15,-1,-1,-1,-1],"loss_changes":[4.219463E-1,3.675556E-2,2.3015997E-1,0E0,0E0,2.9571542E-1,1.4703389E-1,2.1911152E-1,2.4174294E-1,0E0,0E0,0E0,2.7658448E-2,0E0,0E0,0E0,0E0],"parents":[2147483647,0,0,1,1,2,2,5,5,6,6,7,7,8,8,12,12],"right_children":[2,4,6,-1,-1,8,10,12,14,-1,-1,-1,16,-1,-1,-1,-1],"split_conditions":[9.3E0,3.2E1,9.4E0,4.194043E-2,1.5303424E-1,7.8333336E1,2.4E0,2E0,9.1666664E1,-1.5657598E-1,-5.8073224E-3,6.1573476E-2,6.8E1,1.7438953E-1,-2.1189127E-2,-2.4719493E-2,-1.3069926E-1],"split_indices":[8,12,5,0,0,3,6,6,3,0,0,0,3,0,0,0,0],"split_type":[0,0,0,0,0,0,0,0,0,0,0,0,0,0,0,0,0],"sum_hessian":[1.3154037E1,3.8209276E0,9.33311E0,1.7242054E0,2.0967224E0,6.202591E0,3.1305187E0,3.474727E0,2.7278643E0,1.2694461E0,1.8610727E0,1.164164E0,2.3105628E0,1.4927152E0,1.2351489E0,1.1438205E0,1.1667422E0],"tree_param":{"num_deleted":"0","num_feature":"21","num_nodes":"17","size_leaf_vector":"1"}},{"base_weights":[-7.336577E-3,-2.3843966E-1,1.1855907E-1,-3.8101542E-1,8.879819E-3,-3.5380267E-3,3.131745E-1,-3.5797656E-2,-1.8678834E-1,1.3296358E-1,-1.9560184E-1,1.6736734E-1,1.3898839E-2,3.3326817E-1,-9.4726466E-2,-1.2070209E-1,9.245024E-3,8.138217E-3,1.8522093E-1],"categories":[],"categories_nodes":[],"categories_segments":[],"categories_sizes":[],"default_left":[0,0,0,0,0,0,0,0,0,0,0,0,0,0,0,0,0,0,0],"id":43,"left_children":[1,3,5,7,-1,9,11,-1,-1,13,15,-1,-1,17,-1,-1,-1,-1,-1],"loss_changes":[4.1499376E-1,1.9568014E-1,2.2143807E-1,5.056566E-2,0E0,2.0131E-1,1.01186365E-1,0E0,0E0,4.2086637E-1,8.7497056E-2,0E0,0E0,1.4019114E-1,0E0,0E0,0E0,0E0,0E0],"parents":[2147483647,0,0,1,1,2,2,3,3,5,5,6,6,9,9,10,10,13,13],"right_children":[2,4,6,8,-1,10,12,-1,-1,14,16,-1,-1,18,-1,-1,-1,-1,-1],"split_conditions":[3.97E1,4E-1,1E0,3.2E1,8.879819E-3,6.6E1,1.34E1,-3.5797656E-2,-1.8678834E-1,8.296E2,2.2E0,1.6736734E-1,1.3898839E-2,2.55E2,-9.4726466E-2,-1.2070209E-1,9.245024E-3,8.138217E-3,1.8522093E-1],"split_indices":[1,20,10,14,0,0,8,0,0,19,6,0,0,19,0,0,0,0,0],"split_type":[0,0,0,0,0,0,0,0,0,0,0,0,0,0,0,0,0,0,0],"sum_hessian":[1.2291848E1,4.019471E0,8.272377E0,2.3039174E0,1.7155535E0,5.686575E0,2.5858016E0,1.0818511E0,1.2220664E0,3.5039763E0,2.1825986E0,1.4305027E0,1.1552991E0,2.3622282E0,1.1417482E0,1.1606914E0,1.0219073E0,1.1017805E0,1.2604477E0],"tree_param":{"num_deleted":"0","num_feature":"21","num_nodes":"19","size_leaf_vector":"1"}},{"base_weights":[5.50401E-2,1.7736569E-1,-4.1853003E-2,-5.9678856E-2,2.9142576E-1,-1.4496431E-1,1.1673608E-1,-5.055658E-3,3.7466997E-1,6.710301E-2,-2.4619853E-1,1.851155E-1,4.4853747E-2,1.5838783E-2,-3.9663076E-1,-1.8347085E-1,-3.9530206E-2],"categories":[],"categories_nodes":[],"categories_segments":[],"categories_sizes":[],"default_left":[0,0,0,0,0,0,0,0,0,0,0,0,0,0,0,0,0],"id":44,"left_children":[1,3,5,-1,7,9,-1,-1,11,-1,13,-1,-1,-1,15,-1,-1],"loss_changes":[1.6442634E-1,2.7284223E-1,3.327117E-1,0E0,1.2753972E-1,2.666822E-1,0E0,0E0,4.5857847E-2,0E0,2.6222447E-1,0E0,0E0,0E0,3.699392E-2,0E0,0E0],"parents":[2147483647,0,0,1,1,2,2,4,4,5,5,8,8,10,10,14,14],"right_children":[2,4,6,-1,8,10,-1,-1,12,-1,14,-1,-1,-1,16,-1,-1],"split_conditions":[1.8E0,5.1E1,9.9E0,-5.9678856E-2,1.2565E2,3E1,1.1673608E-1,-5.055658E-3,1.01E1,6.710301E-2,9E1,1.851155E-1,4.4853747E-2,1.5838783E-2,8.89E2,-1.8347085E-1,-3.9530206E-2],"split_indices":[6,0,6,0,19,13,0,0,8,0,15,0,0,0,1,0,0],"split_type":[0,0,0,0,0,0,0,0,0,0,0,0,0,0,0,0,0],"sum_hessian":[1.2246401E1,5.045734E0,7.200667E0,1.2051152E0,3.8406188E0,5.97534E0,1.2253273E0,1.0058933E0,2.8347254E0,1.2743131E0,4.701027E0,1.4377186E0,1.3970069E0,1.8677955E0,2.8332312E0,1.7805696E0,1.0526615E0],"tree_param":{"num_deleted":"0","num_feature":"21","num_nodes":"17","size_leaf_vector":"1"}},{"base_weights":[5.3959742E-2,1.0961161E-1,-1.0899653E-1,1.6991846E-1,-1.02318324E-1,-4.328481E-2,2.4461591E-1,5.3614203E-2,4.3465474E-1,-1.0224332E-1,2.442139E-1,1.944769E-1,5.9485555E-2,5.4116384E-3,1.6943388E-1],"categories":[],"categories_nodes":[],"categories_segments":[],"categories_sizes":[],"default_left":[0,0,0,0,0,0,0,0,0,0,0,0,0,0,0],"id":45,"left_children":[1,3,-1,5,-1,-1,7,9,11,-1,13,-1,-1,-1,-1],"loss_changes":[2.765855E-1,3.1555712E-1,0E0,2.5786865E-1,0E0,0E0,3.0294627E-1,4.034443E-1,3.9245486E-3,0E0,1.7154227E-1,0E0,0E0,0E0,0E0],"parents":[2147483647,0,0,1,1,3,3,6,6,7,7,8,8,10,10],"right_children":[2,4,-1,6,-1,-1,8,10,12,-1,14,-1,-1,-1,-1],"split_conditions":[1.7926E4,2.3E0,-1.0899653E-1,1E0,-1.02318324E-1,-4.328481E-2,2E-1,6.8E1,3.5E1,-1.0224332E-1,-2.1E0,1.944769E-1,5.9485555E-2,5.4116384E-3,1.6943388E-1],"split_indices":[1,7,0,16,0,0,20,3,13,0,7,0,0,0,0],"split_type":[0,0,0,0,0,0,0,0,0,0,0,0,0,0,0],"sum_hessian":[1.2218671E1,1.105063E1,1.168041E0,9.979863E0,1.070766E0,1.9917002E0,7.9881635E0,4.62343E0,3.3647337E0,1.59518E0,3.0282497E0,2.101712E0,1.2630216E0,1.8615645E0,1.1666852E0],"tree_param":{"num_deleted":"0","num_feature":"21","num_nodes":"15","size_leaf_vector":"1"}},{"base_weights":[-1.0017598E-2,-1.2232732E-1,1.60673E-1,7.27013E-2,-1.9803092E-1,-3.874627E-2,3.024946E-1,3.9466172E-2,-3.7064692E-1,1.554846E-1,3.7413668E-2,-6.949903E-2,7.808563E-2,-1.69837E-1,-2.855151E-2],"categories":[],"categories_nodes":[],"categories_segments":[],"categories_sizes":[],"default_left":[0,0,0,0,0,0,0,0,0,0,0,0,0,0,0],"id":46,"left_children":[1,3,5,-1,7,-1,9,11,13,-1,-1,-1,-1,-1,-1],"loss_changes":[2.7644137E-1,2.3946294E-1,2.4233581E-1,0E0,3.1931323E-1,0E0,4.119757E-2,1.7777508E-1,5.4324627E-2,0E0,0E0,0E0,0E0,0E0,0E0],"parents":[2147483647,0,0,1,1,2,2,4,4,6,6,7,7,8,8],"right_children":[2,4,6,-1,8,-1,10,12,14,-1,-1,-1,-1,-1,-1],"split_conditions":[8.1666664E1,2.5E1,1.5E0,7.27013E-2,2E0,-3.874627E-2,2.04E2,1.3E0,3.8E1,1.554846E-1,3.7413668E-2,-6.949903E-2,7.808563E-2,-1.69837E-1,-2.855151E-2],"split_indices":[3,14,6,0,6,0,4,6,14,0,0,0,0,0,0],"split_type":[0,0,0,0,0,0,0,0,0,0,0,0,0,0,0],"sum_hessian":[1.2395086E1,7.6469455E0,4.748141E0,1.2148387E0,6.4321065E0,1.7795205E0,2.96862E0,3.0319304E0,3.4001763E0,1.3798506E0,1.5887694E0,1.2430218E0,1.7889086E0,2.3980896E0,1.0020866E0],"tree_param":{"num_deleted":"0","num_feature":"21","num_nodes":"15","size_leaf_vector":"1"}},{"base_weights":[-5.1639926E-2,8.888026E-2,-1.6053717E-1,-8.992589E-2,2.8728092E-1,-3.752031E-2,-2.7972504E-1,1.5889265E-1,-1.1740297E-2,-7.713424E-2,4.9568906E-2,2.6844207E-2,-1.7614701E-1],"categories":[],"categories_nodes":[],"categories_segments":[],"categories_sizes":[],"default_left":[0,0,0,0,0,0,0,0,0,0,0,0,0],"id":47,"left_children":[1,3,5,-1,7,9,11,-1,-1,-1,-1,-1,-1],"loss_changes":[2.089387E-1,4.6005353E-1,9.981729E-2,0E0,1.7682129E-1,1.5414178E-1,2.52718E-1,0E0,0E0,0E0,0E0,0E0,0E0],"parents":[2147483647,0,0,1,1,2,2,4,4,5,5,6,6],"right_children":[2,4,6,-1,8,10,12,-1,-1,-1,-1,-1,-1],"split_conditions":[-5.9E0,3.61E1,1.04E1,-8.992589E-2,3.5E1,7.9257E1,7.0101E0,1.5889265E-1,-1.1740297E-2,-7.713424E-2,4.9568906E-2,2.6844207E-2,-1.7614701E-1],"split_indices":[7,11,8,0,13,18,18,0,0,0,0,0,0],"split_type":[0,0,0,0,0,0,0,0,0,0,0,0,0],"sum_hessian":[1.1721657E1,5.198005E0,6.5236516E0,1.9256642E0,3.2723408E0,3.8572674E0,2.6663842E0,2.1602147E0,1.1121262E0,1.8508872E0,2.00638E0,1.0843648E0,1.5820194E0],"tree_param":{"num_deleted":"0","num_feature":"21","num_nodes":"13","size_leaf_vector":"1"}},{"base_weights":[-8.787063E-2,8.910347E-2,-1.476806E-1,8.903739E-2,-1.6728614E-2,1.4580107E-2,-3.1384397E-1,-1.3938385E-1,1.162441E-1,-7.898418E-3,-3.8493714E-1,-1.2269901E-1,3.5752673E-2,-1.81831E-1,-3.4663193E-2],"categories":[],"categories_nodes":[],"categories_segments":[],"categories_sizes":[],"default_left":[0,0,0,0,0,0,0,0,0,0,0,0,0,0,0],"id":48,"left_children":[1,3,5,-1,-1,7,9,11,-1,-1,13,-1,-1,-1,-1],"loss_changes":[1.4735138E-1,8.053188E-2,2.701983E-1,0E0,0E0,3.0168146E-1,9.468266E-2,2.1375439E-1,0E0,0E0,5.3580344E-2,0E0,0E0,0E0,0E0],"parents":[2147483647,0,0,1,1,2,2,5,5,6,6,7,7,10,10],"right_children":[2,4,6,-1,-1,8,10,12,-1,-1,14,-1,-1,-1,-1],"split_conditions":[6.3333332E1,1.21E1,9.2E1,8.903739E-2,-1.6728614E-2,6.700571E2,1.0471429E2,8.1666664E1,1.162441E-1,-7.898418E-3,3.5E1,-1.2269901E-1,3.5752673E-2,-1.81831E-1,-3.4663193E-2],"split_indices":[3,8,15,0,0,19,4,3,0,0,14,0,0,0,0],"split_type":[0,0,0,0,0,0,0,0,0,0,0,0,0,0,0],"sum_hessian":[1.16778345E1,2.8260238E0,8.85181E0,1.0168866E0,1.8091372E0,4.940046E0,3.9117646E0,3.5353246E0,1.404721E0,1.0133661E0,2.8983986E0,1.8005688E0,1.7347559E0,1.811924E0,1.0864747E0],"tree_param":{"num_deleted":"0","num_feature":"21","num_nodes":"15","size_leaf_vector":"1"}},{"base_weights":[8.2496125E-3,-9.568562E-2,1.0366107E-1,-2.1632999E-1,1.01003036E-1,1.8532827E-1,-6.533675E-2,-3.2858044E-1,1.9737925E-2,-5.053799E-2,1.09014675E-1,-3.609104E-2,3.513518E-1,-2.8783454E-2,-1.7260608E-1,-7.965639E-2,6.64766E-2,1.674998E-1,3.135485E-2],"categories":[],"categories_nodes":[],"categories_segments":[],"categories_sizes":[],"default_left":[0,0,0,0,0,0,0,0,0,0,0,0,0,0,0,0,0,0,0],"id":49,"left_children":[1,3,5,7,9,11,-1,13,-1,-1,-1,15,17,-1,-1,-1,-1,-1,-1],"loss_changes":[1.3820499E-1,1.8111381E-1,1.9142185E-1,1.5093544E-1,1.7031819E-1,2.3436151E-1,0E0,6.357607E-2,0E0,0E0,0E0,1.5694639E-1,4.129818E-2,0E0,0E0,0E0,0E0,0E0,0E0],"parents":[2147483647,0,0,1,1,2,2,3,3,4,4,5,5,7,7,11,11,12,12],"right_children":[2,4,6,8,10,12,-1,14,-1,-1,-1,16,18,-1,-1,-1,-1,-1,-1],"split_conditions":[6.4E1,2.7233334E2,7.9E1,9.2E0,3.5E1,8.7E1,-6.533675E-2,1.3754099E2,1.9737925E-2,-5.053799E-2,1.09014675E-1,1.046E2,3.5E1,-2.8783454E-2,-1.7260608E-1,-7.965639E-2,6.64766E-2,1.674998E-1,3.135485E-2],"split_indices":[0,4,0,5,14,15,0,4,0,0,0,1,14,0,0,0,0,0,0],"split_type":[0,0,0,0,0,0,0,0,0,0,0,0,0,0,0,0,0,0,0],"sum_hessian":[1.1936485E1,5.7116737E0,6.224811E0,3.4783018E0,2.2333717E0,5.0303574E0,1.194454E0,2.2868915E0,1.1914103E0,1.0964116E0,1.13696E0,2.4909227E0,2.5394347E0,1.2243617E0,1.0625298E0,1.3782508E0,1.1126717E0,1.5069945E0,1.0324402E0],"tree_param":{"num_deleted":"0","num_feature":"21","num_nodes":"19","size_leaf_vector":"1"}},{"base_weights":[-4.903899E-2,-1.1190521E-1,1.5209678E-1,-2.501348E-1,5.5084657E-2,1.3465509E-1,-5.7203345E-2,-5.9051935E-2,-1.3982035E-1,-8.797742E-2,2.5214285E-1,3.6859855E-2,-7.716566E-2,1.8652879E-1,-2.2119623E-2],"categories":[],"categories_nodes":[],"categories_segments":[],"categories_sizes":[],"default_left":[0,0,0,0,0,0,0,0,0,0,0,0,0,0,0],"id":50,"left_children":[1,3,5,7,9,-1,-1,11,-1,-1,13,-1,-1,-1,-1],"loss_changes":[1.6984244E-1,2.3962292E-1,2.427059E-1,9.4423115E-2,3.4808826E-1,0E0,0E0,8.7640025E-2,0E0,0E0,2.7755693E-1,0E0,0E0,0E0,0E0],"parents":[2147483647,0,0,1,1,2,2,3,3,4,4,7,7,10,10],"right_children":[2,4,6,8,10,-1,-1,12,-1,-1,14,-1,-1,-1,-1],"split_conditions":[1.2E2,1.26E1,4E-1,3.0666666E2,-1.07E1,1.3465509E-1,-5.7203345E-2,1.5E2,-1.3982035E-1,-8.797742E-2,3.3E1,3.6859855E-2,-7.716566E-2,1.8652879E-1,-2.2119623E-2],"split_indices":[15,8,20,19,7,0,0,1,0,0,13,0,0,0,0],"split_type":[0,0,0,0,0,0,0,0,0,0,0,0,0,0,0],"sum_hessian":[1.1085908E1,8.784037E0,2.3018708E0,4.53346E0,4.250577E0,1.3006308E0,1.0012401E0,2.2109315E0,2.3225286E0,1.6900713E0,2.5605054E0,1.202987E0,1.0079446E0,1.1568639E0,1.4036415E0],"tree_param":{"num_deleted":"0","num_feature":"21","num_nodes":"15","size_leaf_vector":"1"}},{"base_weights":[3.4369923E-2,1.1769926E-1,-1.6981608E-1,2.0520367E-1,-1.0567397E-1,1.7563544E-2,-1.3014393E-1,3.243878E-1,-7.386802E-3,1.7925587E-2,-8.366879E-2,1.6431158E-2,1.559221E-1,7.256987E-2,-8.97781E-2],"categories":[],"categories_nodes":[],"categories_segments":[],"categories_sizes":[],"default_left":[0,0,0,0,0,0,0,0,0,0,0,0,0,0,0],"id":51,"left_children":[1,3,5,7,9,-1,-1,11,13,-1,-1,-1,-1,-1,-1],"loss_changes":[2.2019765E-1,1.9656786E-1,1.5045302E-1,1.738976E-1,6.271808E-2,0E0,0E0,7.718992E-2,1.9085547E-1,0E0,0E0,0E0,0E0,0E0,0E0],"parents":[2147483647,0,0,1,1,2,2,3,3,4,4,7,7,8,8],"right_children":[2,4,6,8,10,-1,-1,12,14,-1,-1,-1,-1,-1,-1],"split_conditions":[-1.3E0,1.13E1,3.7E1,1.1E0,4.517E1,1.7563544E-2,-1.3014393E-1,7.81E1,7.1666664E1,1.7925587E-2,-8.366879E-2,1.6431158E-2,1.559221E-1,7.256987E-2,-8.97781E-2],"split_indices":[7,5,14,20,1,0,0,1,3,0,0,0,0,0,0],"split_type":[0,0,0,0,0,0,0,0,0,0,0,0,0,0,0],"sum_hessian":[1.0766919E1,7.947197E0,2.8197227E0,5.7687025E0,2.1784945E0,1.5387248E0,1.2809978E0,3.3594308E0,2.4092715E0,1.1554309E0,1.0230637E0,1.0479672E0,2.3114636E0,1.3779895E0,1.031282E0],"tree_param":{"num_deleted":"0","num_feature":"21","num_nodes":"15","size_leaf_vector":"1"}},{"base_weights":[4.117162E-2,1.0744128E-1,-1.0310466E-1,-7.983351E-2,1.7089568E-1,2.3734492E-1,-4.960523E-2,-1.0611666E-2,3.3060998E-1,3.951234E-1,1.6749403E-2,1.7641859E-1,4.7120214E-2],"categories":[],"categories_nodes":[],"categories_segments":[],"categories_sizes":[],"default_left":[0,0,0,0,0,0,0,0,0,0,0,0,0],"id":52,"left_children":[1,3,-1,-1,5,7,-1,-1,9,11,-1,-1,-1],"loss_changes":[2.551415E-1,2.3137216E-1,0E0,0E0,2.0417845E-1,1.9466552E-1,0E0,0E0,8.756906E-2,1.687485E-2,0E0,0E0,0E0],"parents":[2147483647,0,0,1,1,4,4,5,5,8,8,9,9],"right_children":[2,4,-1,-1,6,8,-1,-1,10,12,-1,-1,-1],"split_conditions":[3.68E1,4.1E1,-1.0310466E-1,-7.983351E-2,7.9E1,2.66E1,-4.960523E-2,-1.0611666E-2,8.8333336E1,4.2E0,1.6749403E-2,1.7641859E-1,4.7120214E-2],"split_indices":[11,0,0,0,0,1,0,0,3,6,0,0,0],"split_type":[0,0,0,0,0,0,0,0,0,0,0,0,0],"sum_hessian":[1.01669855E1,8.892198E0,1.2747873E0,1.1229812E0,7.7692165E0,6.5218387E0,1.2473779E0,1.8839006E0,4.637938E0,3.4824698E0,1.1554682E0,2.3293617E0,1.1531081E0],"tree_param":{"num_deleted":"0","num_feature":"21","num_nodes":"13","size_leaf_vector":"1"}},{"base_weights":[8.4319515E-3,1.7958616E-1,-8.9115374E-2,1.4818057E-1,-4.2890087E-2,1.1403692E-1,-1.9869697E-1,1.08469985E-1,-3.4815807E-2,-1.5908532E-1,2.6915263E-2,-5.2928444E-2,5.8298413E-2],"categories":[],"categories_nodes":[],"categories_segments":[],"categories_sizes":[],"default_left":[0,0,0,0,0,0,0,0,0,0,0,0,0],"id":53,"left_children":[1,3,5,-1,-1,7,9,-1,-1,-1,11,-1,-1],"loss_changes":[2.1257356E-1,3.1094152E-1,2.044889E-1,0E0,0E0,1.4233941E-1,2.8012085E-1,0E0,0E0,0E0,9.40608E-2,0E0,0E0],"parents":[2147483647,0,0,1,1,2,2,5,5,6,6,10,10],"right_children":[2,4,6,-1,-1,8,10,-1,-1,-1,12,-1,-1],"split_conditions":[1.00737E1,3.63E1,3.1E1,1.4818057E-1,-4.2890087E-2,3.63E1,3.423E2,1.08469985E-1,-3.4815807E-2,-1.5908532E-1,1.5416667E2,-5.2928444E-2,5.8298413E-2],"split_indices":[18,11,12,0,0,11,1,0,0,0,4,0,0],"split_type":[0,0,0,0,0,0,0,0,0,0,0,0,0],"sum_hessian":[1.0773717E1,3.605891E0,7.167826E0,1.9419942E0,1.6638969E0,2.4973516E0,4.6704745E0,1.1752911E0,1.3220607E0,1.9962075E0,2.6742668E0,1.1041787E0,1.5700883E0],"tree_param":{"num_deleted":"0","num_feature":"21","num_nodes":"13","size_leaf_vector":"1"}},{"base_weights":[-2.4050756E-3,-1.2916616E-1,1.888055E-1,-2.2396702E-1,7.115147E-2,2.6291829E-2,1.1803077E-1,-4.7001474E-2,-1.5533409E-1,3.6979616E-2,-2.0091133E-2,-2.0900923E-1,9.054859E-2,4.210335E-2,-1.5766688E-1],"categories":[],"categories_nodes":[],"categories_segments":[],"categories_sizes":[],"default_left":[0,0,0,0,0,0,0,0,0,0,0,0,0,0,0],